tree
version=v2
num_class=1
num_tree_per_iteration=1
label_index=0
max_feature_idx=221
objective=binary sigmoid:1
feature_names=Column_0 Column_1 Column_2 Column_3 Column_4 Column_5 Column_6 Column_7 Column_8 Column_9 Column_10 Column_11 Column_12 Column_13 Column_14 Column_15 Column_16 Column_17 Column_18 Column_19 Column_20 Column_21 Column_22 Column_23 Column_24 Column_25 Column_26 Column_27 Column_28 Column_29 Column_30 Column_31 Column_32 Column_33 Column_34 Column_35 Column_36 Column_37 Column_38 Column_39 Column_40 Column_41 Column_42 Column_43 Column_44 Column_45 Column_46 Column_47 Column_48 Column_49 Column_50 Column_51 Column_52 Column_53 Column_54 Column_55 Column_56 Column_57 Column_58 Column_59 Column_60 Column_61 Column_62 Column_63 Column_64 Column_65 Column_66 Column_67 Column_68 Column_69 Column_70 Column_71 Column_72 Column_73 Column_74 Column_75 Column_76 Column_77 Column_78 Column_79 Column_80 Column_81 Column_82 Column_83 Column_84 Column_85 Column_86 Column_87 Column_88 Column_89 Column_90 Column_91 Column_92 Column_93 Column_94 Column_95 Column_96 Column_97 Column_98 Column_99 Column_100 Column_101 Column_102 Column_103 Column_104 Column_105 Column_106 Column_107 Column_108 Column_109 Column_110 Column_111 Column_112 Column_113 Column_114 Column_115 Column_116 Column_117 Column_118 Column_119 Column_120 Column_121 Column_122 Column_123 Column_124 Column_125 Column_126 Column_127 Column_128 Column_129 Column_130 Column_131 Column_132 Column_133 Column_134 Column_135 Column_136 Column_137 Column_138 Column_139 Column_140 Column_141 Column_142 Column_143 Column_144 Column_145 Column_146 Column_147 Column_148 Column_149 Column_150 Column_151 Column_152 Column_153 Column_154 Column_155 Column_156 Column_157 Column_158 Column_159 Column_160 Column_161 Column_162 Column_163 Column_164 Column_165 Column_166 Column_167 Column_168 Column_169 Column_170 Column_171 Column_172 Column_173 Column_174 Column_175 Column_176 Column_177 Column_178 Column_179 Column_180 Column_181 Column_182 Column_183 Column_184 Column_185 Column_186 Column_187 Column_188 Column_189 Column_190 Column_191 Column_192 Column_193 Column_194 Column_195 Column_196 Column_197 Column_198 Column_199 Column_200 Column_201 Column_202 Column_203 Column_204 Column_205 Column_206 Column_207 Column_208 Column_209 Column_210 Column_211 Column_212 Column_213 Column_214 Column_215 Column_216 Column_217 Column_218 Column_219 Column_220 Column_221
feature_infos=[-0.66660875247738538:1.5001303182467962] [-8.1373495651444507:2.1483999559638751] [-4.3779223848433686:3.5022868898354638] [-18.3378899910428:2.4683466340335181] [-21.006071946094025:2.3122907041617031] [-1.5306203201835575:2.2893964263834321] [-3.704427823718234:2.9296717858440502] [-11.33328930330789:3.3327372274079341] [-32.949333493316509:3.1967908628766741] [-32.949333493316509:3.1967908628766741] [-7.8085883089635022:2.2254975492503859] [-17.857815559059315:2.6574629473632743] [-16.154677933969346:2.3278782216874796] [-16.75094649382174:1.2357614804000838] [-2.4141643017562262:2.3747111850986409] [-7.2192292900460542:3.7283902127272288] [-17.149592605366319:2.6216147303155917] [-21.919086265114885:2.1543706740913064] [-22.928143756125145:1.4178250799485699] [-8.0162479344193702:1.9772158362150674] [-16.855134997564029:3.0459406184226583] [-16.751161469856712:2.0554000584392345] [-18.066199179818138:1.527750003179791] [-3.9349436019709647:2.9096876804993599] [-10.672993608503525:3.1526934472406216] [-21.919345892938015:2.1544994146159753] [-21.919345892938015:2.1544994146159753] [-23.093185885727191:1.2328068181819845] [-1.1223668761062424:1.1073188676149188] [-0.66607975216140092:1.5013217212429022] [-1.4276977719348267:2.4379705002367782] [-3.7339224587129647:2.6134676966095269] [-2.9333835772572456:30.738083536821851] [-3.2240314874052038:3.7395230753322357] [-3.0107868314937201:5.5036072309208528] [-2.7554529958926564:5.0622567270790064] [-2.8627245369341248:5.9895516457584925] [-2.1035592156724578:5.4440007390364666] [-2.439311592218945:6.4961290953426314] [-0.091844095574195123:19.335774290239243] [-0.096846540421042751:15.908454454662612] [-3.5701620149651059:2.8602233026090316] [-3.6582572113326766:5.8456517743051313] [-3.1910959187662264:6.0568323661026087] [-3.1626975811144029:3.0399524218211993] [-6.8314086237491161:2.0463326886982789] [-6.6116783572813711:2.7162279261549238] [-3.1612055651960338:3.2402944662779714] [-6.9540744460281667:1.3814547608352965] [-6.2137805548762:2.8767669400880846] [-4.1835623931379313:3.1775259843700216] [-17.341399251298675:8.7230571606464284] [-11.709000218721146:6.5520309276518844] [-4.3162531396685555:2.9576648069356257] [-19.461655168101299:7.2912605113563309] [-10.718021113794704:7.6989122827212864] [-4.3378097615384519:3.1710033283402765] [-29.848785705962118:7.5821664698792421] [-10.406289572985967:12.664635756425689] [-0.1016213817339663:11.41435712073152] [-0.10177466855901741:10.494669039957287] [-0.1017900994900776:10.242705311387812] [-0.10161047228073418:10.922990842372261] [-0.10180551999248409:10.336855814478364] [-0.10178991261402853:10.154142265703605] [-9.0480637097973435:0.11052088403369582] [-5.7744860869573627:0.76494676201893819] [-4.6508233305113427:3.9042955077865451] [-4.7187908457011858:0.58445258260482058] [-4.5049497963332179:0.66126577227518302] [-0.68295662091716136:6.1710874199026033] [-2.4476711803183493:0.69054277751308146] [-0.10226932654337859:10.673634049358457] [-0.10216402654250893:18.69761171503168] [-0.66607975216140092:1.5013217212429022] [-4.0781784118824929:3.6061979176883869] [-3.9693243678267822:3.4626004382807323] [-2.0818381492726425:0.48034473782190129] [-7.6178972538425223:2.1577589554334802] [-2.4314036821788423:3.9303096377098843] [-5.0799128330172385:4.2623087736864296] [-0.79884044617905581:4.0279277065680184] [-7.2333437878441611:3.2455778806281272] [-3.1443604326545813:4.186891853879235] [-5.6858364107702997:4.2072279869636704] [-0.52016408218964638:6.2148041211564937] [-9.3151707018632308:2.8811095507757751] [-3.6014162835634682:3.5611037512296666] [-6.2700827141289066:4.0458991528761441] [-0.28279635261732206:5.0972937392178164] [-8.662362389925887:3.1355698069058526] [-7.0880826653985336:4.6484953859834564] [-10.477474413751544:2.9385839724424128] [-0.1295643374413655:9.20221697204056] [-8.8230069605063903:2.8030087600518909] [-6.8332561014637863:5.3802740450360851] [-10.65410818826966:2.2354103763218478] [-0.075024267435498629:19.257015617697089] [-7.1244608462586214:2.930651519198654] [-5.3272732129221492:5.8312901258638039] [-10.261640801786969:1.3153093004371346] [-0.075024267435498629:19.257015617697089] [-5.6516418655572265:4.1563989679254281] [-1.9036436205506075:1.0427013873784325] [-3.4966098933334102:0.97215110836560514] [-2.0818381492726425:0.48034473782190129] [-4.4723525701470432:2.9523377832601034] [-0.62875459976834014:5.8228498777125743] [-0.16951214721918931:6.0370434550118155] [-11.856344899081309:6.6787881845114683] [-0.16945877538357945:6.0144872774481071] [-0.15006849221302435:6.6651328233416161] [-1.277606152242625:6.1881106234629408] [-1.2758958495365469:7.8673105106881929] [-1.3357207380538252:5.8379017845715788] [-1.3792785476561273:6.6801335697118978] [-1.4511708470498714:5.3979418025579866] [-1.4525090356808039:5.4091177628599914] [-1.4410713443777885:5.4020961443245028] [-0.8373282301468622:3.7245243237877301] [-0.8373282301468622:3.7245243237877301] [-0.93279238885690607:1.7589154291316091] [-16.327026513774559:0.94427001154107626] [-0.8042438349988047:1.2434039982432521] [-0.92162719139468396:1.6457895505757636] [-1.0718306989114765:0.95328427024766316] [-0.8042438349988047:1.2434039982432521] [-0.94685030923256519:2.4118717549905777] [-21.781871932197234:1.0046942543638322] [-0.61104769915145141:1.6365334512979559] [-0.94685030923256519:2.4118717549905777] [-1.0704957256166425:1.0182197390296877] [-0.61104769915145141:1.6365334512979559] [-0.8170823857920857:3.0356351910121377] [-19.021694532829837:0.93004684957823858] [-3.9413568349338162:0.25371973203151788] [-0.88451506301203331:3.1626939528956446] [-1.0747066465714266:0.94849389299503661] [-3.9413568349338162:0.25371973203151788] [-0.94384898942080653:2.3626394079119444] [-29.626062135405803:0.73527183385737171] [-3.1627520551874007:0.61032159777108652] [-0.94384898942080653:2.3626394079119444] [-2.2615726671784357:0.75413548551546672] [-4.4830422748853014:0.2230628083973589] [-0.87127802699619505:2.696461672366659] [-33.556890642632979:1.0123715899824175] [-4.4830422748853014:0.2230628083973589] [-0.87127802699619505:2.696461672366659] [-1.0712079117805187:1.0469549635197524] [-4.4830422748853014:0.2230628083973589] [-1.8067506342172019:2.9912316478976062] [-1.9118430295931415:1.8992717618580164] [-1.8067506342172019:2.9912316478976062] [-1.9205572492784737:1.8960090261444531] [-1.5111333309842157:1.5128766690856248] [-3.1318933078269287:1.6234214318393119] [-1.5111333309842157:1.5128766690856248] [-3.117944663610039:1.6326387941388369] [-1.4263918730068408:2.6008266363258801] [-1.9634392084837797:2.3503021311798178] [-0.55130499253235632:1.8138780049979495] [-1.4263918730068408:2.6008266363258801] [-1.973829982526998:2.3713772283229022] [-0.55130499253235632:1.8138780049979495] [-1.4206617637659598:3.4520643913297331] [-3.6268878175510171:1.4481930158361789] [-0.052203318478102716:19.155870338385903] [-1.4206617637659598:3.4520643913297331] [-3.6315023685943375:1.4455669049730073] [-0.052203318478102716:19.155870338385903] [-1.7001181143570678:2.0747777976310671] [-2.5048237092435142:2.0846293737008259] [-1.685450570010546:2.1188564888800894] [-2.5145815918112366:2.0898058150751075] [-1.6620257282860385:1.9462816711653821] [-1.6670233199762163:2.2071965809054905] [-1.6677228885423441:1.9637530306291706] [-1.6651015054116645:2.2116006933887133] [-1.5628762971615442:2.1819499782743712] [-3.0232416076494895:1.4588366781695392] [-1.5579458717633909:2.1670976801159565] [-3.0371214218938904:1.4538673738333805] [-2.6977306589971497:2.7883127390654354] [-4.451685978868829:3.120319059708637] [-1.1031320467218639:5.4024255546286559] [-4.409381140663835:2.6601794711714413] [-1.7956448156806879:51.190860473488605] [-2.1079276286554558:50.15716884149856] [-2.4953916867778356:15.812807846954497] [-2.228401813873357:17.576124232994928] [-1.0737600373616221:5.1358375650016965] [-0.46435160352861143:4.7889951691261397] [-1.6972706491371117:7.1676996545664524] [-0.67171715002408616:4.6300379799311004] [-0.92959384112349952:6.7551729440657029] [-0.71386664222565832:20.745630488746553] [-0.53695219878104072:22.113736355758888] [-0.59177749361012211:13.823520941903196] [-0.58929704455688647:12.008879098942929] [-0.15848450683974269:7.3097602550332539] [-0.25647954680256857:14.484234674557596] [-0.30829475767904813:12.146661425244011] [-0.82193212855328657:5.4280375127585563] [-0.36507621616375635:5.7559500627768525] [-0.27742281544591552:130.52742241847764] [-0.2990558137639201:6.2192219769898927] [-0.69873316768804572:9.1962289767549272] [-0.19590748780300213:11.432281551668028] [-0.35808856240688597:43.216260174803971] [-0.76161798725428875:4.7785097222573532] [-0.70870172322394753:5.4425308574131899] [-0.25536515823175648:7.2615098783922845] [-1.54177440430132:3.2799154464095306] [-1.7634471474289564:1.7420339054090779] [-1.6061361689360858:1.7554333774064332] [-1.6284609488246546:1.6311977216973568] [-1.7051918991390833:1.7045974427029313] [-1.6477049919006694:1.5757784320517594] [-1.000898191564308:5.0469826506922084] [-0.96150021110547323:3.5159026134687834] [-1.1571805501597223:4.8462156238828333]
tree_sizes=2483 2505 2516 2533 2504 2524 2507 2524 2527 2548

Tree=0
num_leaves=31
num_cat=0
split_feature=0 19 192 2 48 193 214 22 193 32 37 22 70 192 37 137 92 156 2 169 110 110 166 152 174 27 90 107 174 27
split_gain=12412.5 2852.16 2322.79 1258.03 985.854 520.734 592.295 339.019 329.552 365.902 276.32 220.669 218.27 213.365 212.501 167.573 156.073 154.149 148.169 151.984 137.466 118.901 109.982 108.819 108.201 92.2166 93.9328 90.1895 82.6674 82.4654
threshold=1.0000000180025095e-35 -0.65639999206115029 1.7794473382532678 -0.50302042471760466 0.90555084418046183 0.55611913035468818 1.0000000180025095e-35 0.22658931524633466 0.59342176155057946 -0.77820143445217227 -0.59182770298046095 0.22658931524633466 -0.37140916451626316 0.75156481430072242 -0.32503328191173969 0.92115752623905367 -1.1219964535900047 -2.8477132923181721 0.80103311955548828 0.28787609565663824 -0.16933044521863921 -0.16940189864743407 -1.0044031679925467 0.17652023112907769 -0.86603033593389311 0.61444264768696 -1.1508284561953974 1.676856871896544 -0.18756030921328332 0.47465229512160739
decision_type=2 2 2 2 2 2 2 2 2 2 2 2 2 2 2 2 2 2 2 2 2 2 2 2 2 2 2 2 2 2
left_child=-1 -2 3 8 10 7 12 16 11 23 22 -3 -7 24 -6 -16 -5 -12 25 27 -17 28 -4 -10 -8 26 -9 -20 -13 -19
right_child=1 2 4 5 14 6 13 18 9 -11 17 21 -14 -15 15 20 -18 29 19 -21 -22 -23 -24 -25 -26 -27 -28 -29 -30 -31
leaf_value=-2.3523461489024911 -2.3500805385230312 -2.2893257756738956 -2.1383354000321635 -2.0927751472615155 -1.82859467167353 -2.0583746431949832 -2.1891959792390003 -1.9949898450763317 -1.9912480461158142 -2.2339599295333437 -1.8381017116892373 -2.0826145251189936 -2.2368532183413072 -2.2398980319651929 -2.1850126415553213 -1.8964754045620931 -2.2140695468596685 -2.2037018384798106 -2.13277956543013 -1.9177374777651841 -2.1256362357224545 -2.2755979921672989 -1.8909329031111459 -2.2050926624369818 -1.9215676688897538 -1.9824510273982208 -2.1558846346720664 -1.8704256477426418 -2.2017459922900384 -2.0279765808141308
leaf_count=38295 2393 2925 76 369 697 375 48 118 352 748 41 268 459 75 90 518 2383 693 321 219 93 416 188 90 874 114 1481 45 508 91
internal_value=0 2.45853 3.03151 2.40771 6.08856 3.38705 4.97283 2.81209 1.1379 2.74674 3.61247 0.672874 2.81435 6.77841 8.01735 6.66795 1.99028 2.6234 3.79627 5.30448 7.31928 1.93169 6.7033 5.25057 7.23638 3.28121 3.06617 3.93594 2.73434 2.28029
internal_count=55363 17068 14675 12188 2487 6881 1831 5050 5307 1190 1089 4117 834 997 1398 701 2752 825 2298 585 611 1192 264 442 922 1713 1599 366 776 784
shrinkage=1


Tree=1
num_leaves=31
num_cat=0
split_feature=0 10 192 4 2 45 2 152 193 32 193 214 96 191 166 96 53 83 156 41 189 175 27 53 7 37 37 37 203 192
split_gain=10510.9 2137.57 1261.47 892.856 409.127 362.666 226.382 179.268 171.025 183.737 143.975 175.026 131.651 134.082 188.357 110.116 97.3687 96.283 95.9207 122.754 92.7412 90.0353 86.1476 78.8673 76.4901 75.4194 72.3077 70.5817 80.8834 69.9444
threshold=1.0000000180025095e-35 -0.79571443360598526 1.7794473382532678 1.0000000180025095e-35 -0.31672706125001976 0.95581429218657388 0.80103311955548828 -0.087431379427168179 0.59342176155057946 -0.77820143445217227 0.52503360435811197 1.0000000180025095e-35 -0.30391961331208323 1.0029483618860555 -0.40125417061337604 -1.1997014264607668 -1.9530543156090443 -0.84891900770740958 -2.8477132923181721 -1.713910000246037 0.054105397415153557 1.0000000180025095e-35 0.48575754868227761 -2.0072435639895114 -0.22815827754388027 -0.74869084957622145 -0.99241466924643018 -0.34237153069838194 2.1066549161413586 -0.42490393348452998
decision_type=2 2 2 2 2 2 2 2 2 2 2 2 2 2 2 2 2 2 2 2 2 2 2 2 2 2 2 2 2 2
left_child=-1 -2 3 4 8 18 10 26 23 20 15 29 -6 -14 -15 17 25 -5 -4 -20 -10 -21 24 -3 -8 -17 -7 -9 -29 -12
right_child=1 2 5 6 12 7 22 27 9 -11 11 -13 13 14 -16 16 -18 -19 19 21 -22 -23 -24 -25 -26 -27 -28 28 -30 -31
leaf_value=-0.054757283367913627 -0.052937840290536269 0.25474503470641197 0.322538766762825 0.04225836090250331 0.16481005304877061 0.3197786850513385 0.24470887973966962 0.32685025707207527 0.23815760864466098 0.032561296404410495 0.023475766209057433 0.23682190908849338 0.069903842231687677 0.29551791715912507 0.054411580588480141 0.47892134012247534 0.099067319352668506 0.22864104477483471 0.22121168972342684 0.028135813949939126 0.039138986093600586 0.15705112072817839 0.29347408526457702 0.0060707557221423517 0.13246615610565313 0.1429197756161133 0.14371170940539937 0.20281256931157313 0.31289457051231134 0.15253550981115638
leaf_count=38295 2380 38 58 93 776 61 311 599 222 567 174 644 1844 164 171 33 2547 365 222 342 78 254 296 3166 301 42 340 328 287 365
internal_value=0 2.09015 2.52198 2.05786 1.27308 4.4881 3.07512 5.29373 0.559293 1.836 2.74791 3.68472 2.18094 1.75616 3.61682 2.35968 2.09145 3.82645 2.78301 2.4743 3.7528 1.66863 4.49556 0.180295 3.80799 5.82882 3.47049 5.84213 5.10521 2.2499
internal_count=55363 17068 14688 12197 7026 2491 5171 1615 4071 867 4263 1183 2955 2179 335 3080 2622 458 876 818 300 596 908 3204 612 75 401 1214 615 539
shrinkage=0.05


Tree=2
num_leaves=31
num_cat=0
split_feature=0 10 50 4 110 96 29 191 35 191 110 194 160 211 43 100 214 4 55 50 30 106 96 198 49 22 185 193 213 203
split_gain=9113.12 1678.76 856.395 611.493 296.259 211.294 198.616 362.887 164.721 149.645 144.732 119.141 95.4128 90.1193 115.733 85.3352 75.2613 110.569 89.2388 72.4756 73.3308 72.2398 69.3183 93.2968 60.1281 59.7333 59.5301 59.2388 57.3913 56.735
threshold=1.0000000180025095e-35 -0.79571443360598526 -1.4157403285039067 -0.090746668192894744 -0.16943829074371577 -0.05914947552753564 1.0000000180025095e-35 0.97899950060972329 -1.8701081189715423 0.64029417684445133 -0.16943491285745665 3.9833133351758083 0.9174718848572142 1.3682748382665098 -1.0778515614072302 -1.087149704063411 1.0000000180025095e-35 0.7992671734199196 0.50123985802835536 -2.1738231218197517 0.30256859443019307 -0.45493590537855561 0.42782776194957428 1.704009480504151 1.0465264414726325 0.53274477123067798 -0.43973637026835682 0.54399577521602305 0.86907052105410576 4.1868169376023072
decision_type=2 2 2 2 2 2 2 2 2 2 2 2 2 2 2 2 2 2 2 2 2 2 2 2 2 2 2 2 2 2
left_child=-1 -2 4 6 8 16 11 22 -3 12 -11 15 -7 14 21 -4 17 24 27 -10 -21 -6 23 -8 -5 -14 -9 -18 -26 -17
right_child=1 2 3 5 13 9 7 26 19 10 -12 -13 25 -15 -16 29 18 -19 -20 20 -22 -23 -24 -25 28 -27 -28 -29 -30 -31
leaf_value=-0.054503792102142817 -0.052608328113189856 0.26686853952169087 0.077633873993435507 0.095399155233685196 0.084325050005999769 0.061854474987711176 0.060914962803073472 0.23647104424362841 0.16154474369072833 0.17326129055111292 0.065594142440299874 0.13423340235844519 0.10754440931540088 0.22709563815863898 0.014699246549686835 0.0015334212185525171 0.15693335486596313 0.24663973079242024 0.057441544355832611 0.049995897405311344 0.2423481887761863 0.2513079364355148 0.0092535771792242039 0.2448411481048571 -0.0090344474163863223 0.23116030855190806 0.12364396453982157 0.23133517396178283 0.28248410804405544 0.1650791784500171
leaf_count=38295 2380 128 502 852 82 2159 773 299 228 914 471 219 456 1356 127 2816 437 154 114 660 51 161 733 73 22 119 154 499 75 54
internal_value=0 1.82318 2.16579 1.76515 3.56963 2.41173 0.966785 1.75284 2.25755 1.98352 2.79936 0.490112 1.5441 4.23752 2.91599 0.325587 3.16563 2.58606 3.71334 1.78856 1.28083 3.96839 0.942987 1.56535 2.17705 2.68961 3.99215 3.99881 4.45504 0.0990359
internal_count=55363 17068 14688 11895 2793 6272 5623 2032 1067 4119 1385 3591 2734 1726 370 3372 2153 1103 1050 939 711 243 1579 846 949 575 453 936 97 2870
shrinkage=0.05


Tree=3
num_leaves=31
num_cat=0
split_feature=0 19 50 4 11 110 27 96 191 154 35 100 191 193 29 37 213 191 22 154 125 22 169 220 57 133 14 11 190 160
split_gain=8018.34 1362.21 605.252 466.233 203.728 188.887 164.189 120.635 122.218 112.616 101.019 83.6403 86.3761 83.1785 92.3645 69.2941 75.3985 64.5981 59.5285 54.4223 53.8486 52.9828 52.2101 49.5127 53.0824 49.4296 48.9374 57.8014 46.2874 45.5439
threshold=1.0000000180025095e-35 -0.93441364583067987 -1.4991265756229739 1.0000000180025095e-35 -0.26201899393532496 -0.16943829074371577 0.59318175607163692 -0.30391961331208323 0.64029417684445133 0.14572205154573445 -1.8701081189715423 0.060246824173914679 1.6050911596909836 0.59342176155057946 1.0000000180025095e-35 -0.54901860662777457 0.25090515557835558 -1.003624086480934 0.22658931524633466 -0.90865118726158456 0.9477609204240921 1.0000000180025095e-35 -0.72330010578285409 -0.71275560974023666 -0.58255317803834172 -1.0000000180025095e-35 1.7978110230527726 -0.57763866326490321 -0.42591614831737229 -1.296043873273202
decision_type=2 2 2 2 2 2 2 2 2 2 2 2 2 2 2 2 2 2 2 2 2 2 2 2 2 2 2 2 2 2
left_child=-1 -2 5 4 13 10 11 19 20 -10 -3 -5 26 -4 23 -7 28 -16 -12 -6 -9 -22 -20 -15 -25 -23 27 -13 -17 -14
right_child=1 2 3 6 7 15 -8 8 9 -11 18 12 29 14 17 16 -18 -19 22 -21 21 25 -24 24 -26 -27 -28 -29 -30 -31
leaf_value=-0.054264885446233126 -0.053143331559429179 0.20906267697285386 0.0031900374010271531 0.12888972089098452 0.17343634440251637 0.20835772201934427 0.20083798222639923 0.020265960009842571 0.1397692652055938 0.028287102549590156 0.048977110016315259 0.015762785494663031 0.24114835764177067 -0.049671344238557111 -0.02620109704390268 0.1147103766247098 0.061370414843242953 0.17331108609957466 0.060898341951050941 0.095923635487015116 0.035337169136722898 -0.020175540540430539 0.17515357780374274 0.26071658789965396 0.036066766011267619 0.21658370759268039 0.24730852104363646 0.084654060172471471 0.18512741272655317 0.12365707506541962
leaf_count=38295 2356 127 2414 1631 258 629 371 1631 564 357 555 330 81 172 50 210 176 167 152 756 190 29 192 27 217 103 38 2411 635 239
internal_value=0 1.61625 1.8957 1.57127 1.01176 3.02801 2.22194 1.47034 1.12178 2.01613 1.99597 2.06744 1.76683 0.366566 1.32691 3.5268 3.08936 2.74703 1.60933 2.33022 0.644628 1.84948 2.5398 0.378408 1.25631 3.34766 1.58196 1.53381 3.36488 3.12871
internal_count=55363 17068 14712 12036 6935 2676 5101 3888 2874 921 1026 4730 3099 3047 633 1650 1021 217 899 1014 1953 322 344 416 244 132 2779 2741 845 320
shrinkage=0.05


Tree=4
num_leaves=31
num_cat=0
split_feature=0 19 2 50 50 2 19 13 110 110 18 198 85 3 92 37 35 193 32 22 44 25 99 189 3 5 11 152 193 119
split_gain=7132.74 1129.88 590.87 224.708 217.475 142.145 140.853 132.797 148.09 115.123 106.142 67.2173 84.2114 66.8213 72.5953 64.9612 57.3966 52.28 51.0339 50.1278 49.1559 47.0836 56.5023 47.0468 46.6805 43.9873 51.0767 43.082 41.5997 41.0464
threshold=1.0000000180025095e-35 -0.93441364583067987 -0.50302042471760466 -1.4157403285039067 -1.7589554458733374 0.80103311955548828 0.58714756736742058 0.1900226446895128 -0.16939495506551305 -0.16943829074371577 0.1427665282224661 1.6458809332421112 0.87734182000467753 -0.55942660618281137 -0.0027498203594575831 -0.60202168964491987 -1.7043714714229672 0.59342176155057946 -0.47301112684962104 0.22658931524633466 0.063767567355801816 -0.92402602687461555 0.79533342273580954 0.17455407855812957 -1.646319564209187 -1.078709208722052 -0.57763866326490321 0.39123734437950325 0.17065860799714458 1.4435980468204341
decision_type=2 2 2 2 2 2 2 2 2 2 2 2 2 2 2 2 2 2 2 2 2 2 2 2 2 2 2 2 2 2
left_child=-1 -2 4 9 15 6 13 11 10 16 25 21 -13 19 29 -3 -4 -12 -8 24 -16 22 -6 -19 -5 -9 -27 -17 -18 -15
right_child=1 2 3 5 7 -7 18 8 -10 -11 17 12 -14 14 20 27 28 23 -20 -21 -22 -23 -24 -25 -26 26 -28 -29 -30 -31
leaf_value=-0.054039620336260433 -0.052867002832947665 0.16311187169960417 0.17824449239150986 0.2211527638033359 0.0235856729035573 0.13051743601035998 0.076627616458757708 0.050862512018128581 -0.00035207992228599621 0.16680358488791991 0.038814043678877336 0.031527033047007179 0.19779984123132976 0.150997819152245 0.1178933570040121 0.043190983193723026 0.053389505342031289 0.14738305463244691 0.032896628304771816 0.11311721380623595 0.056339115737083681 -0.0046743909902420893 0.17806639609474439 0.01363330311476427 0.018714756302455587 0.077240948813681751 0.1935724655605858 0.12196628556789091 0.14217254670544349 0.069734239714459884
leaf_count=38295 2356 249 112 26 278 1505 1078 97 668 1155 843 302 72 906 568 276 419 186 1201 247 582 2446 74 72 430 122 290 224 140 144
internal_value=0 1.4503 1.68489 2.13878 0.943747 1.87147 1.63369 0.691655 1.23228 2.91048 1.7093 0.251674 1.43513 2.05555 2.29575 2.23687 1.94528 1.17966 1.0882 1.24959 1.76093 0.0671444 1.16793 2.23873 0.625025 2.81726 3.23499 1.65478 1.53205 2.80622
internal_count=55363 17068 14712 8513 6199 6687 5182 5450 2278 1826 1610 3172 374 2903 2200 749 671 1101 2279 703 1150 2798 352 258 456 509 412 500 559 1050
shrinkage=0.05


Tree=5
num_leaves=31
num_cat=0
split_feature=0 19 4 192 203 74 198 27 191 193 68 156 152 70 88 183 108 175 203 22 152 94 193 48 27 78 37 204 82 76
split_gain=6502.91 963.721 381.967 188.869 147.14 112.965 192.92 103.225 90.8479 81.9043 93.3911 83.6643 81.6197 78.862 77.9753 64.9981 86.6282 61.7212 61.1379 58.6396 54.8171 51.1655 53.8292 50.7555 50.4767 48.7889 46.8686 45.8354 45.2681 39.4962
threshold=1.0000000180025095e-35 -0.81419152528169392 -0.090746668192894744 1.7794473382532678 1.8033475659012248 1.0000000180025095e-35 1.1224333651474401 0.63894521047391584 0.87807215665946559 0.48151386796290546 0.46392432287059332 1.1667994787534293 -0.13028362708224087 -0.37140916451626316 -0.69098722461508177 -1.5109865594402936 -0.16939260471519277 -1.0019694966790709 4.1917885043624414 0.22658931524633466 -0.6992155959495906 -0.048358239163621017 0.47529676276359012 1.1074494754885731 -1.2101108896176846 1.1114582517844094 -0.045644628011027949 -0.33025809171016923 -1.4469062731108375 0.56607365622636563
decision_type=2 2 2 2 2 2 2 2 2 2 2 2 2 2 2 2 2 2 2 2 2 2 2 2 2 2 2 2 2 2
left_child=-1 -2 3 5 7 14 8 9 24 11 20 15 -6 26 17 16 -4 -3 23 -13 -11 27 -23 -16 -7 -22 -5 -17 -24 -21
right_child=1 2 4 13 12 6 -8 -9 -10 10 -12 19 -14 -15 18 21 -18 -19 -20 29 25 22 28 -25 -26 -27 -28 -29 -30 -31
leaf_value=-0.053827113113277758 -0.052301979785717025 0.13359491442665999 0.0077120586268501524 0.099862194814082941 0.080756073366318029 0.25603715720472514 0.16073403428392846 0.16317885050055286 0.095312833780374973 0.15078180749842532 0.0010459340794560137 0.072840558734626193 0.14949526167643076 0.14028428955750205 -0.0021770948466749264 0.098588470332108116 0.13501177934851222 0.037850864704735115 0.11537775975145621 0.2074227431003963 0.091543145580635421 0.043708072430739674 0.28843484204934722 0.13844570835418382 0.016775410697595947 0.24503557940103071 0.025253032281637833 0.01564386437959888 0.089451698379663658 0.066661361325307963
leaf_count=38255 2351 183 684 318 408 23 271 265 473 473 167 191 946 353 2665 1539 122 764 96 167 873 1404 23 54 1301 39 316 147 445 47
internal_value=0 1.33184 1.53292 0.992941 1.91357 0.746216 1.2888 1.72616 0.865084 1.64854 2.1578 1.45321 2.63389 1.98922 0.408152 1.3351 0.584656 1.14411 0.128921 2.64346 2.34927 1.49508 1.15876 0.0269019 0.4148 1.95658 1.3559 1.83598 2.00074 3.56326
internal_count=55363 17108 14757 6817 7940 5830 2068 6586 1797 6321 1552 4769 1354 987 3762 4364 806 947 2815 405 1385 3558 1872 2719 1324 912 634 1686 468 214
shrinkage=0.05


Tree=6
num_leaves=31
num_cat=0
split_feature=0 19 2 22 50 49 27 78 4 45 19 214 8 28 6 219 15 37 96 27 80 194 13 11 14 91 140 14 8 215
split_gain=5863.4 823.446 458.571 168.421 121.526 98.5737 91.5304 86.7077 85.1841 69.5385 67.7613 64.9782 63.439 60.8205 58.2976 55.801 50.5286 47.9906 44.3526 43.9701 41.538 40.753 48.7393 40.4449 38.7885 38.6297 37.2574 33.8187 55.228 42.6668
threshold=1.0000000180025095e-35 -0.93441364583067987 1.0000000180025095e-35 0.37966704323850625 -1.7589554458733374 1.0003131095770286 0.56962146453264884 1.0045370119954509 0.4432616367747933 -0.057907034148249194 0.66228639271053658 -0.2297991868123164 0.15294444348402678 -0.56494544017595205 1.6627321561067234 -0.10188887717482574 0.50379607508064483 -1.0128873571459667 -0.20652416581666141 0.41189249205908612 -1.0210579497403662 3.8001007844824199 0.60831817897374008 -0.41982882860011467 0.91468177967867237 -0.9774553489993355 0.38966258128872955 -0.32798097727767089 -0.11837113076274113 -0.31753450950478662
decision_type=2 2 2 2 2 2 2 2 2 2 2 2 2 2 2 2 2 2 2 2 2 2 2 2 2 2 2 2 2 2
left_child=-1 -2 3 4 11 8 7 10 9 12 13 -3 18 -4 23 -7 -12 -13 25 -15 -9 22 -11 24 -5 -6 -18 29 -29 -25
right_child=1 2 6 14 5 15 -8 20 -10 21 16 17 -14 19 -16 -17 26 -19 -20 -21 -22 -23 -24 27 -26 -27 -28 28 -30 -31
leaf_value=-0.053626560104778398 -0.052670666017311379 0.11367204910119 0.12222696757454486 0.029078202723469355 -0.045435756089246167 0.14268933119849386 0.14525437642187575 -0.020415339511342896 0.06775981954900466 -0.0043473108614304791 0.048460450408375197 0.13508947582325267 0.0034002235256089322 0.060285435932317735 0.2283785623727016 0.013007338110389828 0.12225542119947122 0.029562002313815006 0.04096156625234406 0.13070770103611587 0.12803896181278143 0.064519014183824747 0.14885626975973817 0.10468477203846629 0.12164642382760552 0.11727295598050376 0.061999542131980973 0.17052874731534287 0.087402824600444254 0.04030129597644961
leaf_count=38255 2334 382 1004 459 36 198 521 34 739 3054 1258 78 729 779 45 93 388 452 1001 190 933 195 43 339 96 289 380 191 463 405
internal_value=0 1.21392 1.38717 0.977343 0.758637 0.587166 1.96172 1.84206 0.49585 0.348124 1.65146 1.58341 0.771568 1.99997 1.65481 2.10458 1.29977 0.946714 1.16154 1.5073 2.47432 0.0613178 -0.0358137 1.58266 0.941806 2.03253 1.85526 1.8158 2.24521 1.41903
internal_count=55363 17108 14774 9287 7289 6377 5487 4966 6086 5347 3999 912 2055 1973 1998 291 2026 530 1326 969 967 3292 3097 1953 555 325 768 1398 654 744
shrinkage=0.05


Tree=7
num_leaves=31
num_cat=0
split_feature=0 19 2 4 50 193 48 108 2 19 19 27 90 193 3 110 28 20 106 122 5 16 18 5 210 146 213 35 203 109
split_gain=5312.73 710.312 365.972 144.673 81.2054 82.2498 80.3408 78.3431 75.903 103.933 61.988 57.7524 56.9143 46.3907 44.8565 44.1379 43.5418 47.3846 38.6069 36.365 39.058 51.2856 45.9199 35.9803 35.1748 38.674 33.9887 57.0531 33.2978 32.96
threshold=1.0000000180025095e-35 -0.93441364583067987 1.0000000180025095e-35 -0.090746668192894744 -2.072940347184872 0.59342176155057946 0.90555084418046183 -0.16950589350309164 -1.0619005151203593 0.43686991668118841 0.73742521805365269 0.57514645474251613 -0.59952321335279402 2.2661339154263387 -0.40415618360761463 -0.16939101643403698 -0.56494544017595205 1.36312907736496 0.95958430872343226 0.9418425715610842 -0.09194800311351134 -0.57791177125649085 0.19446205223822247 -0.77778363404061324 -0.047324792002787788 0.87138441263657984 0.25090515557835558 -1.1781001149866841 2.5996338049614098 -0.15605770880450606
decision_type=2 2 2 2 2 2 2 2 2 2 2 2 2 2 2 2 2 2 2 2 2 2 2 2 2 2 2 2 2 2
left_child=-1 -2 3 4 -3 12 10 13 14 19 11 16 -6 23 -5 18 -4 -18 -16 20 21 -10 -22 -7 -12 -26 -8 -28 -9 -29
right_child=1 2 6 8 5 7 26 28 9 -11 24 -13 -14 -15 15 -17 17 -19 -20 -21 22 -23 -24 -25 25 -27 27 29 -30 -31
leaf_value=-0.053437200919399533 -0.052434913762608497 0.089755892163384018 0.10219340149252687 0.0067757729585335123 0.045926000893016267 0.013507783601268794 0.12885465468674925 -0.0085769340245801014 0.092866789247807974 0.044023325556103367 0.042898738013489153 0.14562264080495133 -0.001645833098748644 -0.0039839593960184286 0.099715647702781351 0.0028489900778191262 0.062953805559835166 0.16859094736512878 0.025929578864287074 0.14284653639425346 0.14660683208225486 0.019198664688316439 0.081939678135782734 0.12017467063580048 0.10001660467680713 0.029035694557582377 0.17320199069743591 0.017575346844448888 0.073802839262429379 0.15835973301596618
leaf_count=38255 2334 266 1242 634 696 64 669 446 402 1211 947 244 2951 93 370 227 1341 74 194 221 283 289 490 346 494 194 64 184 104 34
internal_value=0 1.11205 1.26355 0.900049 0.531966 0.416846 1.76006 1.07233 1.23579 1.47014 1.60012 1.82394 0.171674 1.76153 0.706773 1.12454 1.70226 1.37728 1.50537 1.88555 1.73516 1.27179 2.12621 2.09515 1.18878 1.63694 2.34616 1.54516 0.256418 0.822101
internal_count=55363 17108 14774 9287 4966 4700 5487 1053 4321 2896 4536 2901 3647 503 1425 791 2657 1415 564 1685 1464 691 773 410 1635 688 951 282 550 218
shrinkage=0.05


Tree=8
num_leaves=31
num_cat=0
split_feature=0 19 2 2 50 19 108 17 4 198 156 215 29 19 37 2 124 48 13 18 14 203 2 22 28 122 220 35 22 18
split_gain=4836.29 618.546 299.448 122.287 111.264 92.3828 78.6228 65.5561 61.834 52.8835 48.8599 47.9707 44.212 43.4998 40.8977 40.794 37.4255 36.6774 36.3406 46.0824 35.0792 34.4144 34.1012 33.0153 32.3551 31.6487 32.8367 31.2385 31.1861 31.94
threshold=1.0000000180025095e-35 -0.93441364583067987 -0.68931378818518962 0.80103311955548828 -1.7091983661370682 0.43686991668118841 -0.1694945044661233 -0.72929707989577575 -0.26874943651545652 1.2971096496698704 0.65484568899948437 -0.5416391459276213 1.0000000180025095e-35 0.73742521805365269 -1.0128873571459667 1.0000000180025095e-35 1.3890478763787191 -0.21931295882187476 0.1900226446895128 0.16943660296894311 -0.32798097727767089 2.5996338049614098 1.7324999368934113 0.68582249922284955 1.0000000180025095e-35 0.9418425715610842 -0.71275560974023666 0.2720752567799733 -0.38572159672234946 -0.7228273166771193
decision_type=2 2 2 2 2 2 2 2 2 2 2 2 2 2 2 2 2 2 2 2 2 2 2 2 2 2 2 2 2 2
left_child=-1 -2 4 5 10 8 7 -6 24 18 14 23 -11 15 -3 20 22 -14 -9 -20 -13 -8 -5 28 -4 27 -27 -10 29 -7
right_child=1 2 3 16 6 11 21 9 25 12 -12 13 17 -15 -16 -17 -18 -19 19 -21 -22 -23 -24 -25 -26 26 -28 -29 -30 -31
leaf_value=-0.053258350229015955 -0.052207278412457869 0.12613726295174685 0.087001404443587588 0.08461626756070928 0.090875050805614366 0.041910213964771258 -0.0078344212518714554 -0.0045065050366578348 0.095852101860654945 -0.031996503963474747 0.11665057877535288 0.0021342682081909778 0.064195739087586481 0.015878672357771698 0.031085664825111655 0.066476099074361972 0.14434026464724836 0.17208922724628845 0.085013529022857387 0.015349638003623177 0.053759028693569459 0.082877573632859136 0.13555345436823427 0.12773298653125117 0.02583844731060438 -0.02613922882990969 0.14362663446158236 0.05685172137596374 0.055407377063100338 0.13875435675767783
leaf_count=38255 2334 74 235 1578 373 99 2022 1031 1202 67 212 456 140 854 388 1185 195 68 247 645 524 75 196 124 529 25 230 474 1365 161
internal_value=0 1.0241 1.15792 1.40889 0.589497 1.24789 0.394607 0.719009 1.62661 0.525934 1.47748 1.02866 1.54459 0.823605 0.983912 1.02093 1.93049 2.0187 0.328454 0.722725 0.599157 -0.065098 1.81654 1.36061 0.928668 1.84378 2.6339 1.71504 1.25786 2.09852
internal_count=55363 17108 14774 9432 5342 7463 4668 2571 2695 2198 674 4768 275 3019 462 2165 1969 208 1923 892 980 2097 1774 1749 764 1931 255 1676 1625 260
shrinkage=0.05


Tree=9
num_leaves=31
num_cat=0
split_feature=0 19 2 50 11 192 110 193 2 19 193 145 110 94 35 16 203 152 6 6 119 58 30 13 49 140 96 87 21 28
split_gain=4418.3 542.506 254.103 107.565 105.611 86.1915 63.1925 58.4398 50.51 53.1452 48.7492 48.2779 45.6332 44.6594 42.2834 41.7676 39.8703 38.4459 37.2609 36.6617 41.8736 36.1333 35.5639 34.3133 33.0452 32.8084 32.7527 32.1067 32.0816 44.0449
threshold=1.0000000180025095e-35 -0.93441364583067987 1.0000000180025095e-35 -1.4991265756229739 -0.41982882860011467 1.7917457295023052 -0.16945066470036949 0.41312571077043803 1.7324999368934113 0.66228639271053658 0.44421123676701396 1.0000000180025095e-35 -0.16940599289241534 0.32972357288705367 -1.4050984392781121 -0.087620300568084494 -0.38288847239990315 -0.41611723644108173 -0.30170837958819757 0.35148118811402435 -0.21525742733759953 -0.38064735121244775 1.706110673182589 0.46888633421233128 -0.28788351701291098 0.31120105216391969 -0.5320300034987302 -0.56072381596260923 0.99487967150525314 1.0000000180025095e-35
decision_type=2 2 2 2 2 2 2 2 2 2 2 2 2 2 2 2 2 2 2 2 2 2 2 2 2 2 2 2 2 2
left_child=-1 -2 3 11 6 8 10 13 9 23 -5 14 16 15 -3 18 -9 -7 -6 28 -21 -12 -17 26 -18 -25 -4 -24 -11 -30
right_child=1 2 5 4 7 17 -8 12 -10 19 21 -13 -14 -15 -16 22 24 -19 -20 20 -22 -23 27 25 -26 -27 -28 -29 29 -31
leaf_value=-0.053089355311495737 -0.05198700101101409 0.090033348957315393 0.096503593398888157 0.0064379150927913829 0.042669446875990863 0.056194345319401665 -0.01261636301586809 0.08762885101740589 0.13243679398130515 0.023118474771293418 0.077451659402021561 0.086881041865376596 0.029271983060100662 -2.2176894650809882e-05 0.026515250442188772 0.013740721055429051 -0.012896962591925701 0.1091898638947966 0.10488837075082327 0.084782873256811359 0.027724361874280096 -0.0095398942866219364 0.18777749759512319 0.048618075306622682 0.067677795929897866 0.11200596302046575 0.053685748667138503 0.033166525378711384 -0.045204232787485581 0.12024937427351379
leaf_count=38255 2334 209 331 876 521 244 1730 835 135 999 403 685 673 806 607 1032 169 880 268 607 331 123 40 152 251 499 1170 59 31 108
internal_value=0 0.946601 1.06567 0.767457 0.611532 1.45942 0.169482 0.859549 1.28554 1.23281 0.602199 1.32768 1.20095 0.582146 0.888427 0.807312 1.46896 1.99092 1.27502 0.937428 1.31179 1.20471 0.443619 1.49874 0.739507 1.94792 1.28418 1.96883 0.631898 1.70414
internal_count=55363 17108 14774 9287 7786 5487 3132 4654 4363 4228 1402 1501 1928 2726 816 1920 1255 1124 789 2076 938 526 1131 2152 420 651 1501 99 1138 139
shrinkage=0.05


end of trees

feature importances:
Column_2=15
Column_19=15
Column_193=14
Column_0=10
Column_22=10
Column_37=10
Column_110=10
Column_27=9
Column_50=9
Column_4=8
Column_96=7
Column_191=7
Column_203=7
Column_35=6
Column_152=6
Column_192=6
Column_11=5
Column_13=4
Column_14=4
Column_18=4
Column_28=4
Column_48=4
Column_156=4
Column_198=4
Column_214=4
Column_3=3
Column_5=3
Column_6=3
Column_29=3
Column_32=3
Column_49=3
Column_108=3
Column_213=3
Column_8=2
Column_10=2
Column_16=2
Column_30=2
Column_45=2
Column_53=2
Column_70=2
Column_78=2
Column_90=2
Column_92=2
Column_94=2
Column_100=2
Column_106=2
Column_119=2
Column_122=2
Column_140=2
Column_154=2
Column_160=2
Column_166=2
Column_169=2
Column_174=2
Column_175=2
Column_189=2
Column_194=2
Column_215=2
Column_220=2
Column_7=1
Column_15=1
Column_17=1
Column_20=1
Column_21=1
Column_25=1
Column_41=1
Column_43=1
Column_44=1
Column_55=1
Column_57=1
Column_58=1
Column_68=1
Column_74=1
Column_76=1
Column_80=1
Column_82=1
Column_83=1
Column_85=1
Column_87=1
Column_88=1
Column_91=1
Column_99=1
Column_107=1
Column_109=1
Column_124=1
Column_125=1
Column_133=1
Column_137=1
Column_145=1
Column_146=1
Column_183=1
Column_185=1
Column_190=1
Column_204=1
Column_210=1
Column_211=1
Column_219=1

parameters:
[boosting: gbdt]
[objective: binary]
[metric: auc]
[tree_learner: serial]
[device_type: cpu]
[data: ]
[valid: ]
[num_iterations: 100]
[learning_rate: 0.05]
[num_leaves: 31]
[num_threads: 0]
[max_depth: -1]
[min_data_in_leaf: 20]
[min_sum_hessian_in_leaf: 0.001]
[bagging_fraction: 0.8]
[bagging_freq: 5]
[bagging_seed: 3]
[feature_fraction: 0.9]
[feature_fraction_seed: 2]
[early_stopping_round: 0]
[max_delta_step: 0]
[lambda_l1: 0]
[lambda_l2: 0]
[min_gain_to_split: 0]
[drop_rate: 0.1]
[max_drop: 50]
[skip_drop: 0.5]
[xgboost_dart_mode: 0]
[uniform_drop: 0]
[drop_seed: 4]
[top_rate: 0.2]
[other_rate: 0.1]
[min_data_per_group: 100]
[max_cat_threshold: 32]
[cat_l2: 10]
[cat_smooth: 10]
[max_cat_to_onehot: 4]
[top_k: 20]
[monotone_constraints: ]
[feature_contri: ]
[forcedsplits_filename: ]
[refit_decay_rate: 0.9]
[verbosity: 0]
[max_bin: 255]
[min_data_in_bin: 3]
[bin_construct_sample_cnt: 200000]
[histogram_pool_size: -1]
[data_random_seed: 1]
[output_model: LightGBM_model.txt]
[snapshot_freq: -1]
[input_model: ]
[output_result: LightGBM_predict_result.txt]
[initscore_filename: ]
[valid_data_initscores: ]
[pre_partition: 0]
[enable_bundle: 1]
[max_conflict_rate: 0]
[is_enable_sparse: 1]
[sparse_threshold: 0.8]
[use_missing: 1]
[zero_as_missing: 0]
[two_round: 0]
[save_binary: 0]
[enable_load_from_binary_file: 1]
[header: 0]
[label_column: ]
[weight_column: ]
[group_column: ]
[ignore_column: ]
[categorical_feature: ]
[predict_raw_score: 0]
[predict_leaf_index: 0]
[predict_contrib: 0]
[num_iteration_predict: -1]
[pred_early_stop: 0]
[pred_early_stop_freq: 10]
[pred_early_stop_margin: 10]
[convert_model_language: ]
[convert_model: gbdt_prediction.cpp]
[num_class: 1]
[is_unbalance: 0]
[scale_pos_weight: 1]
[sigmoid: 1]
[boost_from_average: 1]
[reg_sqrt: 0]
[alpha: 0.9]
[fair_c: 1]
[poisson_max_delta_step: 0.7]
[tweedie_variance_power: 1.5]
[max_position: 20]
[label_gain: ]
[metric_freq: 1]
[is_provide_training_metric: 0]
[eval_at: ]
[num_machines: 1]
[local_listen_port: 12400]
[time_out: 120]
[machine_list_filename: ]
[machines: ]
[gpu_platform_id: -1]
[gpu_device_id: -1]
[gpu_use_dp: 0]

end of parameters

pandas_categorical:null
