tree
version=v2
num_class=1
num_tree_per_iteration=1
label_index=0
max_feature_idx=221
objective=binary sigmoid:1
feature_names=Column_0 Column_1 Column_2 Column_3 Column_4 Column_5 Column_6 Column_7 Column_8 Column_9 Column_10 Column_11 Column_12 Column_13 Column_14 Column_15 Column_16 Column_17 Column_18 Column_19 Column_20 Column_21 Column_22 Column_23 Column_24 Column_25 Column_26 Column_27 Column_28 Column_29 Column_30 Column_31 Column_32 Column_33 Column_34 Column_35 Column_36 Column_37 Column_38 Column_39 Column_40 Column_41 Column_42 Column_43 Column_44 Column_45 Column_46 Column_47 Column_48 Column_49 Column_50 Column_51 Column_52 Column_53 Column_54 Column_55 Column_56 Column_57 Column_58 Column_59 Column_60 Column_61 Column_62 Column_63 Column_64 Column_65 Column_66 Column_67 Column_68 Column_69 Column_70 Column_71 Column_72 Column_73 Column_74 Column_75 Column_76 Column_77 Column_78 Column_79 Column_80 Column_81 Column_82 Column_83 Column_84 Column_85 Column_86 Column_87 Column_88 Column_89 Column_90 Column_91 Column_92 Column_93 Column_94 Column_95 Column_96 Column_97 Column_98 Column_99 Column_100 Column_101 Column_102 Column_103 Column_104 Column_105 Column_106 Column_107 Column_108 Column_109 Column_110 Column_111 Column_112 Column_113 Column_114 Column_115 Column_116 Column_117 Column_118 Column_119 Column_120 Column_121 Column_122 Column_123 Column_124 Column_125 Column_126 Column_127 Column_128 Column_129 Column_130 Column_131 Column_132 Column_133 Column_134 Column_135 Column_136 Column_137 Column_138 Column_139 Column_140 Column_141 Column_142 Column_143 Column_144 Column_145 Column_146 Column_147 Column_148 Column_149 Column_150 Column_151 Column_152 Column_153 Column_154 Column_155 Column_156 Column_157 Column_158 Column_159 Column_160 Column_161 Column_162 Column_163 Column_164 Column_165 Column_166 Column_167 Column_168 Column_169 Column_170 Column_171 Column_172 Column_173 Column_174 Column_175 Column_176 Column_177 Column_178 Column_179 Column_180 Column_181 Column_182 Column_183 Column_184 Column_185 Column_186 Column_187 Column_188 Column_189 Column_190 Column_191 Column_192 Column_193 Column_194 Column_195 Column_196 Column_197 Column_198 Column_199 Column_200 Column_201 Column_202 Column_203 Column_204 Column_205 Column_206 Column_207 Column_208 Column_209 Column_210 Column_211 Column_212 Column_213 Column_214 Column_215 Column_216 Column_217 Column_218 Column_219 Column_220 Column_221
feature_infos=[-0.66660875247738538:1.5001303182467962] [-8.1373495651444507:2.1483999559638751] [-4.3779223848433686:3.5022868898354638] [-18.3378899910428:2.4683466340335181] [-21.006071946094025:2.13428793583914] [-1.5306203201835575:2.2893964263834321] [-3.704427823718234:2.9296717858440502] [-11.33328930330789:3.3327372274079341] [-32.949333493316509:3.1967908628766741] [-32.949333493316509:3.1967908628766741] [-7.8085883089635022:2.2254975492503859] [-17.857815559059315:2.6574629473632743] [-16.154677933969346:2.3278782216874796] [-16.75094649382174:1.2357614804000838] [-2.4141643017562262:2.3747111850986409] [-7.2192292900460542:3.7283902127272288] [-17.149592605366319:2.6216147303155917] [-21.919086265114885:2.1543706740913064] [-22.928143756125145:1.4178250799485699] [-8.0162479344193702:1.9772158362150674] [-16.855134997564029:3.0459406184226583] [-16.751161469856712:2.0554000584392345] [-18.066199179818138:1.6808277311719626] [-3.9349436019709647:2.9096876804993599] [-10.672993608503525:3.1526934472406216] [-21.919345892938015:2.1544994146159753] [-21.919345892938015:2.1544994146159753] [-23.093185885727191:1.2328068181819845] [-1.1223668761062424:1.1073188676149188] [-0.66607975216140092:1.5013217212429022] [-1.4276977719348267:2.4388725195675964] [-3.7339224587129647:2.6134676966095269] [-2.9333835772572456:24.614529776631844] [-3.2240314874052038:3.7395230753322357] [-3.0107868314937201:4.7458576313940517] [-2.7554529958926564:5.0622567270790064] [-2.8627245369341248:5.9895516457584925] [-2.1035592156724578:5.4440007390364666] [-2.439311592218945:6.4961290953426314] [-0.091844095574195123:19.335774290239243] [-0.096846540421042751:15.908454454662612] [-3.5701620149651059:2.8350884839395842] [-3.6582572113326766:5.8456517743051313] [-3.1910959187662264:6.0568323661026087] [-3.1626975811144029:3.0399524218211993] [-6.8314086237491161:2.0463326886982789] [-6.6116783572813711:2.7162279261549238] [-3.1612055651960338:3.2402944662779714] [-6.9540744460281667:1.3814547608352965] [-6.2137805548762:2.8767669400880846] [-4.1835623931379313:3.1775259843700216] [-17.341399251298675:8.7230571606464284] [-11.709000218721146:6.5520309276518844] [-4.3162531396685555:2.9576648069356257] [-19.461655168101299:7.2912605113563309] [-10.718021113794704:7.7223520161350336] [-4.3378097615384519:3.1710033283402765] [-29.848785705962118:7.5821664698792421] [-10.406289572985967:12.664635756425689] [-0.1016213817339663:11.41435712073152] [-0.10177466855901741:10.494669039957287] [-0.1017900994900776:10.242705311387812] [-0.10161047228073418:10.922990842372261] [-0.10180551999248409:10.336855814478364] [-0.10178991261402853:10.154142265703605] [-9.0480637097973435:0.11052088403369582] [-5.7744860869573627:0.76494676201893819] [-4.6508233305113427:3.9042955077865451] [-4.7187908457011858:0.58445258260482058] [-4.5049497963332179:0.66126577227518302] [-0.68295662091716136:6.1710874199026033] [-2.4476711803183493:0.69054277751308146] [-0.10226932654337859:10.673634049358457] [-0.10216402654250893:18.69761171503168] [-0.66607975216140092:1.5013217212429022] [-4.0781784118824929:3.6061979176883869] [-3.9693243678267822:3.4626004382807323] [-2.0818381492726425:0.48034473782190129] [-7.6178972538425223:2.1577589554334802] [-2.4314036821788423:3.9795245683031988] [-5.0799128330172385:4.2623087736864296] [-0.79884044617905581:4.0279277065680184] [-7.2333437878441611:3.2455778806281272] [-3.0557313839602935:4.186891853879235] [-5.6858364107702997:4.2072279869636704] [-0.52016408218964638:3.1503935886340004] [-9.3151707018632308:2.8811095507757751] [-3.6014162835634682:3.5611037512296666] [-6.2700827141289066:4.0458991528761441] [-0.28279635261732206:5.0972937392178164] [-8.662362389925887:3.1355698069058526] [-7.0880826653985336:4.6484953859834564] [-10.477474413751544:2.9385839724424128] [-0.1295643374413655:9.2881449767319229] [-8.8230069605063903:2.8030087600518909] [-6.8332561014637863:5.3802740450360851] [-10.65410818826966:2.2354103763218478] [-0.075024267435498629:19.257015617697089] [-7.1244608462586214:2.930651519198654] [-5.3272732129221492:5.8312901258638039] [-10.261640801786969:1.3153093004371346] [-0.075024267435498629:19.257015617697089] [-5.6516418655572265:4.1563989679254281] [-1.9036436205506075:1.0427013873784325] [-3.4966098933334102:0.97215110836560514] [-2.0818381492726425:0.48034473782190129] [-4.4723525701470432:2.9523377832601034] [-0.62875459976834014:5.8228498777125743] [-0.16951214721918931:6.0371464129997943] [-11.856344899081309:6.6787881845114683] [-0.16945877538357945:6.0142598724572016] [-0.15006849221302435:6.665132778562648] [-1.277606152242625:6.1881106234629408] [-1.2758958495365469:7.8673105106881929] [-1.3357207380538252:5.8379017845715788] [-1.3792785476561273:6.6801335697118978] [-1.4511708470498714:5.3979418025579866] [-1.4525090356808039:5.4091177628599914] [-1.4410713443777885:5.4020961443245028] [-0.8373282301468622:3.7245243237877301] [-0.8373282301468622:3.7245243237877301] [-0.93279238885690607:1.7589154291316091] [-16.327026513774559:0.94427001154107626] [-0.8042438349988047:1.2434039982432521] [-0.92162719139468396:1.6457895505757636] [-1.0718306989114765:0.95328427024766316] [-0.8042438349988047:1.2434039982432521] [-0.94685030923256519:2.4118717549905777] [-21.781871932197234:1.0046942543638322] [-0.61104769915145141:1.6365334512979559] [-0.94685030923256519:2.4118717549905777] [-1.0704957256166425:1.0182197390296877] [-0.61104769915145141:1.6365334512979559] [-0.8170823857920857:3.0356351910121377] [-19.021694532829837:0.93004684957823858] [-3.9413568349338162:0.25371973203151788] [-0.88451506301203331:3.1626939528956446] [-1.0747066465714266:0.94849389299503661] [-3.9413568349338162:0.25371973203151788] [-0.94384898942080653:2.3626394079119444] [-29.626062135405803:0.73527183385737171] [-3.1627520551874007:0.61032159777108652] [-0.94384898942080653:2.3626394079119444] [-2.2615726671784357:0.75413548551546672] [-4.4830422748853014:0.2230628083973589] [-0.87127802699619505:2.696461672366659] [-33.556890642632979:1.0123715899824175] [-4.4830422748853014:0.2230628083973589] [-0.87127802699619505:2.696461672366659] [-1.0712079117805187:1.0469549635197524] [-4.4830422748853014:0.2230628083973589] [-1.8067506342172019:2.9912316478976062] [-1.9118430295931415:1.8992717618580164] [-1.8067506342172019:2.9912316478976062] [-1.9205572492784737:1.8960090261444531] [-1.5111333309842157:1.5128766690856248] [-3.1318933078269287:1.6234214318393119] [-1.5111333309842157:1.5128766690856248] [-3.117944663610039:1.6326387941388369] [-1.4263918730068408:2.6008266363258801] [-1.9634392084837797:2.3503021311798178] [-0.55130499253235632:1.8138780049979495] [-1.4263918730068408:2.6008266363258801] [-1.973829982526998:2.3713772283229022] [-0.55130499253235632:1.8138780049979495] [-1.4206617637659598:3.4520643913297331] [-3.6268878175510171:1.4481930158361789] [-0.052203318478102716:19.155870338385903] [-1.4206617637659598:3.4520643913297331] [-3.6315023685943375:1.4455669049730073] [-0.052203318478102716:19.155870338385903] [-1.7001181143570678:2.0747777976310671] [-2.5048237092435142:2.0846293737008259] [-1.685450570010546:2.1188564888800894] [-2.5145815918112366:2.0898058150751075] [-1.6620257282860385:1.9462816711653821] [-1.6670233199762163:2.2071965809054905] [-1.6677228885423441:1.9637530306291706] [-1.6651015054116645:2.2116006933887133] [-1.5628762971615442:2.1819499782743712] [-3.0232416076494895:1.4588366781695392] [-1.5579458717633909:2.1670976801159565] [-3.0371214218938904:1.4538673738333805] [-2.7020719700973843:2.7883127390654354] [-4.451685978868829:3.120319059708637] [-1.1031320467218639:5.4024255546286559] [-4.409381140663835:2.6601794711714413] [-1.7956448156806879:51.190860473488605] [-2.1079276286554558:50.15716884149856] [-2.4953916867778356:15.812807846954497] [-2.228401813873357:17.576124232994928] [-1.0737600373616221:5.1358375650016965] [-0.46435160352861143:4.7889951691261397] [-1.6972706491371117:7.1676996545664524] [-0.67171715002408616:4.6300379799311004] [-0.92959384112349952:6.7551729440657029] [-0.71386664222565832:20.745630488746553] [-0.53695219878104072:22.113736355758888] [-0.59177749361012211:13.823520941903196] [-0.58929704455688647:12.008879098942929] [-0.15848450683974269:7.3097602550332539] [-0.25647954680256857:14.484234674557596] [-0.30829475767904813:12.146661425244011] [-0.82193212855328657:5.4280375127585563] [-0.36507621616375635:5.7559500627768525] [-0.27742281544591552:130.52742241847764] [-0.2990558137639201:6.2192219769898927] [-0.69873316768804572:9.1962289767549272] [-0.19590748780300213:11.432281551668028] [-0.35808856240688597:43.216260174803971] [-0.76161798725428875:4.7785097222573532] [-0.70870172322394753:5.4425308574131899] [-0.25536515823175648:7.2615098783922845] [-1.54177440430132:3.2799154464095306] [-1.7634471474289564:1.7420339054090779] [-1.6061361689360858:1.7554333774064332] [-1.6284609488246546:1.6311977216973568] [-1.7051918991390833:1.7045974427029313] [-1.6477049919006694:1.5757784320517594] [-1.000898191564308:5.0469826506922084] [-0.96150021110547323:3.5159026134687834] [-1.1571805501597223:4.8462156238828333]
tree_sizes=2491 2513 2525 2531 2504 2527 2522 2532 2526 2548

Tree=0
num_leaves=31
num_cat=0
split_feature=0 19 192 2 48 193 48 193 32 22 37 214 2 192 156 90 27 156 166 110 2 215 166 185 22 193 169 22 154 15
split_gain=12687.3 2861.2 2385.01 1210.96 999.531 456.733 473.781 422.363 437.236 302.402 267.254 232.129 210.656 190.017 178.881 150.548 141.693 133.582 129.546 128.66 115.43 110.195 109.52 154.645 106.792 93.1247 93.0068 178.443 89.3075 88.9898
threshold=1.0000000180025095e-35 -0.64888610952683867 1.7794473382532678 -0.13043369778243658 0.9343935057959063 0.55611913035468818 0.21332696540979348 0.49363722310157004 -0.72075384713875057 0.22658931524633466 -0.28414438249307888 1.0000000180025095e-35 0.80103311955548828 -0.42799786838994813 0.65484568899948437 -1.2886547669060489 0.43840578326549179 -2.8477132923181721 -1.3540677879336762 -0.1693946599364515 -0.31672706125001976 0.35477939976371714 -1.3023821435979006 -0.43973637026835682 0.22658931524633466 1.8959053008071169 0.28787609565663824 1.0000000180025095e-35 -0.9830829057222048 -0.8176850120138287
decision_type=2 2 2 2 2 2 2 2 2 2 2 2 2 2 2 2 2 2 2 2 2 2 2 2 2 2 2 2 2 2
left_child=-1 -2 3 5 10 9 11 12 21 -3 18 -7 15 -10 20 -5 25 -12 -4 -11 -6 -9 23 -13 -17 -15 29 -28 -20 -14
right_child=1 2 4 7 14 6 -8 8 13 19 17 22 26 16 -16 24 -18 -19 28 -21 -22 -23 -24 -25 -26 -27 27 -29 -30 -31
leaf_value=-2.3523461489024911 -2.349790354984588 -2.2763182322254507 -2.2754439412706002 -2.0117029375171809 -2.0576093617124545 -2.1847610122209646 -2.2807156650556326 -1.8842555958995468 -2.2634203421408525 -2.1548548767446172 -1.7750455485547549 -1.8790313709776394 -2.0016334554214366 -2.076178569484481 -1.8360027548026525 -2.214111987554404 -1.9287224825603655 -2.191705981849208 -2.0934632350562912 -2.2604135231792268 -1.9021478083907968 -2.0289261404396823 -1.975243356744909 -2.2167062727482292 -2.1419331641319008 -2.2519460444941894 -2.1746596331870789 -1.9330929656590323 -1.9131914937425138 -2.1560721743010158
leaf_count=38339 2357 3621 47 168 233 399 513 453 210 1153 24 56 146 373 777 1364 155 675 121 498 376 244 500 151 1128 120 139 273 262 488
internal_value=0 2.50029 3.07073 2.43397 6.14744 1.47657 3.08911 3.68799 5.20628 0.981365 3.72295 4.36792 3.05093 3.54737 8.12237 2.53199 4.47726 2.39839 5.87611 2.21249 6.71386 7.24838 5.56252 3.4393 2.31759 3.56716 4.37061 5.65455 6.54351 3.53625
internal_count=55363 17024 14667 12152 2515 6891 1619 5261 1555 5272 1129 1106 3706 858 1386 2660 648 699 430 1651 609 697 707 207 2492 493 1046 412 383 634
shrinkage=1


Tree=1
num_leaves=31
num_cat=0
split_feature=0 19 53 4 2 110 193 35 193 68 29 37 213 193 32 2 198 183 78 193 111 82 41 152 14 122 27 185 171 44
split_gain=10721.2 2130.3 1289.3 866.41 413.134 364.384 240.798 203.932 181.343 179.57 176.716 175.319 156.427 153.674 154.581 150.063 125.207 111.824 107.449 105.761 102.486 100.852 93.255 93.1539 82.8397 87.3243 81.9103 70.1875 68.4751 74.7995
threshold=1.0000000180025095e-35 -0.64888610952683867 -1.4319667355833869 1.0000000180025095e-35 -0.31672706125001976 -0.16943826659679254 0.52503360435811197 -1.8664280889198512 0.55611913035468818 0.46392432287059332 1.0000000180025095e-35 -0.5304096392818507 0.25090515557835558 0.59342176155057946 -0.74588716658837273 1.0000000180025095e-35 0.076410157167028633 -1.1467560534616015 0.83651792089851973 2.1231404958420881 -0.15003493677296081 -0.44891373325633405 1.3767235322934719 0.15691760720175252 1.7958541313398906 0.9437280359480591 0.60600802717323099 -0.18293804389925739 0.14014364273714813 -1.5197437857196745
decision_type=2 2 2 2 2 2 2 2 2 2 2 2 2 2 2 2 2 2 2 2 2 2 2 2 2 2 2 2 2 2
left_child=-1 -2 5 4 8 7 15 -3 -4 19 27 -7 20 21 23 24 -12 -16 -9 22 -13 -6 -8 -15 25 -5 -17 -10 29 -20
right_child=1 2 3 6 13 11 9 18 10 -11 16 12 -14 14 17 26 -18 -19 28 -21 -22 -23 -24 -25 -26 -27 -28 -29 -30 -31
leaf_value=-0.054757283367913627 -0.052101073530914178 0.33418616620722896 0.0091745700341546461 0.088418397380994773 0.13657608669235022 0.33280296271528736 0.26005413030461016 0.024504636109372355 -0.035657210724242952 0.012516543544033762 0.057049616301955763 0.33185561696582955 0.084112959018573893 0.29778111441365435 0.17829322346825141 0.15510221466078686 0.26495107552984004 0.017698703764958967 0.20843425766711332 0.12812373076274949 0.2167360743296034 0.061926406826947271 0.12801769923474224 0.074316905517170379 0.37743415049793516 0.25134393048349674 0.27956147404578319 0.083468172667427634 0.2229068155071805 0.062014879936801583
leaf_count=38339 2357 127 3126 1947 747 612 945 240 228 127 121 255 174 232 264 1464 186 213 135 261 513 1421 157 53 29 95 150 352 232 261
internal_value=0 2.12223 2.5509 2.08014 1.30141 4.53099 3.07577 2.96851 0.583226 4.13067 1.8731 5.40878 4.58248 2.21882 3.4299 2.61034 3.76089 2.23747 2.39414 4.43889 5.1096 1.75795 4.84411 5.13801 2.00299 1.92238 3.33642 0.748096 3.07593 2.26309
internal_count=55363 17024 14667 12118 6943 2549 5175 995 4013 1490 887 1554 942 2930 762 3685 307 477 868 1363 768 2168 1102 285 2071 2042 1614 580 628 396
shrinkage=0.05


Tree=2
num_leaves=31
num_cat=0
split_feature=0 1 50 4 110 214 191 96 11 191 35 219 194 55 22 211 109 203 125 13 30 156 119 220 137 22 22 219 203 135
split_gain=9278.62 1667.61 893.252 599.739 263.319 244.698 421.094 147.433 131.205 126.98 122.064 91.6944 89.4101 87.157 87.0636 85.0482 84.435 82.2243 104.859 70.9584 68.2212 78.1209 65.4819 63.9142 60.3554 68.2715 60.2767 56.6688 55.8282 51.6834
threshold=1.0000000180025095e-35 -0.99446795326366899 -1.4961624246496112 1.0000000180025095e-35 -0.16943826659679254 0.64657107639719225 0.96531443702324771 -0.20524264677066942 -0.26201899393532496 1.6050911596909836 -1.7018414507624298 0.38847983976489181 3.9833133351758083 0.31372199071837542 0.53274477123067798 1.2746128104676755 -0.15606062926631864 1.2690085838666094 0.94695752408611822 0.32945448945092254 1.5979327834366621 -3.1152400365967279 1.4435980468204341 1.0000000180025095e-35 0.94550909662487592 -1.0000000180025095e-35 0.22658931524633466 2.8403234244634796 -0.47897757784787937 1.0000000180025095e-35
decision_type=2 2 2 2 2 2 2 2 2 2 2 2 2 2 2 2 2 2 2 2 2 2 2 2 2 2 2 2 2 2
left_child=-1 -2 4 5 10 8 11 27 -4 19 -3 -7 14 -8 24 -12 -11 18 -6 -9 21 -13 23 29 -10 -26 -17 -5 -25 -21
right_child=1 2 3 7 17 6 13 9 12 16 15 20 -14 -15 -16 26 -18 -19 -20 22 -22 -23 -24 28 25 -27 -28 -29 -30 -31
leaf_value=-0.054503792102142817 -0.053690455411979469 0.22764927483700137 0.0018997384000915458 0.17210210255177383 0.066262507457928763 0.012632135819994348 0.21241864651102388 0.069587664577601058 0.033280945926665126 0.2104200177066182 0.0056437281469583576 0.32756323477568983 0.16599732307005297 0.10196157788714413 0.16110373307568648 0.079111795174848107 -0.021594824760460499 0.22813876015132212 0.22210911196439823 0.032144046359422883 0.23001420755869351 0.05954885030490923 0.030584365293899341 0.13055339169807187 0.059659390152034211 0.33526322627691479 0.1728662349831685 0.03627184979903441 0.040306134246387008 0.16082904653731545
leaf_count=38339 2296 171 2097 1501 175 963 559 1248 1901 334 219 24 163 243 161 371 45 1321 190 83 83 601 191 365 66 34 280 77 307 955
internal_value=0 1.84851 2.18324 1.7799 3.63111 1.13453 1.92065 2.55668 0.658165 2.19912 2.37802 0.930165 1.17812 3.64497 0.989509 1.87495 3.76529 4.26165 3.03003 1.97947 1.79439 1.44109 2.35243 2.54238 0.797791 3.23551 2.40767 3.31617 1.78939 3.01775
internal_count=55363 17024 14728 12001 2727 6895 2473 5106 4422 3528 1041 1671 2325 802 2162 870 379 1686 365 3149 708 625 1901 1710 2001 100 651 1578 672 1038
shrinkage=0.05


Tree=3
num_leaves=31
num_cat=0
split_feature=0 19 50 4 110 193 29 27 32 193 11 185 169 37 183 185 94 37 203 14 72 22 156 154 22 110 56 194 220 146
split_gain=8153.42 1351.19 626.334 448.233 180.875 164.957 185.171 141.348 130.769 109.057 98.8723 95.6947 94.7836 91.7964 86.731 82.7222 79.9533 74.5687 81.4884 72.3804 68.2831 62.3044 61.9487 83.2293 75.314 75.7488 59.857 59.3102 58.0446 52.9905
threshold=1.0000000180025095e-35 -0.64888610952683867 -1.4128636365305558 -0.090746668192894744 -0.16943826659679254 0.49363722310157004 1.0000000180025095e-35 0.58049557497617066 -0.55379679650911973 0.29500071198344907 -0.26201899393532496 -0.18293804389925739 -0.45596729817981313 -0.99825997461912552 -1.1906087909044187 -0.31133720708380708 -0.079865056834510825 -0.5304096392818507 1.2690085838666094 0.92772952590388713 1.0000000180025095e-35 0.22658931524633466 -2.8477132923181721 -0.087162466337215874 0.22658931524633466 -0.16943492627241399 1.2505859813550269 4.0146317199097208 0.77971199845118222 0.93046924540822962
decision_type=2 2 2 2 2 2 2 2 2 2 2 2 2 2 2 2 2 2 2 2 2 2 2 2 2 2 2 2 2 2
left_child=-1 -2 4 5 13 10 11 8 9 16 -4 -7 28 -3 -12 -8 26 -6 -19 -16 -14 -15 -10 27 25 -25 -5 -24 -11 -26
right_child=1 2 3 7 17 6 15 -9 22 12 14 -13 20 21 19 -17 -18 18 -20 -21 -22 -23 23 24 29 -27 -28 -29 -30 -31
leaf_value=-0.054264885446233126 -0.051411375601991195 0.18217757169874546 0.00039983391880935124 0.14121212078432557 0.20778112943875562 -0.032448935851931489 0.1945598414077114 0.17918759569533396 0.22959419027729339 0.18386333713852077 -0.0027470833500376252 0.078339411506593792 0.075852659764153896 0.044792475168375749 0.049160020533911448 0.084538788135333359 0.05399748278233242 0.080666037003462462 0.17094247687577166 0.12554529545766374 0.23849587020547502 0.12553035961153408 0.017069470688712764 0.13764608019906191 0.096068027682135293 0.029958479841155107 -0.018291316978462705 0.12558256024345205 0.064938133856781446 0.17127481609471429
leaf_count=38339 2357 219 2026 592 657 341 281 466 48 812 593 525 464 516 1184 247 740 249 850 416 50 343 780 193 846 688 61 115 95 270
internal_value=0 1.63713 1.91536 1.57337 3.02544 0.896387 1.7701 2.09833 1.96438 2.40659 0.553655 0.777092 2.93313 2.03768 1.01162 2.97157 1.779 3.49671 3.0665 1.38964 1.91275 1.58223 1.51056 1.44805 1.78984 1.09899 2.53863 0.6755 3.45073 2.28873
internal_count=55363 17024 14667 11833 2834 5613 1394 6220 5754 2814 4219 866 1421 1078 2193 528 1393 1756 1099 1600 514 859 2940 2892 1997 881 653 895 907 1116
shrinkage=0.05


Tree=4
num_leaves=31
num_cat=0
split_feature=0 1 2 192 50 2 22 32 193 193 32 37 166 160 22 96 13 43 122 25 108 41 134 181 2 19 110 152 90 160
split_gain=7245.4 1122.73 597.3 249.964 195.852 151.43 136.866 111.276 104.861 92.9307 84.6862 76.9105 71.0635 82.9421 67.9244 67.7232 61.4438 60.7275 58.5116 53.6778 53.5816 51.9815 51.4831 56.3954 46.6721 46.2396 45.8205 44.3666 42.6543 41.8928
threshold=1.0000000180025095e-35 -0.99446795326366899 -0.50302042471760466 1.7794473382532678 -1.7552632578187979 0.80103311955548828 0.53274477123067798 -0.71177766162102873 0.59342176155057946 0.59342176155057946 -0.77820143445217227 -0.58183138364744569 -0.25698380685874084 -0.6722216829077049 0.22658931524633466 -0.30263809426609123 -0.50713657911753474 -1.0948862225950768 0.9437280359480591 0.42437876488046583 -0.16940212064524077 -0.61668625631024254 0.92862854995921629 1.23583679214612 1.7324999368934113 0.43686991668118841 -0.16939522336465992 0.81975982093023025 -1.4816116019009609 0.020591320129174053
decision_type=2 2 2 2 2 2 2 2 2 2 2 2 2 2 2 2 2 2 2 2 2 2 2 2 2 2 2 2 2 2
left_child=-1 -2 4 5 11 7 8 9 15 28 -10 -3 13 -5 16 22 -9 -12 29 -20 26 -14 23 -6 -7 -16 -8 -13 -4 -18
right_child=1 2 3 12 6 24 20 14 10 -11 17 27 21 -15 25 -17 18 -19 19 -21 -22 -23 -24 -25 -26 -27 -28 -29 -30 -31
leaf_value=-0.054039620336260433 -0.0531716535241386 0.16389006750806551 0.1829050819766008 0.14474693569583483 0.02844603167073656 0.12415384942392634 0.1184074703467471 0.10275444808497441 0.11130598638712728 0.14664536702513947 0.082290972170764851 0.050189356789049899 0.17314780573997088 0.02628645878707599 0.13226357192351046 0.0024378691274945922 0.047859335184082932 -0.008251521641511118 0.063828746728772187 0.27818636573351979 0.23395007965283898 0.071630370085291051 0.26960391509047427 0.15386804905851878 0.20627081230825273 0.07030685716899325 0.024955564698931291 0.13650221494966275 0.08052293089785667 -0.0086819581026007751
leaf_count=38339 2296 257 83 316 577 1397 326 322 389 573 273 355 1038 185 339 3059 559 438 100 34 58 123 24 106 136 925 184 141 1713 698
internal_value=0 1.46816 1.6986 2.15456 0.955959 1.88735 0.717088 1.64487 0.53599 2.09181 1.2987 2.17783 3.01049 2.12726 1.24928 0.258102 0.832901 0.60757 0.554 2.44355 2.06353 3.31992 1.1502 0.974107 2.63716 1.7379 1.75567 1.54063 1.71792 0.34301
internal_count=55363 17024 14728 8541 6187 6879 5434 5346 4866 2369 1100 753 1662 501 2977 3766 1713 711 1391 134 568 1161 707 683 1533 1264 510 496 1796 1257
shrinkage=0.05


Tree=5
num_leaves=31
num_cat=0
split_feature=0 19 192 4 193 27 48 37 96 166 96 193 32 43 220 1 176 152 33 50 210 30 203 179 215 11 151 109 166 113
split_gain=6379.7 950.316 389.352 349.07 117.596 106.291 101.222 100.433 96.8797 94.3229 79.2705 76.104 66.1299 57.779 55.7994 53.6481 49.6111 49.5826 52.7291 48.3356 58.7963 46.2872 51.369 44.3176 43.6256 43.3681 40.7203 40.6454 39.5426 39.311
threshold=1.0000000180025095e-35 -0.64888610952683867 1.7794473382532678 -0.090746668192894744 0.55611913035468818 0.63870485026390533 0.21332696540979348 -0.43239488107593099 -0.27700771334624258 0.94302202250220224 -0.45513886073918702 -0.1028940207727248 -0.74588716658837273 0.06914895857445473 0.28222279572070924 1.0000000180025095e-35 1.7012350266858662 0.47329483988921278 -2.1704825626283997 -2.0748218975634973 0.2488455572478345 1.7264705380781895 -0.42967968896587422 -0.92231390794224288 -0.31753450950478662 0.8426498487181987 -0.60725506368849969 -0.15606284757454669 -1.4309220938590401 3.1091112824079716
decision_type=2 2 2 2 2 2 2 2 2 2 2 2 2 2 2 2 2 2 2 2 2 2 2 2 2 2 2 2 2 2
left_child=-1 -2 3 4 10 8 -6 28 16 24 21 15 14 17 -13 -10 -5 18 -14 -12 29 22 -3 -24 25 -9 -19 -25 -4 -21
right_child=1 2 7 5 6 -7 -8 9 11 -11 19 12 13 -15 -16 -17 -18 26 -20 20 -22 -23 23 27 -26 -27 -28 -29 -30 -31
leaf_value=-0.053827113113277758 -0.052014504058030056 0.018512949381206602 0.0053493414617222608 0.11193351723190825 0.092657134090414608 0.16286996843757418 0.0034460784351096306 0.084209679886620689 -0.016837215467456906 0.14364136362031674 0.10891029278311513 0.11748492806295796 0.22822106076442905 -0.016086197083812474 0.012709881704682206 0.056212122100097933 0.013694922435914303 0.16262706123094237 0.036586976280090999 -0.0072746671758027867 0.041107603155015382 0.14921151366497368 -0.0078849779667057567 0.2219061168184957 0.046863854263856745 0.1803373578801491 0.077126020558051789 0.070454095254608703 0.15160304873954578 0.17360638703830544
leaf_count=38292 2371 463 42 1639 892 266 437 495 265 429 93 975 24 189 113 1809 104 155 584 2567 930 127 58 83 544 84 314 81 908 30
internal_value=0 1.30696 1.50739 1.2648 0.691755 1.6842 1.40309 2.36984 1.60364 1.94701 0.422411 1.37248 1.69992 1.23942 2.16144 0.952965 2.12897 1.47705 0.927347 0.217301 0.148852 1.2905 0.969319 2.1682 1.51628 1.98303 2.14434 2.96773 2.95124 -0.102105
internal_count=55363 17071 14700 12198 5761 6437 1329 2502 6171 1552 4432 4428 2354 1266 1088 2074 1743 1077 608 3620 3527 812 685 222 1123 579 469 164 950 2597
shrinkage=0.05


Tree=6
num_leaves=31
num_cat=0
split_feature=0 19 2 2 4 19 50 78 92 16 137 27 137 107 213 78 32 17 13 15 5 12 122 152 96 156 45 30 106 44
split_gain=5759.75 812.474 451.849 197.2 150.169 113.838 111.33 82.4523 71.9767 69.7374 60.1083 52.4013 46.7944 45.4441 45.1742 42.5225 45.3839 40.0882 37.2449 36.9813 36.6624 43.686 37.6726 36.3574 36.2341 35.4892 34.8015 34.4056 33.9497 33.4667
threshold=1.0000000180025095e-35 -0.64888610952683867 -1.0619005151203593 0.80103311955548828 -0.090746668192894744 0.43686991668118841 -1.7053336238392631 0.68377329262858277 -0.33885494838579283 -0.36222838485452474 0.92490672167962118 0.095187788220637476 0.94308849956858709 -0.62875235780010896 0.25090515557835558 1.0045370119954509 -0.74588716658837273 -0.80454881282767576 -0.36770473435612611 -0.94238330096471834 0.40829672234886594 -0.085888440431881763 0.9418425715610842 -0.64815759874354895 -0.14629277065501883 1.1667994787534293 -0.36509531485577223 1.8608714183700321 1.7134375949535654 0.11248347674056529
decision_type=2 2 2 2 2 2 2 2 2 2 2 2 2 2 2 2 2 2 2 2 2 2 2 2 2 2 2 2 2 2
left_child=-1 -2 6 4 7 20 17 8 26 13 19 12 18 -8 -9 16 25 -3 -12 -5 22 -22 28 -17 -15 -7 -4 -11 -6 -10
right_child=1 2 3 10 5 15 9 14 29 27 11 -13 -14 24 -16 23 -18 -19 -20 -21 21 -23 -24 -25 -26 -27 -28 -29 -30 -31
leaf_value=-0.053626560104778398 -0.051730563769802798 0.13930679765222448 0.13430486486209323 0.14116345314748455 0.081286637131596853 0.077152947015404538 0.11279728004171702 0.095425016816029273 0.035282989065593261 -0.0075693404012567292 0.19268568492471513 0.15868551959930016 -0.025859506449950515 0.074012841800056822 0.045272133465438597 0.037296029648643918 0.044703177820470764 0.056460942240332934 0.05613713993197305 0.08694143758422769 0.16869333800402775 0.10552461851595266 0.15255381740163468 0.11558212873137313 0.0090659759951556267 0.20792634175791266 0.052540189279807276 0.097662859332388219 0.1653933739538771 -0.0093632368586416097
leaf_count=38292 2371 119 101 237 1130 908 160 688 705 2191 59 584 60 257 658 131 1433 334 73 994 306 463 171 406 668 38 767 72 88 899
internal_value=0 1.1923 1.36611 1.6228 1.43569 1.71626 0.462087 0.987747 0.638815 0.232782 2.31777 2.84384 1.61865 0.855207 1.50126 1.37611 1.21025 1.58956 2.41524 1.96258 2.17179 2.62671 1.9152 1.98566 0.584313 1.64437 1.28644 -0.0803228 1.75004 0.233181
internal_count=55363 17071 14700 10899 8892 5074 3801 3818 2472 3348 2007 776 192 1085 1346 2916 2379 453 132 1231 2158 769 1389 537 925 946 868 2263 1218 1604
shrinkage=0.05


Tree=7
num_leaves=31
num_cat=0
split_feature=0 1 2 2 78 4 50 19 16 214 183 185 80 119 193 16 88 27 23 15 92 119 107 122 19 183 14 3 143 184
split_gain=5225.08 702.874 368.459 158.311 121.566 115.312 96.7028 78.7346 56.9544 54.5715 66.3322 60.0464 48.8232 48.3997 44.9305 48.4533 43.357 41.6901 39.2534 41.8024 38.508 41.2784 37.3691 37.3218 36.6311 36.0745 35.3524 33.1003 32.6177 32.5401
threshold=1.0000000180025095e-35 -0.90303906863159511 -1.0619005151203593 0.80103311955548828 1.1114582517844094 -0.090746668192894744 -1.7053336238392631 0.51200874202430446 -0.36222838485452474 0.64657107639719225 -0.71475438401003422 0.20225944565439186 0.74715605881589553 0.6141703097414174 0.47529676276359012 -0.7628653386462757 -0.77736764636099143 0.48595095074576705 1.365447707363368 -0.80545930421878598 -1.1137180021607829 0.6141703097414174 -0.62875235780010896 0.93957543422128065 0.13631461530872407 -1.9489918774703445 1.6008288512447573 -0.86996745133320508 0.36592574356537783 -0.49778359706293152
decision_type=2 2 2 2 2 2 2 2 2 2 2 2 2 2 2 2 2 2 2 2 2 2 2 2 2 2 2 2 2 2
left_child=-1 -2 6 4 5 9 24 20 22 11 -11 16 23 17 15 -12 -4 18 19 -5 -7 26 -8 -13 29 -9 -22 -10 -19 -3
right_child=1 2 3 13 -6 7 8 25 27 10 14 12 -14 -15 -16 -17 -18 28 -20 -21 21 -23 -24 -25 -26 -27 -28 -29 -30 -31
leaf_value=-0.053437200919399533 -0.052511044786316366 0.11000155765487413 0.057391875670917608 0.11117710949358142 0.099875214168015342 0.12842001021396837 0.099198911628046463 -0.0044091229569829552 -0.022226647330193902 0.012103562547739012 0.20312206802986221 -0.0092322417388525906 0.094816434326376584 0.13322062982518948 0.11449107187207699 0.037022503908246976 -0.012642468129489349 0.070769660533261378 0.15315668195980647 0.054734094231719467 0.087919466554461534 0.048513865878625433 0.025961069419383899 0.075011926455285524 0.023418788991747 0.057738388415961787 0.20075686843870219 0.015090400876555858 0.14628314617475799 -0.028500950364985279
leaf_count=38292 2327 263 222 261 1199 317 160 179 1192 438 42 318 258 548 314 470 1104 115 98 731 1423 537 947 187 157 1842 45 1080 262 35
internal_value=0 1.09319 1.24424 1.46811 1.30268 1.16237 0.432729 1.42558 0.217837 0.740083 1.18816 0.434343 1.04572 2.07013 1.62212 1.01458 0.0195482 1.83245 1.57261 1.42236 1.75128 1.61405 0.764594 0.446019 1.45891 1.04732 1.83213 -0.069447 2.48797 1.94595
internal_count=55363 17071 14744 10910 8895 7696 3834 4343 3379 3353 1264 2089 763 2015 826 512 1326 1467 1090 992 2322 2005 1107 505 455 2021 1468 2272 377 298
shrinkage=0.05


Tree=8
num_leaves=31
num_cat=0
split_feature=0 1 2 192 4 50 49 166 191 2 99 16 2 19 154 215 171 14 9 159 92 110 14 211 58 30 75 220 27 19
split_gain=4761.28 612.933 304.605 163.719 113.834 82.7834 65.0027 62.9338 79.7896 53.2882 52.4119 49.7291 49.1161 61.191 46.4483 43.7309 40.7894 37.6843 38.7868 35.3549 34.9965 33.8352 33.6304 33.5074 33.0214 32.1278 31.1541 30.38 30.3322 30.11
threshold=1.0000000180025095e-35 -0.90303906863159511 -1.0619005151203593 1.7794473382532678 -0.090746668192894744 -1.7053336238392631 1.0003131095770286 -0.37563606863824867 -0.47332787250500347 0.42844639262031831 1.0831023772002666 -0.36222838485452474 0.98732648302307335 0.51200874202430446 -0.38306279494143664 -0.31753450950478662 -0.2373459484616654 -0.26631188002639139 -1.5663963972132693 -0.4195872456736604 -0.45475326839487268 -0.16939579215885128 1.5409569012572708 -0.69735258562129576 0.32755619468098002 1.8608714183700321 -0.84180417065798685 0.77971199845118222 -0.97786547680162494 0.13631461530872407
decision_type=2 2 2 2 2 2 2 2 2 2 2 2 2 2 2 2 2 2 2 2 2 2 2 2 2 2 2 2 2 2
left_child=-1 -2 5 4 7 29 10 8 -4 20 12 21 13 22 26 -16 -17 18 -10 -11 -9 23 24 -7 -6 -13 -5 -12 -19 -3
right_child=1 2 3 14 6 11 -8 9 17 19 27 25 -14 -15 15 16 -18 28 -20 -21 -22 -23 -24 -25 -26 -27 -28 -29 -30 -31
leaf_value=-0.053258350229015955 -0.052280423890657193 0.088139338006032936 0.011817013549673336 0.085529320268523057 0.072578901530368153 0.097645994454176183 0.11801391116241494 0.043973437549720877 0.19288969316699101 0.10244795030393557 0.10338450370748198 -0.0069055351184267415 0.091041195181489259 0.035354657972275848 0.12193898587514984 0.031567471357887823 0.097463648178778478 0.021827215334981838 0.022290852901533958 0.031065130424261008 -0.0050093108588800317 -0.0050660435870246946 0.15583422122158186 0.031716309340749003 0.014887285170766788 0.0910622379649553 0.020421342554402047 0.037128209715683806 0.10859518710244592 0.021951737883874875
leaf_count=38292 2327 298 514 284 1479 221 352 411 24 209 671 2199 573 1721 761 173 589 87 249 339 1313 341 67 545 207 73 200 128 559 157
internal_value=0 1.00742 1.14103 1.33843 1.16443 0.405506 1.38826 0.76291 1.19664 0.442859 1.30603 0.2051 1.18181 1.05668 1.90729 2.08135 1.68575 1.62828 0.780926 1.16352 0.159404 0.706767 1.39745 1.0333 1.32224 -0.0662986 1.2185 1.86874 1.96316 1.33606
internal_count=55363 17071 14744 10910 8903 3834 5198 3705 1433 2272 4846 3379 4047 3474 2007 1523 762 919 273 548 1724 1107 1753 766 1686 2272 484 799 646 455
shrinkage=0.05


Tree=9
num_leaves=31
num_cat=0
split_feature=0 19 2 192 56 13 110 92 18 104 109 198 29 8 27 166 176 5 107 160 192 33 19 193 211 152 76 188 45 36
split_gain=4355.83 539.367 256.844 102.246 96.9144 86.6945 89.5725 72.952 70.3343 64.2903 54.5122 48.1731 80.5005 50.5621 44.7047 39.2423 39.0574 38.5034 40.3049 37.8339 37.0872 36.9426 34.8332 34.2937 33.4654 33.2075 32.3197 32.2387 32.045 29.8378
threshold=1.0000000180025095e-35 -0.64888610952683867 -0.50302042471760466 1.7794473382532678 -1.4090557517712841 0.1900226446895128 -0.16939413943610657 -0.30574114266891134 0.17499796667061659 1.0000000180025095e-35 -0.1560574540408165 1.5877523859800713 1.0000000180025095e-35 -1.4481881202603195 0.63056246062110455 -0.25698380685874084 1.6667629207939829 -1.0676270816579243 0.87828500363130824 -0.6722216829077049 -0.44981010947314609 -1.8073559414578846 0.66228639271053658 0.54399577521602305 1.3682748382665098 0.58316070887721649 -0.16073011196439754 -0.028365691638764141 -0.1193446902897536 -0.57118607985479186
decision_type=2 2 2 2 2 2 2 2 2 2 2 2 2 2 2 2 2 2 2 2 2 2 2 2 2 2 2 2 2 2
left_child=-1 -2 4 7 24 11 8 16 17 14 21 13 -13 28 20 19 22 -7 -19 -5 -9 -11 -4 -10 29 -23 -14 -25 -6 -3
right_child=1 2 3 15 5 6 -8 9 23 10 -12 12 26 -15 -16 -17 -18 18 -20 -21 -22 25 -24 27 -26 -27 -28 -29 -30 -31
leaf_value=-0.053089355311495737 -0.050956713874646155 0.085181070199897402 0.091374842552108274 0.082515052679252007 0.12688849888782516 0.022219825095530155 -0.0069755224575285954 0.044799116745534273 0.019681895785005666 0.10795528542481647 0.080582169493711026 -0.018237080612049254 0.042483466398348546 -0.012757449542928137 0.13660653344823565 0.10007788123518496 0.0067481068695778596 0.14835884493642013 0.066527936668550142 0.010861587106352703 0.077863341369252839 0.0048492111911029563 0.059102676971936122 0.11015087462775053 0.076422299385108736 0.045763140308512806 0.15513288361056246 0.017653447774805316 0.02183252457193928 -0.011977646118396256
leaf_count=38292 2371 68 1345 321 78 103 613 1470 790 68 309 247 72 2361 99 1139 130 244 183 182 911 1233 799 147 665 503 89 96 265 170
internal_value=0 0.932673 1.05336 1.31259 0.593912 0.414019 0.820137 1.15901 1.14887 0.960834 0.611507 0.0683008 0.973638 -0.0912312 1.23587 1.79551 1.51095 1.92082 2.26508 1.22296 1.15607 0.426598 1.58628 0.718052 1.2865 0.340883 2.17735 1.49685 0.996541 0.424095
internal_count=55363 17071 14700 8509 6191 5288 2176 6867 1563 4593 2113 3112 408 2704 2480 1642 2274 530 427 503 2381 1804 2144 1033 903 1736 161 243 343 238
shrinkage=0.05


end of trees

feature importances:
Column_2=16
Column_193=15
Column_19=13
Column_0=10
Column_22=10
Column_27=8
Column_110=8
Column_4=7
Column_32=7
Column_50=7
Column_166=7
Column_192=7
Column_37=6
Column_1=5
Column_14=5
Column_96=5
Column_152=5
Column_156=5
Column_185=5
Column_13=4
Column_16=4
Column_30=4
Column_78=4
Column_92=4
Column_122=4
Column_183=4
Column_203=4
Column_220=4
Column_11=3
Column_15=3
Column_29=3
Column_48=3
Column_107=3
Column_109=3
Column_119=3
Column_137=3
Column_154=3
Column_160=3
Column_191=3
Column_211=3
Column_214=3
Column_215=3
Column_5=2
Column_33=2
Column_35=2
Column_41=2
Column_43=2
Column_44=2
Column_45=2
Column_56=2
Column_90=2
Column_169=2
Column_171=2
Column_176=2
Column_194=2
Column_198=2
Column_213=2
Column_219=2
Column_3=1
Column_8=1
Column_9=1
Column_12=1
Column_17=1
Column_18=1
Column_23=1
Column_25=1
Column_36=1
Column_49=1
Column_53=1
Column_55=1
Column_58=1
Column_68=1
Column_72=1
Column_75=1
Column_76=1
Column_80=1
Column_82=1
Column_88=1
Column_94=1
Column_99=1
Column_104=1
Column_106=1
Column_108=1
Column_111=1
Column_113=1
Column_125=1
Column_134=1
Column_135=1
Column_143=1
Column_146=1
Column_151=1
Column_159=1
Column_179=1
Column_181=1
Column_184=1
Column_188=1
Column_210=1

parameters:
[boosting: gbdt]
[objective: binary]
[metric: auc]
[tree_learner: serial]
[device_type: cpu]
[data: ]
[valid: ]
[num_iterations: 100]
[learning_rate: 0.05]
[num_leaves: 31]
[num_threads: 0]
[max_depth: -1]
[min_data_in_leaf: 20]
[min_sum_hessian_in_leaf: 0.001]
[bagging_fraction: 0.8]
[bagging_freq: 5]
[bagging_seed: 3]
[feature_fraction: 0.9]
[feature_fraction_seed: 2]
[early_stopping_round: 0]
[max_delta_step: 0]
[lambda_l1: 0]
[lambda_l2: 0]
[min_gain_to_split: 0]
[drop_rate: 0.1]
[max_drop: 50]
[skip_drop: 0.5]
[xgboost_dart_mode: 0]
[uniform_drop: 0]
[drop_seed: 4]
[top_rate: 0.2]
[other_rate: 0.1]
[min_data_per_group: 100]
[max_cat_threshold: 32]
[cat_l2: 10]
[cat_smooth: 10]
[max_cat_to_onehot: 4]
[top_k: 20]
[monotone_constraints: ]
[feature_contri: ]
[forcedsplits_filename: ]
[refit_decay_rate: 0.9]
[verbosity: 0]
[max_bin: 255]
[min_data_in_bin: 3]
[bin_construct_sample_cnt: 200000]
[histogram_pool_size: -1]
[data_random_seed: 1]
[output_model: LightGBM_model.txt]
[snapshot_freq: -1]
[input_model: ]
[output_result: LightGBM_predict_result.txt]
[initscore_filename: ]
[valid_data_initscores: ]
[pre_partition: 0]
[enable_bundle: 1]
[max_conflict_rate: 0]
[is_enable_sparse: 1]
[sparse_threshold: 0.8]
[use_missing: 1]
[zero_as_missing: 0]
[two_round: 0]
[save_binary: 0]
[enable_load_from_binary_file: 1]
[header: 0]
[label_column: ]
[weight_column: ]
[group_column: ]
[ignore_column: ]
[categorical_feature: ]
[predict_raw_score: 0]
[predict_leaf_index: 0]
[predict_contrib: 0]
[num_iteration_predict: -1]
[pred_early_stop: 0]
[pred_early_stop_freq: 10]
[pred_early_stop_margin: 10]
[convert_model_language: ]
[convert_model: gbdt_prediction.cpp]
[num_class: 1]
[is_unbalance: 0]
[scale_pos_weight: 1]
[sigmoid: 1]
[boost_from_average: 1]
[reg_sqrt: 0]
[alpha: 0.9]
[fair_c: 1]
[poisson_max_delta_step: 0.7]
[tweedie_variance_power: 1.5]
[max_position: 20]
[label_gain: ]
[metric_freq: 1]
[is_provide_training_metric: 0]
[eval_at: ]
[num_machines: 1]
[local_listen_port: 12400]
[time_out: 120]
[machine_list_filename: ]
[machines: ]
[gpu_platform_id: -1]
[gpu_device_id: -1]
[gpu_use_dp: 0]

end of parameters

pandas_categorical:null
