tree
version=v2
num_class=1
num_tree_per_iteration=1
label_index=0
max_feature_idx=221
objective=binary sigmoid:1
feature_names=Column_0 Column_1 Column_2 Column_3 Column_4 Column_5 Column_6 Column_7 Column_8 Column_9 Column_10 Column_11 Column_12 Column_13 Column_14 Column_15 Column_16 Column_17 Column_18 Column_19 Column_20 Column_21 Column_22 Column_23 Column_24 Column_25 Column_26 Column_27 Column_28 Column_29 Column_30 Column_31 Column_32 Column_33 Column_34 Column_35 Column_36 Column_37 Column_38 Column_39 Column_40 Column_41 Column_42 Column_43 Column_44 Column_45 Column_46 Column_47 Column_48 Column_49 Column_50 Column_51 Column_52 Column_53 Column_54 Column_55 Column_56 Column_57 Column_58 Column_59 Column_60 Column_61 Column_62 Column_63 Column_64 Column_65 Column_66 Column_67 Column_68 Column_69 Column_70 Column_71 Column_72 Column_73 Column_74 Column_75 Column_76 Column_77 Column_78 Column_79 Column_80 Column_81 Column_82 Column_83 Column_84 Column_85 Column_86 Column_87 Column_88 Column_89 Column_90 Column_91 Column_92 Column_93 Column_94 Column_95 Column_96 Column_97 Column_98 Column_99 Column_100 Column_101 Column_102 Column_103 Column_104 Column_105 Column_106 Column_107 Column_108 Column_109 Column_110 Column_111 Column_112 Column_113 Column_114 Column_115 Column_116 Column_117 Column_118 Column_119 Column_120 Column_121 Column_122 Column_123 Column_124 Column_125 Column_126 Column_127 Column_128 Column_129 Column_130 Column_131 Column_132 Column_133 Column_134 Column_135 Column_136 Column_137 Column_138 Column_139 Column_140 Column_141 Column_142 Column_143 Column_144 Column_145 Column_146 Column_147 Column_148 Column_149 Column_150 Column_151 Column_152 Column_153 Column_154 Column_155 Column_156 Column_157 Column_158 Column_159 Column_160 Column_161 Column_162 Column_163 Column_164 Column_165 Column_166 Column_167 Column_168 Column_169 Column_170 Column_171 Column_172 Column_173 Column_174 Column_175 Column_176 Column_177 Column_178 Column_179 Column_180 Column_181 Column_182 Column_183 Column_184 Column_185 Column_186 Column_187 Column_188 Column_189 Column_190 Column_191 Column_192 Column_193 Column_194 Column_195 Column_196 Column_197 Column_198 Column_199 Column_200 Column_201 Column_202 Column_203 Column_204 Column_205 Column_206 Column_207 Column_208 Column_209 Column_210 Column_211 Column_212 Column_213 Column_214 Column_215 Column_216 Column_217 Column_218 Column_219 Column_220 Column_221
feature_infos=[-0.66660875247738538:1.5001303182467962] [-8.1373495651444507:2.1483999559638751] [-4.3779223848433686:3.5022868898354638] [-18.3378899910428:2.4683466340335181] [-21.006071946094025:2.3122907041617031] [-1.51683117901022:2.2893964263834321] [-3.704427823718234:2.9296717858440502] [-11.33328930330789:3.3327372274079341] [-32.949333493316509:3.1967908628766741] [-32.949333493316509:3.1967908628766741] [-7.8085883089635022:2.2254975492503859] [-17.857815559059315:2.6574629473632743] [-16.154677933969346:2.3278782216874796] [-16.75094649382174:1.2357614804000838] [-2.4141643017562262:2.3235054058436808] [-7.2192292900460542:3.7283902127272288] [-17.149592605366319:2.6216147303155917] [-21.919086265114885:2.1543706740913064] [-22.928143756125145:1.4178250799485699] [-8.0162479344193702:1.9772158362150674] [-16.855134997564029:3.0459406184226583] [-16.751161469856712:2.0554000584392345] [-18.066199179818138:1.6808277311719626] [-3.9349436019709647:2.9096876804993599] [-10.672993608503525:3.1526934472406216] [-21.919345892938015:2.1544994146159753] [-21.919345892938015:2.1544994146159753] [-23.093185885727191:1.1327829264055729] [-1.1223668761062424:1.1073188676149188] [-0.66607975216140092:1.5013217212429022] [-1.4276977719348267:2.4388725195675964] [-3.7339224587129647:2.6134676966095269] [-2.9333835772572456:30.738083536821851] [-3.2240314874052038:3.7395230753322357] [-3.0107868314937201:5.5036072309208528] [-2.7554529958926564:5.0622567270790064] [-2.8627245369341248:5.9895516457584925] [-2.1035592156724578:5.4440007390364666] [-2.439311592218945:6.4961290953426314] [-0.091844095574195123:19.335774290239243] [-0.096846540421042751:15.908454454662612] [-3.5701620149651059:2.8602233026090316] [-3.6582572113326766:5.8456517743051313] [-3.0188565667557756:6.0568323661026087] [-3.1626975811144029:3.0399524218211993] [-6.8314086237491161:2.0463326886982789] [-6.6116783572813711:2.7162279261549238] [-3.1612055651960338:3.2402944662779714] [-6.9540744460281667:1.3814547608352965] [-6.2137805548762:2.8767669400880846] [-4.1835623931379313:3.1775259843700216] [-17.341399251298675:8.7230571606464284] [-11.709000218721146:6.5520309276518844] [-4.3162531396685555:2.9576648069356257] [-19.461655168101299:7.2912605113563309] [-10.718021113794704:7.7223520161350336] [-4.3378097615384519:3.1710033283402765] [-29.848785705962118:7.5821664698792421] [-10.406289572985967:12.664635756425689] [-0.1016213817339663:11.41435712073152] [-0.10177466855901741:10.494669039957287] [-0.1017900994900776:10.242705311387812] [-0.10161047228073418:10.922990842372261] [-0.10180551999248409:10.336855814478364] [-0.10178991261402853:10.154142265703605] [-9.0480637097973435:0.11052088403369582] [-5.7744860869573627:0.76494676201893819] [-4.6508233305113427:3.9042955077865451] [-4.7187908457011858:0.58445258260482058] [-4.5049497963332179:0.66126577227518302] [-0.68295662091716136:6.1710874199026033] [-2.4476711803183493:0.69054277751308146] [-0.10226932654337859:10.673634049358457] [-0.10216402654250893:18.69761171503168] [-0.66607975216140092:1.5013217212429022] [-4.0781784118824929:3.6061979176883869] [-3.9693243678267822:3.4626004382807323] [-2.0818381492726425:0.48034473782190129] [-7.6178972538425223:2.1577589554334802] [-2.4314036821788423:3.9795245683031988] [-5.0799128330172385:4.2623087736864296] [-0.79884044617905581:4.0279277065680184] [-7.2333437878441611:3.2455778806281272] [-3.1443604326545813:4.186891853879235] [-5.6858364107702997:4.2072279869636704] [-0.52016408218964638:6.2148041211564937] [-9.3151707018632308:2.8811095507757751] [-3.6014162835634682:3.5611037512296666] [-6.2700827141289066:4.0458991528761441] [-0.28279635261732206:5.0374040535944191] [-8.662362389925887:3.1355698069058526] [-7.0880826653985336:4.6484953859834564] [-10.477474413751544:2.9385839724424128] [-0.1295643374413655:9.2881449767319229] [-8.8230069605063903:2.8030087600518909] [-6.8332561014637863:5.3802740450360851] [-10.65410818826966:2.2354103763218478] [-0.075024267435498629:19.257015617697089] [-7.1244608462586214:2.930651519198654] [-5.3272732129221492:5.8312901258638039] [-10.261640801786969:1.3153093004371346] [-0.075024267435498629:19.257015617697089] [-5.6516418655572265:4.1563989679254281] [-1.9036436205506075:1.0427013873784325] [-3.4966098933334102:0.97215110836560514] [-2.0818381492726425:0.48034473782190129] [-4.4723525701470432:2.9523377832601034] [-0.62875459976834014:5.8228498777125743] [-0.16951214721918931:6.0371464129997943] [-11.856344899081309:6.6787881845114683] [-0.16945877538357945:6.0144872774481071] [-0.15006849221302435:6.6651328233416161] [-1.277606152242625:6.1881106234629408] [-1.2758958495365469:7.8673105106881929] [-1.3357207380538252:5.8379017845715788] [-1.3792785476561273:6.6801335697118978] [-1.4511708470498714:5.3979418025579866] [-1.4525090356808039:5.4091177628599914] [-1.4410713443777885:5.4020961443245028] [-0.8373282301468622:3.7245243237877301] [-0.8373282301468622:3.7245243237877301] [-0.93279238885690607:1.7589154291316091] [-16.327026513774559:0.94427001154107626] [-0.8042438349988047:1.2434039982432521] [-0.92162719139468396:1.6457895505757636] [-1.0718306989114765:0.95328427024766316] [-0.8042438349988047:1.2434039982432521] [-0.94685030923256519:2.4118717549905777] [-21.781871932197234:1.0046942543638322] [-0.61104769915145141:1.6365334512979559] [-0.94685030923256519:2.4118717549905777] [-1.0704957256166425:1.0182197390296877] [-0.61104769915145141:1.6365334512979559] [-0.8170823857920857:3.0356351910121377] [-19.021694532829837:0.93004684957823858] [-3.9413568349338162:0.25371973203151788] [-0.88451506301203331:3.1626939528956446] [-1.0747066465714266:0.94849389299503661] [-3.9413568349338162:0.25371973203151788] [-0.94384898942080653:2.3626394079119444] [-29.626062135405803:0.73527183385737171] [-3.1627520551874007:0.61032159777108652] [-0.94384898942080653:2.3626394079119444] [-2.2615726671784357:0.75413548551546672] [-4.4830422748853014:0.2230628083973589] [-0.87127802699619505:2.696461672366659] [-33.556890642632979:1.0123715899824175] [-4.4830422748853014:0.2230628083973589] [-0.87127802699619505:2.696461672366659] [-1.0712079117805187:1.0469549635197524] [-4.4830422748853014:0.2230628083973589] [-1.8067506342172019:2.9912316478976062] [-1.9118430295931415:1.8992717618580164] [-1.8067506342172019:2.9912316478976062] [-1.9205572492784737:1.8960090261444531] [-1.5111333309842157:1.5128766690856248] [-3.1318933078269287:1.6234214318393119] [-1.5111333309842157:1.5128766690856248] [-3.117944663610039:1.6326387941388369] [-1.4263918730068408:2.6008266363258801] [-1.9634392084837797:2.3503021311798178] [-0.55130499253235632:1.8138780049979495] [-1.4263918730068408:2.6008266363258801] [-1.973829982526998:2.3713772283229022] [-0.55130499253235632:1.8138780049979495] [-1.4206617637659598:3.4520643913297331] [-3.6268878175510171:1.4481930158361789] [-0.052203318478102716:19.155870338385903] [-1.4206617637659598:3.4520643913297331] [-3.6315023685943375:1.4455669049730073] [-0.052203318478102716:19.155870338385903] [-1.7001181143570678:2.0747777976310671] [-2.5048237092435142:2.0846293737008259] [-1.685450570010546:2.1188564888800894] [-2.5145815918112366:2.0898058150751075] [-1.6620257282860385:1.9462816711653821] [-1.6670233199762163:2.2071965809054905] [-1.6677228885423441:1.9637530306291706] [-1.6651015054116645:2.2116006933887133] [-1.5628762971615442:2.1819499782743712] [-3.0232416076494895:1.4588366781695392] [-1.5579458717633909:2.1670976801159565] [-3.0371214218938904:1.4538673738333805] [-2.7020719700973843:2.7883127390654354] [-4.451685978868829:3.120319059708637] [-1.1031320467218639:5.4024255546286559] [-4.409381140663835:2.6601794711714413] [-1.7956448156806879:51.190860473488605] [-2.1079276286554558:50.009943217638977] [-2.4953916867778356:15.812807846954497] [-2.228401813873357:17.576124232994928] [-1.0737600373616221:5.1358375650016965] [-0.46435160352861143:4.7889951691261397] [-1.6972706491371117:7.1676996545664524] [-0.67171715002408616:4.6300379799311004] [-0.92959384112349952:6.7551729440657029] [-0.71386664222565832:20.745630488746553] [-0.53695219878104072:22.113736355758888] [-0.59177749361012211:13.823520941903196] [-0.58929704455688647:12.008879098942929] [-0.15848450683974269:7.3097602550332539] [-0.25647954680256857:14.484234674557596] [-0.30829475767904813:12.146661425244011] [-0.82193212855328657:5.4280375127585563] [-0.36507621616375635:5.7559500627768525] [-0.27742281544591552:130.52742241847764] [-0.2990558137639201:6.2192219769898927] [-0.69873316768804572:9.1962289767549272] [-0.19590748780300213:11.432281551668028] [-0.35808856240688597:43.216260174803971] [-0.76161798725428875:4.7785097222573532] [-0.70870172322394753:5.4425308574131899] [-0.25536515823175648:7.2615098783922845] [-1.54177440430132:3.2799154464095306] [-1.7634471474289564:1.7420339054090779] [-1.6061361689360858:1.7554333774064332] [-1.6284609488246546:1.6311977216973568] [-1.7051918991390833:1.7045974427029313] [-1.6477049919006694:1.5757784320517594] [-1.000898191564308:5.0469826506922084] [-0.96150021110547323:3.5159026134687834] [-1.1571805501597223:4.8462156238828333]
tree_sizes=2492 2508 2504 2523 2527 2534 2516 2518 2519 2522

Tree=0
num_leaves=31
num_cat=0
split_feature=0 10 192 2 48 193 214 193 32 22 22 37 70 37 166 166 192 166 156 88 137 2 220 110 27 2 137 30 166 192
split_gain=12560.5 2826.87 2228.33 1298.07 1015.29 536.252 392.048 327.126 475.594 267.97 245.496 235.506 215.906 214.463 197.878 166.663 156.212 141.763 139.645 132.408 131.888 126.02 115.792 112.825 101.519 93.5533 87.9753 85.9467 118.121 83.0007
threshold=1.0000000180025095e-35 -0.64190727811511528 1.7794473382532678 -0.31672706125001976 0.96323616741135076 0.55611913035468818 1.0000000180025095e-35 0.59342176155057946 -0.77820143445217227 0.22658931524633466 0.22658931524633466 -0.61390996772175443 -0.37140916451626316 -0.32565452209627738 1.0517865958000876 -0.24395003567841914 0.72750947041109626 -1.0044031679925467 -2.8477132923181721 -0.72553939331344408 0.93998540334229219 0.61473975608790332 1.0000000180025095e-35 -0.16940190401341701 0.63894521047391584 1.5462065734258263 0.92115752623905367 -0.50538300617369258 -1.3293485667296128 -0.41260554223549278
decision_type=2 2 2 2 2 2 2 2 2 2 2 2 2 2 2 2 2 2 2 2 2 2 2 2 2 2 2 2 2 2
left_child=-1 -2 3 7 11 9 12 10 15 19 -3 17 -7 26 21 22 27 -4 -13 -5 24 -15 -9 -12 -11 -21 -6 28 -8 -10
right_child=1 2 4 5 13 6 16 8 29 20 23 18 -14 14 -16 -17 -18 -19 -20 25 -22 -23 -24 -25 -26 -27 -28 -29 -30 -31
leaf_value=-2.3523461489024911 -2.3487906645979812 -2.2804951058460734 -2.164095953136925 -2.105241679072746 -1.9554155035673437 -2.0245962639951469 -2.1802316842025449 -1.9191128216611881 -2.3138950450865456 -2.1313011359144594 -2.158086663500109 -1.8426225419064965 -2.2146113323021575 -2.0746897954714458 -1.8307871649632601 -2.2331210249176325 -2.2106048250319472 -1.8849663525190166 -2.1788488114948197 -2.2152325734792133 -1.9833757652019814 -1.863913208537779 -2.1160197492952575 -2.2629576688486481 -1.9698695606803884 -1.9401772992263042 -1.7961149135309495 -1.887266955578873 -1.9466055207782194 -2.1997379902018723
leaf_count=38388 2372 3253 80 451 129 329 84 292 282 1706 921 39 398 371 231 96 68 174 809 1876 240 111 130 465 126 38 548 465 291 600
internal_value=0 2.48513 3.05601 2.44096 6.04512 3.57423 5.2735 1.30149 2.77205 2.94806 0.857696 3.55687 3.37397 8.01782 6.68928 5.41191 6.79437 6.48877 2.67868 2.14963 3.85939 5.4234 6.35097 2.08098 3.54243 1.75096 9.41701 7.20399 5.96764 1.22165
internal_count=55363 16975 14603 12111 2492 6072 1635 6039 1400 4437 4639 1102 727 1390 713 518 908 254 848 2365 2072 482 422 1386 1832 1914 677 840 375 882
shrinkage=1


Tree=1
num_leaves=31
num_cat=0
split_feature=0 1 192 2 4 45 4 27 193 32 96 193 198 29 137 37 110 166 41 156 33 220 2 52 22 129 166 26 183 203
split_gain=10625.1 2117.54 1206.14 892.308 433.185 409.255 194.089 193.62 171.637 145.587 145.067 128.131 128.066 259.553 116.786 121.033 108.476 106.204 106.163 123.19 105.222 92.5248 85.3812 85.1904 83.0358 82.7487 81.3778 75.7449 75.6665 74.651
threshold=1.0000000180025095e-35 -0.91065814235093479 1.7794473382532678 -0.68931378818518962 -0.090746668192894744 1.0172519483280784 0.26525886845223018 0.57474462871525234 0.49363722310157004 -0.70280147610330646 -0.30391961331208323 0.3509546587772861 1.5877523859800713 1.0000000180025095e-35 0.92115752623905367 -0.64923594366978243 -0.16939316282721195 -0.43451275914247739 -1.743954038278934 -2.8477132923181721 -1.8031684836162361 1.0000000180025095e-35 0.80103311955548828 -0.27958612363289342 0.53274477123067798 1.0000000180025095e-35 -0.61294059219727326 0.42561654531116178 -1.2338158270127091 2.5996338049614098
decision_type=2 2 2 2 2 2 2 2 2 2 2 2 2 2 2 2 2 2 2 2 2 2 2 2 2 2 2 2 2 2
left_child=-1 -2 3 6 8 18 12 10 22 26 -6 20 24 -14 15 -7 -8 21 -4 -20 -12 -13 -5 -22 -3 -21 -10 -24 -11 -19
right_child=1 2 5 4 7 14 16 -9 9 28 11 17 13 -15 -16 -17 -18 29 19 25 23 -23 27 -25 -26 -27 -28 -29 -30 -31
leaf_value=-0.054757283367913627 -0.053961335781927383 0.0092069871178570017 0.22337488719147425 0.049508489594213653 0.20372374761307599 0.31312974432609225 0.14843509621445097 0.26894868928139004 0.28187834463289668 0.15272315707509027 0.32788703522544632 0.25114256749826275 -0.014606356242874687 0.2784740130204128 0.29240504117247296 0.12679771495918174 0.025131734210250015 0.11400753009385359 0.32241825936662005 0.045797297258226496 0.054260625495059847 0.050832272565659725 0.096854999907169392 0.13120896868605827 0.1281916207614465 0.16844028942434164 0.11654349772270044 0.28045966247405318 0.024826851598381779 0.27229646893088777
leaf_count=38388 2307 3135 271 1866 1204 123 647 430 213 251 57 481 188 137 1130 251 299 640 53 450 668 68 265 939 172 216 107 77 246 84
internal_value=0 2.11084 2.535 2.08073 2.74776 4.4572 0.8834 3.36836 1.77496 3.00643 3.14853 2.75179 0.521875 2.47597 5.39719 3.85706 2.22645 3.51245 2.80828 2.14087 2.14245 4.54596 1.27623 1.98718 0.31379 1.72256 4.57468 2.77678 1.85399 2.67669
internal_count=55363 16975 14668 12174 7596 2494 4578 4571 3025 817 4141 2937 3632 325 1504 374 946 1273 990 719 1664 549 2208 1607 3307 666 320 342 497 724
shrinkage=0.05


Tree=2
num_leaves=31
num_cat=0
split_feature=0 1 50 4 110 193 32 11 35 96 193 152 37 191 213 50 193 169 55 183 183 14 185 203 191 137 56 215 171 7
split_gain=9203.39 1662.24 803.831 602.353 305.57 262.102 248.817 168.129 161.828 160.337 114.931 101.87 95.436 93.1205 89.9782 84.7684 79.9564 79.9458 78.2484 76.0298 75.734 69.166 68.244 66.5347 72.5573 63.2774 64.1468 60.2524 83.4662 56.8761
threshold=1.0000000180025095e-35 -0.91065814235093479 -1.5001879024068969 1.0000000180025095e-35 -0.16943813513021058 0.59342176155057946 -0.77820143445217227 -0.26201899393532496 -1.8731116729107897 -0.20652416581666141 0.31396288284136026 0.21253435415834068 -0.5804759505175453 -0.47332787250500347 0.25090515557835558 -2.1738231218197517 0.3509546587772861 -0.43793473105650738 -1.1696782810373672 -1.2338158270127091 -1.9248536382200185 0.84211253244303697 0.50185749308500793 4.1868169376023072 4.261704128415567 0.93822000548920936 0.58352993290357535 -0.20548219129336934 1.1782400185338855 -1.0120951503057818
decision_type=2 2 2 2 2 2 2 2 2 2 2 2 2 2 2 2 2 2 2 2 2 2 2 2 2 2 2 2 2 2
left_child=-1 -2 4 5 8 7 11 -4 -3 18 25 -7 -6 -9 27 -10 -17 20 -5 -8 -12 29 -22 24 -19 26 -11 -14 -29 -15
right_child=1 2 3 9 12 6 19 13 15 10 17 -13 14 21 -16 16 -18 23 -20 -21 22 -23 -24 -25 -26 -27 -28 28 -30 -31
leaf_value=-0.054503792102142817 -0.053672946809771284 0.25906970187261469 0.0057098484012239187 0.24245568969740239 0.25441453338621856 0.20771965488704783 0.10255686865674563 0.026212145468907211 0.16564361888007217 0.089279476702940577 -0.022254838958369289 0.053690494953185224 0.23366392447942297 0.14664663069797618 0.086343742769201148 0.01887668665960919 0.1347727509987599 0.085138344863260773 0.152896376894291 0.012996110687075031 0.20761624939779263 0.13689427807016666 0.028715431749866412 0.22579245589151889 0.38861221714259653 0.15211655848383543 0.016132716256079586 0.11091155879788711 0.24650996130956987 0.052491942823398287
leaf_count=38388 2307 135 2418 247 605 483 455 1051 212 1312 43 120 503 193 199 471 207 761 1365 534 533 511 54 89 20 288 397 243 129 1090
internal_value=0 1.83963 2.1757 1.79617 3.567 1.14968 2.2253 0.776866 2.18714 2.5752 2.193 3.60684 4.24576 1.29958 3.72779 1.68473 1.11952 2.82016 3.34863 1.15477 3.59355 1.74221 3.84969 2.18165 1.86022 1.68818 1.45585 4.05983 3.21423 1.34005
internal_count=55363 16975 14668 11964 2704 6855 1592 5263 1025 5109 3497 603 1679 2845 1074 890 678 1500 1612 989 630 1794 587 870 781 1997 1709 875 372 1283
shrinkage=0.05


Tree=3
num_leaves=31
num_cat=0
split_feature=0 1 50 11 4 110 100 35 191 191 29 110 198 96 29 10 13 211 122 204 50 171 176 193 33 154 22 47 57 35
split_gain=8093.45 1346.91 566.878 455.794 233.591 216.477 117.569 110.163 106.22 97.5894 151.507 95.0299 105.269 93.5477 89.8705 89.7784 88.492 77.7489 95.921 65.1004 63.606 68.2445 60.3518 58.3737 58.207 54.0165 52.5664 52.2562 51.7561 50.171
threshold=1.0000000180025095e-35 -0.91065814235093479 -1.4170994886392203 -0.41982882860011467 -0.090746668192894744 -0.16943813513021058 0.060246824173914679 -1.8731116729107897 0.94136557574691515 0.97899950060972329 1.0000000180025095e-35 -0.16945357306312159 1.5296238387180312 -0.22574695150654664 1.0000000180025095e-35 0.57756374041963854 0.60831817897374008 1.3682748382665098 0.93739226493109895 -0.11533530531029991 -2.1738231218197517 0.14014364273714813 1.6272867995306932 0.2704431464461538 -1.2466232952269836 0.49459219206058475 0.22658931524633466 -0.33807782450502472 -1.7755715740810951 -1.0162464403235327
decision_type=2 2 2 2 2 2 2 2 2 2 2 2 2 2 2 2 2 2 2 2 2 2 2 2 2 2 2 2 2 2
left_child=-1 -2 5 11 9 7 19 -3 16 13 -11 12 23 -5 27 -13 25 18 -7 22 -9 -22 28 -4 -20 29 -23 -10 -6 -8
right_child=1 2 3 4 6 17 8 20 14 10 -12 15 -14 -15 -16 -17 -18 -19 24 -21 21 26 -24 -25 -26 -27 -28 -29 -30 -31
leaf_value=-0.054264885446233126 -0.05339708006131258 0.20514140887843504 0.0077005419739489961 0.099306543701569591 0.27527492380181479 0.043438712096816878 0.1172817602573971 0.13928677811565851 -0.031967286651118414 0.027322894913616742 0.17764220268094907 -0.01184957428331785 0.14849381162444197 0.032854859565436649 0.17776598851469161 0.093724954352001205 0.15647357059787645 0.18782190445243596 0.22933638989267169 0.0047318781131379271 0.01063614081926887 0.052408927684212826 0.042752372232319084 0.075744795498391679 0.073460573835760531 0.10615076838837345 0.18620526730501943 0.11158458539626277 0.15108265206203358 0.042789856493413117
leaf_count=38388 2307 136 764 680 60 196 244 212 80 298 302 1626 202 2053 490 236 307 1367 128 71 439 169 104 547 73 702 110 265 1537 1270
internal_value=0 1.63016 1.90539 1.583 1.93612 2.97376 2.31362 1.86774 1.97364 1.27742 2.33475 0.562069 1.13342 1.00773 2.84509 0.0501687 1.6497 3.48678 2.38051 2.89272 1.46003 0.990756 2.99804 0.760089 3.62274 1.43169 2.15237 1.60412 3.13033 1.10488
internal_count=55363 16975 14668 11838 8463 2830 5130 1066 3358 3333 600 3375 1513 2733 835 1862 2523 1764 397 1772 930 718 1701 1311 201 2216 279 345 1597 1514
shrinkage=0.05


Tree=4
num_leaves=31
num_cat=0
split_feature=0 19 2 56 193 214 2 22 19 37 203 166 215 110 100 122 192 193 140 78 10 55 22 137 15 94 102 203 11 210
split_gain=7195.65 1116.87 582.142 269.35 180.239 174.303 152.392 139.055 116.937 95.8604 94.1221 78.1947 74.1168 70.1559 68.5838 66.2568 65.3517 64.9822 55.0164 53.7059 52.6747 52.6588 50.669 75.0596 49.74 49.6975 49.2104 50.1531 44.6749 44.9737
threshold=1.0000000180025095e-35 -0.80667764274738241 1.0000000180025095e-35 -1.4702319638831931 0.59342176155057946 1.0000000180025095e-35 0.80103311955548828 0.22658931524633466 0.51200874202430446 -0.64923594366978243 -0.32022166449904915 0.31740100584660785 0.2427270815522998 -0.16943871465636781 -1.2806363352983534 0.9418425715610842 -0.42490393348452998 0.3509546587772861 0.43743071726875421 1.1114582517844094 0.28459772996083804 0.52133105809728342 1.0000000180025095e-35 0.94308849956858709 -1.0635499346966266 1.274928103013744 0.14222096551216326 -0.43302191872058643 -0.41982882860011467 1.9039151560013123
decision_type=2 2 2 2 2 2 2 2 2 2 2 2 2 2 2 2 2 2 2 2 2 2 2 2 2 2 2 2 2 2
left_child=-1 -2 3 9 7 16 8 14 20 -3 21 17 19 -11 26 18 -6 24 -9 -10 -4 25 23 -13 -8 -7 27 -5 -16 -30
right_child=1 2 6 4 5 10 11 15 12 13 -12 22 -14 -15 28 -17 -18 -19 -20 -21 -22 -23 -24 -25 -26 -27 -28 -29 29 -31
leaf_value=-0.054039620336260433 -0.052010509100775038 0.15940392491499483 0.19038740275536373 0.062552402555060851 -0.018617907992996913 0.16065047878458558 0.18301874028134735 0.034563305265735665 0.090433949722652507 0.03561067594256536 0.020888719980274442 0.17160449555459326 0.052373507598397831 0.11325686854324989 -0.014102234389051864 0.1319379855028627 0.066826164423629861 0.1575219007427312 0.091045913652460522 0.158279786482835 0.12069438343371153 -0.00057268830493458053 0.19970134355765598 -3.5889419537028397e-05 0.076049735677133301 0.0054201152478993812 -0.017226274731925378 0.1904612942148729 0.011723852921014716 0.076506921055240346
leaf_count=38388 2327 457 263 300 373 642 101 1128 1265 392 160 180 951 571 1594 273 540 541 561 233 773 48 568 75 539 45 132 103 1538 302
internal_value=0 1.46222 1.69524 1.21069 0.958236 1.72836 2.38089 0.674899 2.02178 2.2499 2.51195 2.96578 1.68077 1.7407 0.307896 1.30236 0.727107 2.50766 1.07988 2.0575 2.78461 2.87258 3.58419 2.5316 1.87004 3.04432 1.36467 1.90906 0.137557 0.462048
internal_count=55363 16975 14648 9159 7739 1808 5489 5931 3485 1420 895 2004 2449 963 3969 1962 913 1181 1689 1498 1036 735 823 255 640 687 535 403 3434 1840
shrinkage=0.05


Tree=5
num_leaves=31
num_cat=0
split_feature=0 19 192 4 193 48 152 22 215 11 37 96 193 133 185 110 84 74 49 220 14 49 27 109 203 21 5 4 220 160
split_gain=6584.88 941.465 366.914 334.676 124.86 114.577 108.753 93.4912 75.1782 74.2399 73.0324 70.7652 67.9439 62.7971 56.1696 54.2206 54.7082 49.7875 63.2824 58.9133 49.7416 46.6056 43.8915 41.6512 51.9757 40.3591 44.8878 41.1966 40.2065 38.3881
threshold=1.0000000180025095e-35 -0.80667764274738241 1.7794473382532678 -0.090746668192894744 0.49363722310157004 0.21332696540979348 -0.38055898838686725 0.53274477123067798 -0.31753450950478662 -0.26201899393532496 -0.30103082023642086 -0.32954999423192971 -0.11532823117135522 0.38689185695923412 -0.054538880714707721 -0.1694110047204789 1.646010058120525 1.0000000180025095e-35 -0.037561302578393747 -0.71275560974023666 0.99531189581599988 0.11455758157796679 0.59287696446032589 -0.15605715578088755 -0.36283509387162988 0.57067151673166039 -1.0430447750623395 0.62126440509735648 1.0000000180025095e-35 0.1455010020184235
decision_type=2 2 2 2 2 2 2 2 2 2 2 2 2 2 2 2 2 2 2 2 2 2 2 2 2 2 2 2 2 2
left_child=-1 -2 3 4 9 17 29 11 -8 -3 -10 -5 23 -12 -11 21 -17 18 -6 -19 -16 28 25 -13 -25 26 -9 -27 -14 -4
right_child=1 2 6 7 5 -7 8 22 10 14 13 12 15 -15 20 16 -18 19 -20 -21 -22 -23 -24 24 -26 27 -28 -29 -30 -31
leaf_value=-0.053827113113277758 -0.051368196135732708 -0.00086334527696615634 0.086769633232714499 0.10276193176178657 0.12050044855421596 0.00353200239245884 0.15672313014587747 0.066773468031335617 0.14498981786921006 0.022596091525361853 0.038203635442591387 0.037854305199975735 0.091353544990460264 0.12655207493605763 0.050975511128877576 0.033647877881059295 0.16073661445869114 0.15469170258525416 0.013934505781638983 0.066551079219852691 0.13738999940165372 0.12398582532970293 0.17657382632435165 0.044051527206850891 0.21987685840102361 0.035419708701923396 0.14563004829946602 0.11448337707525671 0.010791678249681557 0.0044445360108889432
leaf_count=38363 2293 2063 517 1326 196 467 895 173 386 1432 337 1621 503 229 604 603 64 287 297 227 194 608 168 87 59 240 567 248 167 142
internal_value=0 1.348 1.54539 1.31104 0.747614 1.44006 2.38992 1.72037 2.66121 0.45232 2.15923 1.53848 1.32709 1.51706 0.821631 1.66893 0.981756 1.89837 1.18465 2.40836 1.45566 1.97626 2.33189 0.894775 2.38485 2.14201 2.54163 1.53494 1.45445 1.39445
internal_count=55363 17000 14707 12201 5767 1474 2506 6434 1847 4293 952 5038 3712 566 2230 1945 667 1007 493 514 798 1278 1396 1767 146 1228 740 488 670 659
shrinkage=0.05


Tree=6
num_leaves=31
num_cat=0
split_feature=0 19 2 4 56 45 49 27 214 110 2 19 2 198 19 5 8 122 96 30 13 8 3 53 27 194 36 90 18 14
split_gain=5934.11 802.471 394.322 184.896 139.347 95.8327 92.4094 78.5305 66.4853 66.4484 64.8073 83.089 62.7566 56.5448 53.5055 50.633 60.0421 48.6446 48.1556 44.9211 43.7836 49.3514 41.9573 39.1293 39.0767 39.0644 37.3304 36.9342 35.8723 36.4368
threshold=1.0000000180025095e-35 -0.80667764274738241 1.0000000180025095e-35 1.0000000180025095e-35 -1.3063229542700492 1.1094084325403351 0.92136533425537293 0.57474462871525234 -0.2297991868123164 -0.16943981468287 -1.2481938785879443 0.58714756736742058 1.3599132099582414 1.0000000180025095e-35 0.66228639271053658 -0.53266545563068857 0.52916853562346511 0.93739226493109895 -0.53459304159071408 0.28968260398993967 -0.64656842387894342 -0.58924484380512665 -0.40415618360761463 0.19544445781220826 -1.1765953533505229 -0.047810185574929463 -0.80862119923880138 -1.1232631940532676 0.13877555206744738 1.5440378520611349
decision_type=2 2 2 2 2 2 2 2 2 2 2 2 2 2 2 2 2 2 2 2 2 2 2 2 2 2 2 2 2 2
left_child=-1 -2 3 4 8 7 9 12 -3 13 22 15 14 25 18 16 17 -12 -4 24 21 -16 -5 -8 -10 27 -26 -6 -17 -30
right_child=1 2 5 10 6 -7 23 -9 19 -11 11 -13 -14 -15 20 28 -18 -19 -20 -21 -22 -23 -24 -25 26 -27 -28 -29 29 -31
leaf_value=-0.053626560104778398 -0.051053816574268968 0.11360153285767234 0.1290221226770866 0.0019089103663329048 0.080478265461362566 0.13208470939472142 0.11789638626266752 0.14005347080962083 0.17968159366386705 -0.0048032376627657313 0.06648099982905474 0.031083718418086471 0.13111232023521199 0.062537175430625369 0.019582781130864268 0.14844838665759127 -0.014752453085536285 0.14965598293122248 0.08082121175433099 0.19009492297143593 0.053895368064181742 0.16605799722481793 0.065156751324345133 -0.0064700596018959309 0.12294344777016393 0.042947033109105345 0.009393941360801782 -0.02320303861308104 0.089499308498776298 0.17733668832953531
leaf_count=38363 2293 383 436 345 93 798 252 391 29 2311 565 428 391 809 69 339 136 157 1625 35 1704 139 520 76 54 572 427 714 817 92
internal_value=0 1.22822 1.39897 1.00946 0.661362 1.92029 0.416345 1.76033 1.54577 0.290199 1.48735 1.69478 1.64932 0.661453 1.5443 1.91148 1.4053 1.70278 1.83866 0.889549 1.21641 2.42178 0.820325 1.87113 0.679078 0.255344 0.482907 -0.207336 2.24798 1.96934
internal_count=55363 17000 14707 9154 5755 5553 4827 4755 928 4499 3399 2534 4364 2188 3973 2106 858 722 2061 545 1912 208 865 328 510 1379 481 807 1248 909
shrinkage=0.05


Tree=7
num_leaves=31
num_cat=0
split_feature=0 1 2 78 53 4 2 19 18 37 13 90 193 166 110 28 25 107 154 152 203 15 99 19 169 27 6 2 156 20
split_gain=5373.78 693.521 326.01 127.736 118.649 102.496 97.5004 85.836 71.0716 69.6528 59.8488 57.8001 57.7886 54.8276 53.7877 49.0621 48.3144 71.7405 48.2438 45.6194 45.1527 40.7236 40.0206 39.3845 45.7803 41.2223 39.26 37.1651 35.2785 35.037
threshold=1.0000000180025095e-35 -1.0020870269830087 -0.31672706125001976 1.0045370119954509 -1.4353326421202046 1.0000000180025095e-35 0.80103311955548828 0.66228639271053658 0.022436957236675527 -0.5804759505175453 0.1900226446895128 -1.1508284561953974 0.59342176155057946 0.24279390184888794 -0.16939706926279038 -0.56494544017595205 -0.97308262751175378 -0.62875318457798446 -1.2209904230104789 0.70214407736629958 -0.44388416542340109 0.40860775143382433 0.79876946995329512 0.8125640433967688 0.28787609565663824 0.2722110090491433 -0.62902137495022081 -1.9095353188978705 0.65484568899948437 0.63147188560074385
decision_type=2 2 2 2 2 2 2 2 2 2 2 2 2 2 2 2 2 2 2 2 2 2 2 2 2 2 2 2 2 2
left_child=-1 -2 4 6 9 8 7 11 10 -3 16 -4 15 -14 19 -13 17 -6 -5 20 -7 -9 -19 24 25 -8 -12 -18 -11 -10
right_child=1 2 3 18 5 14 23 21 29 28 26 12 13 -15 -16 -17 27 22 -20 -21 -22 -23 -24 -25 -26 -27 -28 -29 -30 -31
leaf_value=-0.053437200919399533 -0.052415062111726932 0.12003799501234239 0.12851910516350543 0.052893860906727055 0.26385381258559198 0.078689056118369849 0.043385586417474621 0.015936381210712277 -0.025512111096883634 0.032263264373031716 0.031218599735975502 0.081082711608647384 0.12554177533159105 0.05104390241885956 0.017214810931045026 0.039293666461265267 -0.028973865293459695 0.020278371478124932 0.1186993149269388 0.12172632261102317 0.025196963322436629 0.059827605552602463 0.15593253485136344 0.069863094274243448 0.1450273829111533 0.11231544059570656 0.16460122570884772 0.024667774424243796 0.092607156643240707 0.031478516266396646
leaf_count=38363 2252 344 271 207 41 677 210 866 1135 482 86 854 388 265 580 1278 425 248 1291 238 505 688 66 524 395 433 111 1607 210 323
internal_value=0 1.1247 1.27221 1.61394 0.801337 0.616184 1.43424 1.23191 0.3054 1.55345 0.616748 1.48339 1.36315 1.98648 1.09855 1.13032 0.471665 1.54088 2.21941 1.36474 1.14939 0.711591 1.00741 1.96651 2.24398 1.82805 2.17148 0.285469 1.06505 -0.24358
internal_count=55363 17000 14748 7670 7078 6042 6172 4610 4042 1036 2584 3056 2785 653 2000 2132 2387 355 1498 1420 1182 1554 314 1562 1038 643 197 2032 692 1458
shrinkage=0.05


Tree=8
num_leaves=31
num_cat=0
split_feature=0 1 2 192 4 192 45 18 2 19 37 49 122 2 154 23 27 16 88 32 108 198 13 14 9 211 19 108 13 2
split_gain=4888.95 603.436 269.273 122.123 123.609 96.794 71.5346 79.9329 65.504 66.8861 56.0681 55.411 54.173 49.428 47.8457 45.0288 43.2502 40.4896 39.5982 41.9106 38.8972 37.1721 36.0203 35.2831 41.6244 32.5271 30.1501 33.9118 36.8824 29.704
threshold=1.0000000180025095e-35 -1.0706586904570641 -0.13043369778243658 1.7794473382532678 0.26525886845223018 1.8545526080822936 -0.057907034148249194 -1.1059970663427172 0.80103311955548828 0.73742521805365269 -0.26014192081775994 0.99838755408137891 0.93957543422128065 -1.0619005151203593 -0.38306279494143664 -0.23969539499599068 -0.86821793011558424 0.31909502339987 -0.81191981505935262 -0.54302537388785332 -0.16940594342403589 1.2971096496698704 -0.92543211340176301 1.7315961273121518 0.76405839683729215 1.2746128104676755 0.8125640433967688 -0.16949046566477821 0.46888633421233128 -1.4344872420555292
decision_type=2 2 2 2 2 2 2 2 2 2 2 2 2 2 2 2 2 2 2 2 2 2 2 2 2 2 2 2 2 2
left_child=-1 -2 3 4 6 8 7 -3 9 18 -5 -8 -12 -9 -7 -15 -17 -18 -4 21 23 -20 -11 24 29 -21 27 28 -10 -6
right_child=1 2 5 10 20 14 11 13 26 22 12 -13 -14 15 -16 16 17 -19 19 25 -22 -23 -24 -25 -26 -27 -28 -29 -30 -31
leaf_value=-0.053258350229015955 -0.052560152356326696 0.16206620872180821 0.092700361357533526 0.10175864336024071 0.022709994408187023 0.057003213221951045 -0.00045614881546525627 0.0061976642155995108 0.06119772842946726 0.14037278077262785 0.022744517308788341 0.090852749788058407 0.097159487503503061 0.0068292179030109441 0.1135021222663188 -0.0095729883431930028 0.13906323056151218 0.058511388683604726 0.065059657816890687 0.027739733251310475 0.11468457941712365 0.12665188304246441 0.021284019819778621 0.22436237575189066 -0.00022159166982136516 0.077557626012947189 0.063559290223692513 0.12850765255959262 0.12077131495883962 0.070575610538359257
leaf_count=38363 2237 105 679 504 313 293 3188 836 435 47 477 143 200 271 981 104 203 283 853 903 196 167 905 20 250 296 520 380 224 987
internal_value=0 1.03523 1.16496 0.796312 0.623047 1.51297 0.361106 0.81862 1.34932 1.15937 1.48785 0.0824739 0.986188 0.663282 2.06079 1.12244 1.54609 1.87618 1.3499 1.16951 1.20205 1.54592 0.543746 1.06169 1.0159 0.82232 1.76412 1.99835 1.66331 1.19968
internal_count=55363 17000 14763 8080 6899 6683 5133 1802 5409 3850 1181 3331 677 1697 1274 861 590 486 2898 2219 1766 1020 952 1570 1550 1199 1559 1039 659 1300
shrinkage=0.05


Tree=9
num_leaves=31
num_cat=0
split_feature=0 1 2 192 13 17 45 193 68 5 139 198 193 173 2 140 90 110 193 18 166 30 119 6 16 15 169 27 110 10
split_gain=4466.05 529.546 225.633 104.852 97.6094 88.6615 85.528 63.0196 72.9254 55.6377 51.3854 58.5696 45.2995 44.8039 43.4827 42.2815 41.8936 40.1545 39.9714 59.0607 42.6696 42.3227 39.0373 48.4756 39.9197 36.8857 35.1325 39.471 32.2815 30.9561
threshold=1.0000000180025095e-35 -1.0020870269830087 -0.13043369778243658 1.7794473382532678 0.1900226446895128 -0.14728794110623392 1.1401272606110873 0.59342176155057946 0.46392432287059332 -1.0840407224856559 0.70939520924556909 1.5296238387180312 2.4772046369430898 0.30949093648088494 0.80103311955548828 0.45781069144799968 -0.82004531048983587 -0.16939479408602492 0.46286255236495971 -1.0521151567137654 -0.63990701532898087 -0.21441734203277171 1.4435980468204341 0.25981161682008364 0.38264939498782807 -0.80710341201459324 0.2811138829853958 0.14647554645353145 -0.16932532607091691 -0.15485128572736095
decision_type=2 2 2 2 2 2 2 2 2 2 2 2 2 2 2 2 2 2 2 2 2 2 2 2 2 2 2 2 2 2
left_child=-1 -2 3 4 10 9 7 14 12 -6 11 18 -9 -13 16 -5 -4 -11 -3 20 -20 -21 23 -7 -25 -16 -27 -28 -12 -22
right_child=1 2 6 15 5 22 -8 8 -10 17 28 13 -14 -15 25 -17 -18 -19 19 21 29 -23 -24 24 -26 26 27 -29 -30 -31
leaf_value=-0.053089355311495737 -0.051964316796004606 -0.00075830460167020076 0.083631912837419331 0.078395890643778068 0.01069183675119945 0.01634483315413484 0.10289817094587016 0.097540081153090166 -0.006185612815873336 0.11671043100265066 -0.021266090073079322 0.10536822333903667 0.035773103686076911 -0.022221736814226321 0.10850954104173294 0.0181465027896353 0.04017844714721025 0.038846483175266233 0.24643761763697591 -0.0066096016894202012 0.19990566422114497 0.061961040405531465 -0.021531474885597583 0.09477010265479642 0.037202364744379775 0.041335638399227687 0.02799329901356103 0.11526564084544569 0.15838187883618382 0.0086472817069405249
leaf_count=38363 2252 1663 397 946 160 990 736 1217 161 492 1064 202 211 66 315 235 2697 164 36 444 26 308 260 341 594 570 120 246 26 61
internal_value=0 0.95734 1.0733 0.73832 0.57856 0.932128 1.38491 1.27144 1.65739 1.66258 0.246343 0.450232 1.7969 1.56449 1.10105 1.36835 0.927176 1.98909 0.28502 0.765593 2.60667 0.464464 0.630611 0.759706 1.20059 1.47723 1.22393 1.79868 -0.34191 1.37958
internal_count=55363 17000 14748 8078 6897 3001 6670 5934 1589 816 3896 2806 1428 268 4345 1181 3094 656 2538 875 123 752 2185 1925 935 1251 936 366 1090 87
shrinkage=0.05


end of trees

feature importances:
Column_2=19
Column_193=16
Column_110=11
Column_0=10
Column_19=10
Column_4=9
Column_166=9
Column_192=9
Column_27=8
Column_37=8
Column_22=7
Column_1=6
Column_13=6
Column_203=6
Column_96=5
Column_137=5
Column_198=5
Column_10=4
Column_11=4
Column_14=4
Column_18=4
Column_32=4
Column_45=4
Column_49=4
Column_50=4
Column_122=4
Column_191=4
Column_220=4
Column_5=3
Column_15=3
Column_29=3
Column_30=3
Column_35=3
Column_56=3
Column_90=3
Column_152=3
Column_154=3
Column_156=3
Column_169=3
Column_183=3
Column_214=3
Column_215=3
Column_6=2
Column_8=2
Column_16=2
Column_33=2
Column_48=2
Column_53=2
Column_55=2
Column_78=2
Column_88=2
Column_100=2
Column_108=2
Column_140=2
Column_171=2
Column_185=2
Column_211=2
Column_3=1
Column_7=1
Column_9=1
Column_17=1
Column_20=1
Column_21=1
Column_23=1
Column_25=1
Column_26=1
Column_28=1
Column_36=1
Column_41=1
Column_47=1
Column_52=1
Column_57=1
Column_68=1
Column_70=1
Column_74=1
Column_84=1
Column_94=1
Column_99=1
Column_102=1
Column_107=1
Column_109=1
Column_119=1
Column_129=1
Column_133=1
Column_139=1
Column_160=1
Column_173=1
Column_176=1
Column_194=1
Column_204=1
Column_210=1
Column_213=1

parameters:
[boosting: gbdt]
[objective: binary]
[metric: auc]
[tree_learner: serial]
[device_type: cpu]
[data: ]
[valid: ]
[num_iterations: 100]
[learning_rate: 0.05]
[num_leaves: 31]
[num_threads: 0]
[max_depth: -1]
[min_data_in_leaf: 20]
[min_sum_hessian_in_leaf: 0.001]
[bagging_fraction: 0.8]
[bagging_freq: 5]
[bagging_seed: 3]
[feature_fraction: 0.9]
[feature_fraction_seed: 2]
[early_stopping_round: 0]
[max_delta_step: 0]
[lambda_l1: 0]
[lambda_l2: 0]
[min_gain_to_split: 0]
[drop_rate: 0.1]
[max_drop: 50]
[skip_drop: 0.5]
[xgboost_dart_mode: 0]
[uniform_drop: 0]
[drop_seed: 4]
[top_rate: 0.2]
[other_rate: 0.1]
[min_data_per_group: 100]
[max_cat_threshold: 32]
[cat_l2: 10]
[cat_smooth: 10]
[max_cat_to_onehot: 4]
[top_k: 20]
[monotone_constraints: ]
[feature_contri: ]
[forcedsplits_filename: ]
[refit_decay_rate: 0.9]
[verbosity: 0]
[max_bin: 255]
[min_data_in_bin: 3]
[bin_construct_sample_cnt: 200000]
[histogram_pool_size: -1]
[data_random_seed: 1]
[output_model: LightGBM_model.txt]
[snapshot_freq: -1]
[input_model: ]
[output_result: LightGBM_predict_result.txt]
[initscore_filename: ]
[valid_data_initscores: ]
[pre_partition: 0]
[enable_bundle: 1]
[max_conflict_rate: 0]
[is_enable_sparse: 1]
[sparse_threshold: 0.8]
[use_missing: 1]
[zero_as_missing: 0]
[two_round: 0]
[save_binary: 0]
[enable_load_from_binary_file: 1]
[header: 0]
[label_column: ]
[weight_column: ]
[group_column: ]
[ignore_column: ]
[categorical_feature: ]
[predict_raw_score: 0]
[predict_leaf_index: 0]
[predict_contrib: 0]
[num_iteration_predict: -1]
[pred_early_stop: 0]
[pred_early_stop_freq: 10]
[pred_early_stop_margin: 10]
[convert_model_language: ]
[convert_model: gbdt_prediction.cpp]
[num_class: 1]
[is_unbalance: 0]
[scale_pos_weight: 1]
[sigmoid: 1]
[boost_from_average: 1]
[reg_sqrt: 0]
[alpha: 0.9]
[fair_c: 1]
[poisson_max_delta_step: 0.7]
[tweedie_variance_power: 1.5]
[max_position: 20]
[label_gain: ]
[metric_freq: 1]
[is_provide_training_metric: 0]
[eval_at: ]
[num_machines: 1]
[local_listen_port: 12400]
[time_out: 120]
[machine_list_filename: ]
[machines: ]
[gpu_platform_id: -1]
[gpu_device_id: -1]
[gpu_use_dp: 0]

end of parameters

pandas_categorical:null
