tree
version=v2
num_class=1
num_tree_per_iteration=1
label_index=0
max_feature_idx=221
objective=binary sigmoid:1
feature_names=Column_0 Column_1 Column_2 Column_3 Column_4 Column_5 Column_6 Column_7 Column_8 Column_9 Column_10 Column_11 Column_12 Column_13 Column_14 Column_15 Column_16 Column_17 Column_18 Column_19 Column_20 Column_21 Column_22 Column_23 Column_24 Column_25 Column_26 Column_27 Column_28 Column_29 Column_30 Column_31 Column_32 Column_33 Column_34 Column_35 Column_36 Column_37 Column_38 Column_39 Column_40 Column_41 Column_42 Column_43 Column_44 Column_45 Column_46 Column_47 Column_48 Column_49 Column_50 Column_51 Column_52 Column_53 Column_54 Column_55 Column_56 Column_57 Column_58 Column_59 Column_60 Column_61 Column_62 Column_63 Column_64 Column_65 Column_66 Column_67 Column_68 Column_69 Column_70 Column_71 Column_72 Column_73 Column_74 Column_75 Column_76 Column_77 Column_78 Column_79 Column_80 Column_81 Column_82 Column_83 Column_84 Column_85 Column_86 Column_87 Column_88 Column_89 Column_90 Column_91 Column_92 Column_93 Column_94 Column_95 Column_96 Column_97 Column_98 Column_99 Column_100 Column_101 Column_102 Column_103 Column_104 Column_105 Column_106 Column_107 Column_108 Column_109 Column_110 Column_111 Column_112 Column_113 Column_114 Column_115 Column_116 Column_117 Column_118 Column_119 Column_120 Column_121 Column_122 Column_123 Column_124 Column_125 Column_126 Column_127 Column_128 Column_129 Column_130 Column_131 Column_132 Column_133 Column_134 Column_135 Column_136 Column_137 Column_138 Column_139 Column_140 Column_141 Column_142 Column_143 Column_144 Column_145 Column_146 Column_147 Column_148 Column_149 Column_150 Column_151 Column_152 Column_153 Column_154 Column_155 Column_156 Column_157 Column_158 Column_159 Column_160 Column_161 Column_162 Column_163 Column_164 Column_165 Column_166 Column_167 Column_168 Column_169 Column_170 Column_171 Column_172 Column_173 Column_174 Column_175 Column_176 Column_177 Column_178 Column_179 Column_180 Column_181 Column_182 Column_183 Column_184 Column_185 Column_186 Column_187 Column_188 Column_189 Column_190 Column_191 Column_192 Column_193 Column_194 Column_195 Column_196 Column_197 Column_198 Column_199 Column_200 Column_201 Column_202 Column_203 Column_204 Column_205 Column_206 Column_207 Column_208 Column_209 Column_210 Column_211 Column_212 Column_213 Column_214 Column_215 Column_216 Column_217 Column_218 Column_219 Column_220 Column_221
feature_infos=[-0.66660875247738538:1.5001303182467962] [-8.1373495651444507:2.1483999559638751] [-4.3779223848433686:3.5022868898354638] [-18.3378899910428:2.4683466340335181] [-21.006071946094025:2.3122907041617031] [-1.5306203201835575:2.2176656539858106] [-3.704427823718234:2.9296717858440502] [-11.33328930330789:3.3327372274079341] [-32.949333493316509:3.1967908628766741] [-32.949333493316509:3.1967908628766741] [-7.8085883089635022:2.2254975492503859] [-17.857815559059315:2.6574629473632743] [-16.154677933969346:2.3278782216874796] [-16.75094649382174:1.2357614804000838] [-2.4141643017562262:2.3747111850986409] [-7.2192292900460542:3.7283902127272288] [-17.149592605366319:2.6216147303155917] [-21.919086265114885:2.1543706740913064] [-22.928143756125145:1.4178250799485699] [-8.0162479344193702:1.9772158362150674] [-16.855134997564029:3.0459406184226583] [-16.751161469856712:2.0554000584392345] [-18.066199179818138:1.6808277311719626] [-3.9349436019709647:2.9096876804993599] [-10.672993608503525:3.1526934472406216] [-21.919345892938015:2.1544994146159753] [-21.919345892938015:2.1544994146159753] [-23.093185885727191:1.2328068181819845] [-1.1223668761062424:1.1073188676149188] [-0.66607975216140092:1.5013217212429022] [-1.4276977719348267:2.4388725195675964] [-3.7339224587129647:2.6134676966095269] [-2.9333835772572456:30.738083536821851] [-3.2240314874052038:3.7395230753322357] [-3.0107868314937201:5.5036072309208528] [-2.7554529958926564:5.0622567270790064] [-2.8627245369341248:5.9895516457584925] [-2.1035592156724578:5.4440007390364666] [-2.439311592218945:6.4961290953426314] [-0.091844095574195123:19.335774290239243] [-0.096846540421042751:15.908454454662612] [-3.5701620149651059:2.8602233026090316] [-3.6582572113326766:5.8456517743051313] [-3.1910959187662264:6.0568323661026087] [-3.1626975811144029:3.0399524218211993] [-6.8314086237491161:2.0463326886982789] [-6.6116783572813711:2.7162279261549238] [-3.1612055651960338:3.2402944662779714] [-6.9540744460281667:1.3814547608352965] [-6.2137805548762:2.8767669400880846] [-4.1835623931379313:3.1775259843700216] [-17.341399251298675:8.7230571606464284] [-11.709000218721146:6.5520309276518844] [-4.3162531396685555:2.9576648069356257] [-19.461655168101299:7.2912605113563309] [-10.718021113794704:7.6989122827212864] [-4.3378097615384519:3.1710033283402765] [-29.848785705962118:7.5821664698792421] [-10.406289572985967:12.664635756425689] [-0.1016213817339663:11.41435712073152] [-0.10177466855901741:10.494669039957287] [-0.1017900994900776:10.242705311387812] [-0.10161047228073418:10.922990842372261] [-0.10180551999248409:10.336855814478364] [-0.10178991261402853:10.154142265703605] [-9.0480637097973435:0.11052088403369582] [-5.7744860869573627:0.76494676201893819] [-4.6508233305113427:3.9042955077865451] [-4.7187908457011858:0.58445258260482058] [-4.5049497963332179:0.66126577227518302] [-0.68295662091716136:6.1710874199026033] [-2.4476711803183493:0.69054277751308146] [-0.10226932654337859:10.673634049358457] [-0.10216402654250893:18.69761171503168] [-0.66607975216140092:1.5013217212429022] [-4.0781784118824929:3.3494536349374924] [-3.9693243678267822:3.4626004382807323] [-2.0818381492726425:0.48034473782190129] [-7.6178972538425223:2.1577589554334802] [-2.4314036821788423:3.9795245683031988] [-5.0799128330172385:4.2623087736864296] [-0.79884044617905581:4.0279277065680184] [-7.2333437878441611:3.2455778806281272] [-3.1443604326545813:4.186891853879235] [-5.6858364107702997:4.2072279869636704] [-0.52016408218964638:6.2148041211564937] [-9.3151707018632308:2.8811095507757751] [-3.6014162835634682:3.5611037512296666] [-6.2700827141289066:4.0458991528761441] [-0.28279635261732206:5.0972937392178164] [-8.662362389925887:3.1355698069058526] [-7.0880826653985336:4.6484953859834564] [-10.477474413751544:2.9385839724424128] [-0.1295643374413655:9.20221697204056] [-8.8230069605063903:2.8030087600518909] [-6.8332561014637863:5.2220151322466988] [-10.65410818826966:2.2354103763218478] [-0.075024267435498629:19.257015617697089] [-7.1244608462586214:2.930651519198654] [-5.3272732129221492:5.8312901258638039] [-10.261640801786969:1.3153093004371346] [-0.075024267435498629:19.257015617697089] [-5.6516418655572265:4.1563989679254281] [-1.9036436205506075:1.0427013873784325] [-3.4966098933334102:0.97215110836560514] [-2.0818381492726425:0.48034473782190129] [-4.4723525701470432:2.9523377832601034] [-0.62875459976834014:5.8228498777125743] [-0.16951214721918931:6.0371464129997943] [-11.856344899081309:6.6787881845114683] [-0.16945877538357945:6.0144872774481071] [-0.15006849221302435:6.6651328233416161] [-1.277606152242625:6.1881106234629408] [-1.2758958495365469:7.8673105106881929] [-1.3357207380538252:5.8379017845715788] [-1.3792785476561273:6.6801335697118978] [-1.4511708470498714:5.3979418025579866] [-1.4525090356808039:5.4091177628599914] [-1.4410713443777885:5.4020961443245028] [-0.8373282301468622:3.7245243237877301] [-0.8373282301468622:3.7245243237877301] [-0.93279238885690607:1.7589154291316091] [-16.327026513774559:0.94427001154107626] [-0.8042438349988047:1.2434039982432521] [-0.92162719139468396:1.6457895505757636] [-1.0718306989114765:0.95328427024766316] [-0.8042438349988047:1.2434039982432521] [-0.94685030923256519:2.4118717549905777] [-21.781871932197234:1.0046942543638322] [-0.61104769915145141:1.6365334512979559] [-0.94685030923256519:2.4118717549905777] [-1.0704957256166425:1.0182197390296877] [-0.61104769915145141:1.6365334512979559] [-0.8170823857920857:3.0356351910121377] [-19.021694532829837:0.93004684957823858] [-3.9413568349338162:0.25371973203151788] [-0.88451506301203331:3.1626939528956446] [-1.0747066465714266:0.94849389299503661] [-3.9413568349338162:0.25371973203151788] [-0.94384898942080653:2.3626394079119444] [-29.626062135405803:0.73527183385737171] [-3.1627520551874007:0.61032159777108652] [-0.94384898942080653:2.3626394079119444] [-2.2615726671784357:0.75413548551546672] [-4.4830422748853014:0.2230628083973589] [-0.87127802699619505:2.696461672366659] [-33.556890642632979:1.0123715899824175] [-4.4830422748853014:0.2230628083973589] [-0.87127802699619505:2.696461672366659] [-1.0712079117805187:1.0469549635197524] [-4.4830422748853014:0.2230628083973589] [-1.8067506342172019:2.9912316478976062] [-1.9118430295931415:1.8992717618580164] [-1.8067506342172019:2.9912316478976062] [-1.9205572492784737:1.8960090261444531] [-1.5111333309842157:1.5128766690856248] [-3.1318933078269287:1.6234214318393119] [-1.5111333309842157:1.5128766690856248] [-3.117944663610039:1.6326387941388369] [-1.4263918730068408:2.6008266363258801] [-1.9634392084837797:2.3503021311798178] [-0.55130499253235632:1.8138780049979495] [-1.4263918730068408:2.6008266363258801] [-1.973829982526998:2.3713772283229022] [-0.55130499253235632:1.8138780049979495] [-1.4206617637659598:3.4520643913297331] [-3.6268878175510171:1.4481930158361789] [-0.052203318478102716:19.155870338385903] [-1.4206617637659598:3.4520643913297331] [-3.6315023685943375:1.4455669049730073] [-0.052203318478102716:19.155870338385903] [-1.7001181143570678:2.0747777976310671] [-2.5048237092435142:2.0846293737008259] [-1.685450570010546:2.1188564888800894] [-2.5145815918112366:2.0898058150751075] [-1.6620257282860385:1.9462816711653821] [-1.6670233199762163:2.2071965809054905] [-1.6677228885423441:1.9637530306291706] [-1.6651015054116645:2.2116006933887133] [-1.5628762971615442:2.1819499782743712] [-3.0232416076494895:1.4588366781695392] [-1.5579458717633909:2.1670976801159565] [-3.0371214218938904:1.4538673738333805] [-2.7020719700973843:2.7883127390654354] [-4.451685978868829:3.120319059708637] [-1.1031320467218639:5.4024255546286559] [-4.409381140663835:2.6601794711714413] [-1.7956448156806879:51.190860473488605] [-2.1079276286554558:50.15716884149856] [-2.4953916867778356:15.812807846954497] [-2.228401813873357:17.576124232994928] [-1.0737600373616221:5.1358375650016965] [-0.46435160352861143:4.7889951691261397] [-1.6972706491371117:7.1676996545664524] [-0.67171715002408616:4.6300379799311004] [-0.92959384112349952:6.7551729440657029] [-0.71386664222565832:20.745630488746553] [-0.53695219878104072:22.113736355758888] [-0.59177749361012211:13.823520941903196] [-0.58929704455688647:12.008879098942929] [-0.15848450683974269:7.3097602550332539] [-0.25647954680256857:14.484234674557596] [-0.30829475767904813:12.146661425244011] [-0.82193212855328657:5.4280375127585563] [-0.36507621616375635:5.7559500627768525] [-0.27742281544591552:130.52742241847764] [-0.2990558137639201:6.2192219769898927] [-0.69873316768804572:9.1962289767549272] [-0.19590748780300213:11.432281551668028] [-0.35808856240688597:43.216260174803971] [-0.76161798725428875:4.7785097222573532] [-0.70870172322394753:5.4425308574131899] [-0.25536515823175648:7.2615098783922845] [-1.54177440430132:3.2799154464095306] [-1.7634471474289564:1.7420339054090779] [-1.6061361689360858:1.7554333774064332] [-1.6284609488246546:1.6311977216973568] [-1.7051918991390833:1.7045974427029313] [-1.6477049919006694:1.5757784320517594] [-1.000898191564308:5.0469826506922084] [-0.96150021110547323:3.5159026134687834] [-1.1571805501597223:4.8462156238828333]
tree_sizes=2501 2497 2516 2520 2526 2522 2528 2535 2530 2520

Tree=0
num_leaves=31
num_cat=0
split_feature=0 19 192 2 48 22 193 193 29 185 68 37 214 100 110 32 166 13 193 193 183 109 152 152 2 34 215 99 159 175
split_gain=12723.1 2906.21 2275.94 1299.01 1009.11 498.329 366.627 316.927 438.416 311.241 257.596 242.954 191.776 190.559 181.937 178.41 172.596 152.904 134.965 115.412 109.792 109.664 105.258 97.555 96.8191 96.2566 93.2686 90.0225 89.1253 92.6381
threshold=1.0000000180025095e-35 -0.66391387459546192 1.7794473382532678 1.0000000180025095e-35 0.90555084418046183 0.22658931524633466 0.49363722310157004 0.59342176155057946 1.0000000180025095e-35 -0.43973637026835682 0.46392432287059332 0.034325926653093648 -0.2297991868123164 -0.22686237056180722 -0.16939490677166663 -0.63817294037570749 -1.3540677879336762 0.32945448945092254 0.59342176155057946 1.8959053008071169 -1.121972112876749 -0.15605596274116765 -0.97274058098197125 0.70214407736629958 -0.68931378818518962 2.2480680169794272 -1.4380576916189596 -0.235480742510006 1.5940220089927002 1.0000000180025095e-35
decision_type=2 2 2 2 2 2 2 2 2 2 2 2 2 2 2 2 2 2 2 2 2 2 2 2 2 2 2 2 2 2
left_child=-1 -2 3 5 11 7 13 24 20 -10 15 16 21 -5 18 -8 -4 -15 23 -17 -9 -6 -18 -7 -3 -24 -16 -25 29 -13
right_child=1 2 4 6 12 14 10 8 9 -11 -12 28 -14 17 26 19 22 -19 -20 -21 -22 -23 25 27 -26 -27 -28 -29 -30 -31
leaf_value=-2.3523461489024911 -2.3500672058011678 -2.2907818735422136 -2.2662889165525182 -2.0493368247873458 -1.8423839296010027 -2.1741179060050198 -1.9308678582488477 -2.1746192560058075 -1.8679415214480033 -2.1593896982427858 -2.2723814639755249 -2.2722802428553646 -2.000272860521636 -2.1941585034836093 -1.9856675067156493 -2.024457200328543 -2.1178546298817591 -2.1059095289912046 -2.0432884362021531 -2.207407652313063 -2.3093175327275048 -2.1166241646395214 -1.9161924485833093 -1.9491263747465688 -2.234558316915098 -2.2770460705962647 -2.2405432625530803 -2.1562157123839478 -1.8403056164201512 -2.1215757596654985
leaf_count=38312 2379 2593 84 666 971 1112 596 322 194 256 113 316 373 1310 46 474 149 1078 460 133 420 46 308 124 1432 24 722 129 20 201
internal_value=0 2.50377 3.0808 2.46244 6.10314 1.61452 3.97783 0.996385 2.56846 5.27153 5.5094 3.62247 8.06983 3.31787 2.85817 5.98006 5.21135 2.85998 3.45461 4.65552 0.929124 8.85063 6.01306 2.90665 0.530818 7.10083 1.44085 4.85205 1.95074 1.67261
internal_count=55363 17051 14672 12180 2492 7810 4370 5217 1192 450 1316 1102 1390 3054 2593 1203 565 2388 1825 607 742 1017 481 1365 4025 332 768 253 537 517
shrinkage=1


Tree=1
num_leaves=31
num_cat=0
split_feature=0 19 192 2 45 4 4 27 193 119 37 137 90 193 193 32 214 33 140 3 152 203 2 110 13 191 2 27 185 26
split_gain=10750.6 2163.86 1224.04 866.593 391.155 375.265 270.849 185.974 165.459 163.671 150.06 160.444 134.667 134.643 121.463 135.245 120.242 111.208 107.485 103.331 95.2035 85.4384 82.6574 82.583 83.795 81.9394 79.2279 78.3699 76.6486 74.529
threshold=1.0000000180025095e-35 -0.66391387459546192 1.7794473382532678 -0.50302042471760466 0.95581429218657388 -0.090746668192894744 0.26525886845223018 0.57417865999163775 0.55611913035468818 -0.62997129587710787 -0.54308858668446025 0.92115752623905367 -1.068132669769007 0.17065860799714458 0.54399577521602305 -0.74588716658837273 1.0000000180025095e-35 -1.8031684836162361 0.49234418739910396 -0.40415618360761463 0.15190298247616416 -0.41463965506966921 0.80103311955548828 -0.16939602826210054 0.1900226446895128 1.237305075804451 0.98732648302307335 0.14552442091315426 0.15945972459287525 -0.92561651385047117
decision_type=2 2 2 2 2 2 2 2 2 2 2 2 2 2 2 2 2 2 2 2 2 2 2 2 2 2 2 2 2 2
left_child=-1 -2 3 6 18 14 8 12 -3 28 -6 -12 -7 17 22 -16 26 -14 19 -4 -19 -18 -5 24 -8 -17 -15 -26 -10 -30
right_child=1 2 4 5 10 7 23 -9 9 -11 11 -13 13 16 15 25 21 20 -20 -21 -22 -23 -24 -25 27 -27 -28 -29 29 -31
leaf_value=-0.054757283367913627 -0.052388257974351073 0.013717721451016421 0.084531191926161708 0.056918380506387881 0.32439026930775361 0.25621142200547958 0.038445285732139602 0.27289233176563449 0.20989286675768654 0.020205760767481672 0.1271505598088892 0.26570614046893104 0.35063428526285101 0.10861532731224421 0.23565139451179645 0.14055507376688817 0.25385661613176097 0.077196298167789432 0.019604612587912656 0.21066159081808131 0.1545269932188793 0.15274249146529564 0.14658433610861757 0.055590415016879516 0.3395182703998183 -0.014874599405683496 0.25597654859605579 0.15569135918910854 0.34350909862174922 0.034937157924972304
leaf_count=38312 2379 3233 268 1628 612 341 153 418 273 461 279 715 54 601 261 277 614 945 179 439 769 321 329 378 69 144 110 618 24 159
internal_value=0 2.12529 2.5588 2.10174 4.4938 2.8524 1.07058 3.44818 0.651165 1.86733 5.33321 4.60763 3.21782 3.02182 1.88022 3.027 3.67276 2.3889 2.73171 3.27011 2.24374 4.40277 1.44998 2.43975 3.00203 1.83266 2.6504 3.48495 3.17704 1.51095
internal_count=55363 17051 14672 12180 2492 6812 5368 4173 4150 917 1606 994 3755 3414 2639 682 1646 1768 886 707 1714 935 1957 1218 840 421 711 687 456 183
shrinkage=0.05


Tree=2
num_leaves=31
num_cat=0
split_feature=0 19 50 4 110 193 29 96 35 191 29 185 192 96 37 213 22 192 11 50 166 193 210 57 176 76 36 156 156 181
split_gain=9302.5 1693.45 854.053 594.072 290.453 216.558 229.692 206.308 176.645 151.2 183.498 131.599 130.566 127.242 113.184 104.042 94.9529 93.4542 84.8935 83.2625 78.2103 77.5197 71.6344 69.5721 59.1519 58.1653 58.0382 56.9576 54.673 53.6184
threshold=1.0000000180025095e-35 -0.66391387459546192 -1.4078879285569286 -0.090746668192894744 -0.16943819147303144 0.49363722310157004 1.0000000180025095e-35 -0.27828923239223385 -1.8731116729107897 0.86609772602129931 1.0000000180025095e-35 -0.43973637026835682 -0.17290293543822152 -0.41797480840540707 -0.6545164852383526 0.25090515557835558 0.53274477123067798 -0.41415250968820189 -0.26201899393532496 -2.1691168821164304 0.86481939542025354 0.17065860799714458 0.2488455572478345 -0.65711682779101366 1.6272867995306932 0.86534579606962081 0.49553462723141789 -2.8477132923181721 -3.1152400365967279 1.3338642540376817
decision_type=2 2 2 2 2 2 2 2 2 2 2 2 2 2 2 2 2 2 2 2 2 2 2 2 2 2 2 2 2 2
left_child=-1 -2 4 5 8 13 11 24 -3 16 17 -7 -8 25 -6 -16 28 -11 -15 -10 -18 -21 -20 -13 -5 29 -17 -24 -9 -4
right_child=1 2 3 7 14 6 12 9 19 10 -12 23 -14 18 15 26 20 -19 22 21 -22 -23 27 -25 -26 -27 -28 -29 -30 -31
leaf_value=-0.054503792102142817 -0.052039128586664554 0.27158712104241095 0.03460699148702797 0.17067101562155784 0.26369408351112489 -0.039840891228691548 0.21797462486349528 0.22068269102770308 0.17303565701069837 0.051333605604001423 0.19460529903803481 0.27344459396146453 0.061831164274613486 -0.011863828680587246 0.20510843222265704 0.054495188020631427 0.10902073994417508 0.3224527355069558 0.01853467103859064 0.027906931257401735 0.23800390590848367 0.13527033830344701 0.33182420901806686 0.07486338710910706 0.058490955298653204 0.14889171070832979 0.28440762792087776 0.077945245399781066 0.066774767966766166 0.18077627756290762
leaf_count=38312 2379 131 450 1708 542 325 373 48 206 450 704 46 174 1623 968 193 559 32 1236 489 139 230 21 503 116 278 28 531 2490 79
internal_value=0 1.85101 2.1939 1.79464 3.59492 1.00947 2.03797 2.43141 2.2907 2.05816 2.97669 0.936745 3.4488 0.613758 4.25261 3.76026 1.69612 1.41729 0.329891 1.79526 2.70401 1.28537 0.81421 1.85101 3.27386 1.78027 1.75669 1.78309 1.40724 1.13446
internal_count=55363 17051 14672 11885 2787 5639 1421 6246 1056 4422 1186 874 547 4218 1731 1189 3236 482 3411 925 698 719 1788 549 1824 807 221 552 2538 529
shrinkage=0.05


Tree=3
num_leaves=31
num_cat=0
split_feature=0 19 50 4 193 48 110 11 27 183 35 96 193 37 213 214 43 48 22 169 52 100 156 191 156 203 30 50 31 154
split_gain=8172.17 1368.26 598.725 448.026 209.193 208.218 190.859 138.859 134.45 117.328 112.731 97.0516 68.9958 67.0555 70.5547 64.796 88.4986 61.6978 60.0234 56.9293 53.8571 52.5895 67.967 52.1261 51.5818 50.5537 48.5041 52.9718 47.4433 45.0889
threshold=1.0000000180025095e-35 -0.66391387459546192 -1.4078879285569286 1.0000000180025095e-35 0.59342176155057946 0.21332696540979348 -0.16943819147303144 -0.26201899393532496 0.61371920395119706 -1.1461515671058735 -1.8731116729107897 -0.27828923239223385 0.28878360678413384 -0.68151219507553484 0.25090515557835558 1.0847562080019466 -0.17690725858333253 0.242169627025238 0.22658931524633466 -0.72330010578285409 -0.4520441868470359 -0.22686237056180722 -2.8477132923181721 1.3125729255300669 1.1667994787534293 4.1868169376023072 0.28826514504151163 -2.1691168821164304 0.49137750800657792 -0.087162466337215874
decision_type=2 2 2 2 2 2 2 2 2 2 2 2 2 2 2 2 2 2 2 2 2 2 2 2 2 2 2 2 2 2
left_child=-1 -2 6 4 7 15 10 -4 11 -9 -3 -5 20 -8 29 -6 -17 28 26 -20 -13 -11 -23 -24 -22 -7 27 -12 -14 -15
right_child=1 2 3 8 5 25 13 9 -10 21 18 12 17 14 -16 16 -18 -19 19 -21 24 22 23 -25 -26 -27 -28 -29 -30 -31
leaf_value=-0.054264885446233126 -0.05169889809657572 0.21307995559662449 0.0050148724557222664 0.13580559368529993 0.10180291896055545 -0.0066820295092928569 0.2120907153102336 0.0076617750755563555 0.19986270697716815 0.11950439461852649 0.12366732337607134 0.023128603252313914 0.14920058660898791 0.092853301461868765 0.078542446359005383 0.035534234002337864 0.20354969899863989 0.027481298920799493 0.059023470788567817 0.1768947114073674 0.075717976819993094 0.22950479967679632 0.049482592706309753 0.19651509954059831 0.17501926291589956 0.20380549936549938 0.20598803626498402 0.010532565326900717 0.092745253082290494 0.18011855888301903
leaf_count=38312 2379 131 2400 1403 698 466 525 855 308 517 109 438 681 118 226 79 297 172 160 192 1330 44 1391 59 127 26 41 423 594 862
internal_value=0 1.63906 1.91946 1.58952 1.03921 1.96275 3.01778 0.707813 2.2303 1.16221 1.99473 2.10067 1.81233 3.50657 3.15345 2.59637 3.46004 2.28274 1.59173 2.52138 1.41849 1.56629 1.25562 1.11901 1.69643 0.142126 0.975486 0.730651 2.4925 3.40897
internal_count=55363 17051 14672 11885 6832 1566 2787 5266 5053 2866 1056 4745 3342 1731 1206 1074 376 1447 925 352 1895 2011 1494 1450 1457 492 573 532 1275 980
shrinkage=0.05


Tree=4
num_leaves=31
num_cat=0
split_feature=0 1 2 2 50 50 19 22 29 198 28 137 29 214 37 7 18 43 14 32 43 92 215 191 78 86 35 96 78 22
split_gain=7261.71 1134.48 590.886 261.657 179.534 176.185 115.969 107.441 103.578 165.029 80.8318 78.8741 76.9431 75.4161 68.9326 66.0848 63.8438 63.8122 55.4026 54.9856 54.606 50.5396 50.2128 49.7096 49.6862 49.503 48.7425 45.2664 44.9458 44.8479
threshold=1.0000000180025095e-35 -1.0097061007023485 -0.68931378818518962 0.80103311955548828 -1.703544259974163 -1.4078879285569286 0.58714756736742058 0.53274477123067798 1.0000000180025095e-35 1.4714952914559911 -0.56494544017595205 0.92400582277521293 1.0000000180025095e-35 1.0000000180025095e-35 -0.60713280207225229 -1.0050976055089906 -1.1089201357587506 -1.927691880667588 -0.67641267904496882 -0.74588716658837273 2.6981650018988135 -0.94980466386222873 -0.093429873081952067 0.64029417684445133 -0.81312406441680463 1.0890556870159223 -1.8051664121769986 -0.30263809426609123 0.77542006959054555 0.22658931524633466
decision_type=2 2 2 2 2 2 2 2 2 2 2 2 2 2 2 2 2 2 2 2 2 2 2 2 2 2 2 2 2 2
left_child=-1 -2 4 5 14 12 10 8 17 16 13 25 28 24 -3 -12 -10 -6 -15 22 -11 -19 -8 -18 -7 -5 -14 -17 -4 -13
right_child=1 2 3 11 7 6 19 -9 9 20 15 29 26 18 -16 27 23 21 -20 -21 -22 -23 -24 -25 -26 -27 -28 -29 -30 -31
leaf_value=-0.054039620336260433 -0.053193254974401409 0.1621810866140877 0.074512801179094632 0.13358858521813108 0.12495263225368414 0.15360306852028885 0.10850622455300306 0.096931932309067478 0.20370303312128618 0.17946885133117604 0.12973881311487692 0.14283630277475903 0.23283085004453019 0.10250801785685232 0.073506871214742406 0.10111360207731811 -0.0016957488095116228 0.049326432215300489 0.18147788071281679 0.034367765276468912 -0.018951585686245963 -0.011938578660812608 0.045701672232297041 0.066089935622099985 0.063359633052960967 0.029843884722519472 0.058177276388808909 0.048304629304086064 0.15487464208383467 0.2075056826178186
leaf_count=38312 2312 223 144 1152 80 171 535 463 48 199 394 347 28 278 435 469 837 391 467 1330 38 2258 491 367 538 102 358 1226 953 417
internal_value=0 1.46999 1.70219 2.10075 0.862853 1.84291 1.59417 0.612607 0.441872 1.08002 1.92906 2.94809 2.61432 2.4451 2.12439 1.55198 0.564952 0.0558108 3.04598 1.09544 3.10181 -0.0438934 1.5785 0.420899 1.72949 2.51975 1.48643 1.28795 2.91902 3.60711
internal_count=55363 17051 14739 9400 5339 7382 5899 4681 4218 1489 3543 2018 1483 1454 658 2089 1252 2729 745 2356 237 2649 1026 1204 709 1254 386 1695 1097 764
shrinkage=0.05


Tree=5
num_leaves=31
num_cat=0
split_feature=0 1 192 22 193 74 194 198 166 11 13 134 58 163 215 183 156 37 48 57 110 108 108 41 5 220 3 156 4 50
split_gain=6314.71 920.838 413.47 304.41 185.035 180.5 103.905 94.4846 93.1732 92.9293 80.6631 85.8384 75.9051 72.444 67.7547 67.2896 65.3636 55.2726 55.1414 50.4707 49.0221 47.8965 47.7453 54.3275 46.8716 45.7199 43.8632 42.363 40.0298 39.6009
threshold=1.0000000180025095e-35 -1.0097061007023485 1.7794473382532678 0.22658931524633466 0.59342176155057946 1.0000000180025095e-35 0.13562606786655804 -0.33048967366725196 -0.25698380685874084 -0.10420915927053527 0.74775002373514987 0.92569320834263413 -0.53271559726318329 -0.63427545493366499 -0.20548219129336934 -1.582315949416204 0.98629950671006372 -0.48271533602348188 1.0497641522576837 -0.50798952828566979 -0.16940055715169974 5.9846305080361395 -0.1693825036101361 0.94014422732611413 0.83344188779796813 0.28222279572070924 -0.55942660618281137 -2.6962222443532093 1.1552727100650459 -2.323604932488085
decision_type=2 2 2 2 2 2 2 2 2 2 2 2 2 2 2 2 2 2 2 2 2 2 2 2 2 2 2 2 2 2
left_child=-1 -2 3 4 9 6 21 -7 13 29 11 12 20 17 -10 -11 19 -4 -16 -8 25 -6 23 28 26 -5 -17 -19 -14 -3
right_child=1 2 8 10 5 7 16 -9 14 15 -12 -13 22 -15 18 24 -18 27 -20 -21 -22 -23 -24 -25 -26 -27 -28 -29 -30 -31
leaf_value=-0.053827113113277758 -0.053246511417974263 0.20427830673061034 0.14975803499024568 0.13197251841905785 -0.0075090316965313614 0.035488305675730657 0.23598242474876813 0.1488034351678057 0.15432455124546748 -0.0036921363684377716 0.17166472253436346 0.16983173225658907 0.068666794108970378 0.015271035953686646 0.058752793141374042 -0.019098346113981868 -0.011030071703213795 0.185244012498506 0.12902808964746756 0.095409918926067913 0.055010446324910672 0.20085763416849317 0.12836782773837738 0.023125636848442148 0.091016944349605319 0.054786129939101584 0.051759174577246096 0.045979261118643214 0.16824638604327691 0.0031572654902442183
leaf_count=38273 2290 20 225 837 692 179 53 535 922 560 184 199 2196 267 305 229 94 38 447 243 297 21 234 579 591 177 1561 278 74 2763
internal_value=0 1.29293 1.48566 1.23819 0.842056 1.58967 0.761269 2.50874 2.37757 0.545691 1.76223 1.68576 1.60265 1.59924 2.67179 0.895057 1.87127 2.10091 2.11843 2.49239 2.13745 0.0105357 1.35611 1.25608 1.1024 2.39763 0.865774 1.3324 1.44416 0.10092
internal_count=55363 17090 14800 12318 7541 1817 1103 714 2482 5724 4777 4593 4394 808 1674 2941 390 541 752 296 1311 713 3083 2849 2381 1014 1790 316 2270 2783
shrinkage=0.05


Tree=6
num_leaves=31
num_cat=0
split_feature=0 10 2 56 4 45 2 2 37 110 19 198 140 17 14 166 88 210 27 215 27 92 78 94 173 27 13 138 90 67
split_gain=5705.69 790.644 398.131 184.657 137.008 112.373 85.5512 83.9393 83.3347 83.0609 81.2128 77.4612 62.4945 60.2252 87.3773 53.1066 48.9296 50.4162 43.7905 42.3945 45.0736 42.2245 38.9302 37.8643 37.0042 35.854 34.1465 32.6206 34.8226 37.5642
threshold=1.0000000180025095e-35 -0.788390283344515 1.0000000180025095e-35 -1.4679957047767278 -0.090746668192894744 1.1094084325403351 -1.4344872420555292 1.1736198464906566 -0.59583752598974937 -0.16944296988083721 0.73742521805365269 1.5296238387180312 0.4794798429979395 0.086069835350826351 -0.30415590128952635 1.0517865958000876 -0.69098722461508177 0.2488455572478345 0.57417865999163775 0.35477939976371714 -0.62348427817606589 -0.87695429128509217 1.1114582517844094 -1.4031513990118767 0.30949093648088494 -0.98713032205250262 0.74775002373514987 1.0000000180025095e-35 -1.7572642233222633 1.0000000180025095e-35
decision_type=2 2 2 2 2 2 2 2 2 2 2 2 2 2 2 2 2 2 2 2 2 2 2 2 2 2 2 2 2 2
left_child=-1 -2 3 8 9 7 -6 10 -3 11 12 16 18 14 26 22 -5 -18 27 20 25 -15 -10 -11 -13 -12 -8 -4 -29 -30
right_child=1 2 5 4 6 -7 13 -9 15 23 19 24 -14 21 -16 -17 17 -19 -20 -21 -22 -23 -24 -25 -26 -27 -28 28 29 -31
leaf_value=-0.053626560104778398 -0.050605339994056475 0.12707435705493822 0.013046225438349794 0.065847763208748633 0.013552944814287343 0.13278412984230428 0.05406366683684815 0.12460745524996059 0.016389222794734516 0.10168105258511069 0.013342718151351109 0.12308935317383939 0.13071365100548835 0.095261021896472661 0.1342093572607454 0.13041578749348423 -0.013812004279790568 0.051762254320973582 0.14205038740053369 0.018135224356014539 0.056406571161398335 0.037636681396045098 0.07596313051289344 -0.0086042497749055577 0.0058292061444564927 0.19954469169800895 0.1786910289947693 0.16473458296984567 0.097786553963417608 0.058737894356672926
leaf_count=38273 2351 495 158 462 776 803 749 725 371 73 28 226 510 276 489 135 885 414 158 500 687 1282 378 2099 71 74 39 70 733 1073
internal_value=0 1.18047 1.35185 0.963829 0.761797 1.8776 1.14148 1.70333 1.77781 0.360669 1.54616 0.783846 1.80401 1.35415 1.78903 1.28909 0.500812 0.172503 1.60425 0.988275 1.36803 0.981281 0.993415 -0.0880291 1.99954 3.06001 1.21969 1.48994 1.58355 1.50631
internal_count=55363 17090 14739 9220 7841 5519 3611 4716 1379 4230 3991 2058 2702 2835 1277 884 1761 1299 2192 1289 789 1558 749 2172 297 102 788 2034 1876 1806
shrinkage=0.05


Tree=7
num_leaves=31
num_cat=0
split_feature=0 1 2 78 50 193 2 19 68 22 193 4 69 5 38 30 78 95 21 37 32 47 215 166 19 21 4 183 18 107
split_gain=5179.81 685.242 328.982 130.285 121.487 122.948 101.543 86.2674 84.6362 81.3601 74.1451 64.5782 48.651 48.1871 47.3765 46.0127 53.7439 45.9436 45.6292 41.4103 41.2777 40.4528 39.7688 37.8069 36.7991 36.0706 35.9015 35.6544 35.6236 37.0342
threshold=1.0000000180025095e-35 -1.0097061007023485 -0.31672706125001976 1.0045370119954509 -2.0727394278605211 0.57477044595263371 0.80103311955548828 0.73742521805365269 0.46392432287059332 0.37966704323850625 1.8959053008071169 -0.090746668192894744 1.0000000180025095e-35 1.7207214309278005 0.91601966834935522 1.7258262385561765 -0.70620282462784789 1.1296019643467992 0.42926879847379606 0.086510102154257265 -0.56636345623393081 -1.3135937741827173 -0.31753450950478662 -0.40125417061337604 0.66228639271053658 1.1362823897631176 0.4432616367747933 -1.5263734848588244 0.052310850398428151 -0.62875156436005097
decision_type=2 2 2 2 2 2 2 2 2 2 2 2 2 2 2 2 2 2 2 2 2 2 2 2 2 2 2 2 2 2
left_child=-1 -2 4 6 14 9 7 11 10 12 27 23 19 -11 -3 26 -17 -12 20 -6 -13 -5 -9 -4 -8 -20 28 -7 29 -14
right_child=1 2 3 21 5 8 24 22 -10 13 17 18 15 -15 -16 16 -18 -19 25 -21 -22 -23 -24 -25 -26 -27 -28 -29 -30 -31
leaf_value=-0.053437200919399533 -0.052809242357547963 0.12747199502927356 0.073345987967798676 0.12233703296255322 0.11499008071157579 0.060330453440548971 0.12090258412530866 0.051773405523035623 -0.033870130745683708 0.050453611228031492 -0.016534879126865229 0.13244215497570896 0.056738371551191762 0.25184035599838644 0.043693421881097379 0.14696417057197952 0.0053379386110476018 0.11487685659774168 0.058435826037851496 0.017069706220521921 0.078699901391039676 0.080901654985947882 -0.0023545660097810577 0.024765114545767731 0.081434827494890852 0.13131201032859305 0.040404681046845949 0.10766871251494843 -0.025614159205163686 -0.0021215219928901676
leaf_count=38273 2290 262 482 934 118 468 583 463 216 936 260 396 311 22 153 99 155 57 1171 202 545 574 539 869 953 120 375 592 1335 1610
internal_value=0 1.08316 1.23045 1.57768 0.764767 0.649695 1.39325 1.18422 1.27751 0.402998 1.47084 1.37302 0.19956 1.10475 1.97963 0.0893895 1.34407 0.236673 1.62417 1.19907 2.04951 2.18378 0.476275 0.868368 1.9369 1.30885 -0.00276521 1.76565 -0.122197 0.160424
internal_count=55363 17090 14800 7629 7171 6756 6121 4585 1593 5163 1377 3583 4205 958 415 3885 254 317 2232 320 941 1508 1002 1351 1536 1291 3631 1060 3256 1921
shrinkage=0.05


Tree=8
num_leaves=31
num_cat=0
split_feature=0 1 2 50 49 4 192 37 27 110 2 191 219 166 2 53 81 19 19 119 135 92 83 5 104 172 9 16 184 211
split_gain=4723 598.369 270.833 135.371 101.15 95.1157 92.6619 64.436 63.7742 58.1793 54.9177 54.2136 69.5418 51.2868 51.231 49.4133 45.9081 45.3557 44.4686 42.7161 37.7028 41.3525 36.7378 35.4759 34.8837 35.5855 34.4972 34.236 33.5677 32.6842
threshold=1.0000000180025095e-35 -1.0097061007023485 1.0000000180025095e-35 -1.4929311691627001 0.98875977660312753 -0.090746668192894744 1.7917457295023052 -0.58499406095054651 0.57417865999163775 -0.16944356013896034 1.3599132099582414 0.94136557574691515 0.87884855670460948 0.98257277642870189 -1.4344872420555292 0.18137829284044571 0.69491180776581396 0.58714756736742058 0.8125640433967688 0.6141703097414174 1.0000000180025095e-35 -0.57561865926148359 -0.60951870376306905 -0.45422496018283481 1.0000000180025095e-35 -0.93740727096700494 -0.11980972842112096 -0.55755772117728342 -1.803671416640882 -0.37248879550822189
decision_type=2 2 2 2 2 2 2 2 2 2 2 2 2 2 2 2 2 2 2 2 2 2 2 2 2 2 2 2 2 2
left_child=-1 -2 3 7 5 9 8 -3 10 11 18 12 -5 -9 -7 29 -14 19 20 23 -4 28 -18 27 25 -23 -25 -16 -22 -6
right_child=1 2 6 4 15 14 -8 13 -10 -11 -12 -13 16 -15 17 -17 22 -19 -20 -21 21 24 -24 26 -26 -27 -28 -29 -30 -31
leaf_value=-0.053258350229015955 -0.052594701333145061 0.10413443644184346 0.0073705774074884827 -0.014198980235861356 0.13450759949950977 0.0083882042294639025 0.10487095324721601 0.037729663415363657 0.11334181985154226 -0.0093126223137891574 0.1082857840682304 0.067455537515280259 0.016607947100254813 0.10573438030510195 0.073353390534567964 -0.016341360155326761 0.023638168083976997 0.011898897202833839 0.029931448344958922 0.028026859731965295 -0.027181599243496488 0.016571449403726263 0.15187543764291356 0.12982660656283981 0.038517929843018786 0.082487464596233684 0.071743877604399861 0.012542422485099831 0.098344092291573967 0.050716556460819032
leaf_count=38273 2290 516 199 976 244 721 1120 788 370 2079 348 468 279 176 369 68 75 438 776 621 35 169 122 225 885 948 672 305 697 111
internal_value=0 0.998821 1.12927 0.814609 0.636261 0.545926 1.53856 1.45304 1.35716 0.200543 1.25557 0.563175 0.240958 1.05884 0.864487 1.84117 1.11348 1.028 1.15836 1.18562 1.30002 1.3731 2.1437 1.41068 1.16923 1.46492 1.75213 0.945311 1.85503 2.19284
internal_count=55363 17090 14800 9253 7773 7350 5547 1480 4427 3999 4057 1920 1452 964 3351 423 476 2630 3709 2192 2933 2734 197 1571 2002 1117 897 674 732 355
shrinkage=0.05


Tree=9
num_leaves=31
num_cat=0
split_feature=0 1 2 192 193 42 8 2 178 3 166 57 68 92 83 16 140 50 5 160 13 110 27 6 106 195 58 76 215 106
split_gain=4322.5 526.455 233.786 157.186 109.682 98.1185 82.4173 79.0482 59.0364 58.8696 54.2924 50.7085 57.5325 49.9186 61.1199 60.0132 48.1809 43.3195 40.9333 35.8573 35.6135 32.919 33.4522 32.3375 31.8887 31.1346 44.4005 34.6294 30.9168 30.889
threshold=1.0000000180025095e-35 -1.0097061007023485 -1.0619005151203593 1.7794473382532678 0.59342176155057946 -0.62129381366646041 -1.2643309059781951 0.80103311955548828 1.7043478375341954 -1.0252378739084007 -0.25698380685874084 0.75959251750975565 0.46392432287059332 -1.0441790101553361 -0.82497897731297554 -0.16821357695146913 0.38021318545461197 -2.0727394278605211 -1.0663383688184411 -0.38536514601089039 0.1900226446895128 -0.16945015493199045 0.14552442091315426 1.6896558107842232 1.4235905357472047 0.49442045133967533 0.60996865163234715 1.0506095016868746 -0.20548219129336934 1.5519619216503997
decision_type=2 2 2 2 2 2 2 2 2 2 2 2 2 2 2 2 2 2 2 2 2 2 2 2 2 2 2 2 2 2
left_child=-1 -2 6 4 7 8 16 13 -6 -8 19 12 -7 14 -4 18 -3 -17 24 -5 -20 29 -23 -19 -15 27 -27 -16 -12 -9
right_child=1 2 3 10 5 11 9 21 -10 -11 28 -13 -14 15 25 17 -18 23 20 -21 -22 22 -24 -25 -26 26 -28 -29 -30 -31
leaf_value=-0.053089355311495737 -0.052388433262145519 0.15435122068235418 0.0038047255829662566 0.071227362937793914 0.10738378947301802 0.070377999925700083 -0.017624336007680052 0.038531108669810958 0.002357429401629679 0.02441354741016892 0.11330542719667328 -0.027834413884908711 -0.0064793026381593267 0.00012411001183789314 0.086306392689898967 0.09594732085362051 0.048652791004709255 0.012001517423307347 0.033453672218954088 -0.0043084724442371712 0.082414205840192309 0.034627065128120839 0.11235711238878046 0.076412850210032454 0.12690867859205127 0.013033558335953996 0.12435105381208618 0.17963113956507276 0.080185404174779651 0.10799226659296338
leaf_count=38273 2290 85 205 496 920 896 1189 477 92 1964 756 154 266 338 216 105 620 2982 501 133 667 116 366 164 36 167 89 86 598 116
internal_value=0 0.924941 1.0414 1.21131 1.04443 1.48736 0.405477 0.855539 1.99155 0.197944 1.76296 0.990818 1.15677 0.710702 1.313 0.598523 1.27597 0.375637 1.03084 1.15515 1.28422 1.44942 1.91505 0.307334 0.268341 1.73898 1.07238 2.28029 1.9882 1.05706
internal_count=55363 17090 14800 10942 8959 2328 3858 6631 1012 3153 1983 1316 1162 5556 763 4793 705 3251 1542 629 1168 1075 482 3146 374 558 256 302 1354 593
shrinkage=0.05


end of trees

feature importances:
Column_2=17
Column_193=15
Column_0=10
Column_19=10
Column_50=10
Column_4=9
Column_37=9
Column_27=8
Column_110=8
Column_22=7
Column_166=7
Column_192=7
Column_156=6
Column_215=6
Column_1=5
Column_13=5
Column_29=5
Column_78=5
Column_191=5
Column_5=4
Column_32=4
Column_48=4
Column_92=4
Column_96=4
Column_183=4
Column_214=4
Column_3=3
Column_11=3
Column_35=3
Column_43=3
Column_57=3
Column_68=3
Column_140=3
Column_152=3
Column_185=3
Column_198=3
Column_14=2
Column_16=2
Column_18=2
Column_21=2
Column_30=2
Column_45=2
Column_58=2
Column_76=2
Column_83=2
Column_90=2
Column_100=2
Column_106=2
Column_108=2
Column_119=2
Column_137=2
Column_203=2
Column_210=2
Column_213=2
Column_6=1
Column_7=1
Column_8=1
Column_9=1
Column_10=1
Column_17=1
Column_26=1
Column_28=1
Column_31=1
Column_33=1
Column_34=1
Column_36=1
Column_38=1
Column_41=1
Column_42=1
Column_47=1
Column_49=1
Column_52=1
Column_53=1
Column_56=1
Column_67=1
Column_69=1
Column_74=1
Column_81=1
Column_86=1
Column_88=1
Column_94=1
Column_95=1
Column_99=1
Column_104=1
Column_107=1
Column_109=1
Column_134=1
Column_135=1
Column_138=1
Column_154=1
Column_159=1
Column_160=1
Column_163=1
Column_169=1
Column_172=1
Column_173=1
Column_175=1
Column_176=1
Column_178=1
Column_181=1
Column_184=1
Column_194=1
Column_195=1
Column_211=1
Column_219=1
Column_220=1

parameters:
[boosting: gbdt]
[objective: binary]
[metric: auc]
[tree_learner: serial]
[device_type: cpu]
[data: ]
[valid: ]
[num_iterations: 100]
[learning_rate: 0.05]
[num_leaves: 31]
[num_threads: 0]
[max_depth: -1]
[min_data_in_leaf: 20]
[min_sum_hessian_in_leaf: 0.001]
[bagging_fraction: 0.8]
[bagging_freq: 5]
[bagging_seed: 3]
[feature_fraction: 0.9]
[feature_fraction_seed: 2]
[early_stopping_round: 0]
[max_delta_step: 0]
[lambda_l1: 0]
[lambda_l2: 0]
[min_gain_to_split: 0]
[drop_rate: 0.1]
[max_drop: 50]
[skip_drop: 0.5]
[xgboost_dart_mode: 0]
[uniform_drop: 0]
[drop_seed: 4]
[top_rate: 0.2]
[other_rate: 0.1]
[min_data_per_group: 100]
[max_cat_threshold: 32]
[cat_l2: 10]
[cat_smooth: 10]
[max_cat_to_onehot: 4]
[top_k: 20]
[monotone_constraints: ]
[feature_contri: ]
[forcedsplits_filename: ]
[refit_decay_rate: 0.9]
[verbosity: 0]
[max_bin: 255]
[min_data_in_bin: 3]
[bin_construct_sample_cnt: 200000]
[histogram_pool_size: -1]
[data_random_seed: 1]
[output_model: LightGBM_model.txt]
[snapshot_freq: -1]
[input_model: ]
[output_result: LightGBM_predict_result.txt]
[initscore_filename: ]
[valid_data_initscores: ]
[pre_partition: 0]
[enable_bundle: 1]
[max_conflict_rate: 0]
[is_enable_sparse: 1]
[sparse_threshold: 0.8]
[use_missing: 1]
[zero_as_missing: 0]
[two_round: 0]
[save_binary: 0]
[enable_load_from_binary_file: 1]
[header: 0]
[label_column: ]
[weight_column: ]
[group_column: ]
[ignore_column: ]
[categorical_feature: ]
[predict_raw_score: 0]
[predict_leaf_index: 0]
[predict_contrib: 0]
[num_iteration_predict: -1]
[pred_early_stop: 0]
[pred_early_stop_freq: 10]
[pred_early_stop_margin: 10]
[convert_model_language: ]
[convert_model: gbdt_prediction.cpp]
[num_class: 1]
[is_unbalance: 0]
[scale_pos_weight: 1]
[sigmoid: 1]
[boost_from_average: 1]
[reg_sqrt: 0]
[alpha: 0.9]
[fair_c: 1]
[poisson_max_delta_step: 0.7]
[tweedie_variance_power: 1.5]
[max_position: 20]
[label_gain: ]
[metric_freq: 1]
[is_provide_training_metric: 0]
[eval_at: ]
[num_machines: 1]
[local_listen_port: 12400]
[time_out: 120]
[machine_list_filename: ]
[machines: ]
[gpu_platform_id: -1]
[gpu_device_id: -1]
[gpu_use_dp: 0]

end of parameters

pandas_categorical:null
