tree
version=v2
num_class=1
num_tree_per_iteration=1
label_index=0
max_feature_idx=221
objective=binary sigmoid:1
feature_names=Column_0 Column_1 Column_2 Column_3 Column_4 Column_5 Column_6 Column_7 Column_8 Column_9 Column_10 Column_11 Column_12 Column_13 Column_14 Column_15 Column_16 Column_17 Column_18 Column_19 Column_20 Column_21 Column_22 Column_23 Column_24 Column_25 Column_26 Column_27 Column_28 Column_29 Column_30 Column_31 Column_32 Column_33 Column_34 Column_35 Column_36 Column_37 Column_38 Column_39 Column_40 Column_41 Column_42 Column_43 Column_44 Column_45 Column_46 Column_47 Column_48 Column_49 Column_50 Column_51 Column_52 Column_53 Column_54 Column_55 Column_56 Column_57 Column_58 Column_59 Column_60 Column_61 Column_62 Column_63 Column_64 Column_65 Column_66 Column_67 Column_68 Column_69 Column_70 Column_71 Column_72 Column_73 Column_74 Column_75 Column_76 Column_77 Column_78 Column_79 Column_80 Column_81 Column_82 Column_83 Column_84 Column_85 Column_86 Column_87 Column_88 Column_89 Column_90 Column_91 Column_92 Column_93 Column_94 Column_95 Column_96 Column_97 Column_98 Column_99 Column_100 Column_101 Column_102 Column_103 Column_104 Column_105 Column_106 Column_107 Column_108 Column_109 Column_110 Column_111 Column_112 Column_113 Column_114 Column_115 Column_116 Column_117 Column_118 Column_119 Column_120 Column_121 Column_122 Column_123 Column_124 Column_125 Column_126 Column_127 Column_128 Column_129 Column_130 Column_131 Column_132 Column_133 Column_134 Column_135 Column_136 Column_137 Column_138 Column_139 Column_140 Column_141 Column_142 Column_143 Column_144 Column_145 Column_146 Column_147 Column_148 Column_149 Column_150 Column_151 Column_152 Column_153 Column_154 Column_155 Column_156 Column_157 Column_158 Column_159 Column_160 Column_161 Column_162 Column_163 Column_164 Column_165 Column_166 Column_167 Column_168 Column_169 Column_170 Column_171 Column_172 Column_173 Column_174 Column_175 Column_176 Column_177 Column_178 Column_179 Column_180 Column_181 Column_182 Column_183 Column_184 Column_185 Column_186 Column_187 Column_188 Column_189 Column_190 Column_191 Column_192 Column_193 Column_194 Column_195 Column_196 Column_197 Column_198 Column_199 Column_200 Column_201 Column_202 Column_203 Column_204 Column_205 Column_206 Column_207 Column_208 Column_209 Column_210 Column_211 Column_212 Column_213 Column_214 Column_215 Column_216 Column_217 Column_218 Column_219 Column_220 Column_221
feature_infos=[-0.66660875247738538:1.5001303182467962] [-8.1373495651444507:2.1483999559638751] [-4.3406637121498495:3.5022868898354638] [-18.3378899910428:2.4683466340335181] [-21.006071946094025:2.3122907041617031] [-1.5306203201835575:2.2893964263834321] [-3.704427823718234:2.9296717858440502] [-11.33328930330789:3.3327372274079341] [-32.949333493316509:3.1967908628766741] [-32.949333493316509:3.1967908628766741] [-7.8085883089635022:2.2254975492503859] [-17.857815559059315:2.6574629473632743] [-16.154677933969346:2.3278782216874796] [-16.75094649382174:1.2357614804000838] [-2.4141643017562262:2.3747111850986409] [-7.2192292900460542:3.7283902127272288] [-17.149592605366319:2.6216147303155917] [-21.919086265114885:2.1543706740913064] [-22.928143756125145:1.4178250799485699] [-8.0162479344193702:1.9772158362150674] [-16.855134997564029:3.0459406184226583] [-16.751161469856712:2.0554000584392345] [-18.066199179818138:1.527750003179791] [-3.9349436019709647:2.9096876804993599] [-10.672993608503525:3.1526934472406216] [-21.919345892938015:2.1544994146159753] [-21.919345892938015:2.1544994146159753] [-23.093185885727191:1.2328068181819845] [-1.1223668761062424:1.1073188676149188] [-0.66607975216140092:1.5013217212429022] [-1.4276977719348267:2.4388725195675964] [-3.7339224587129647:2.6134676966095269] [-2.9333835772572456:30.738083536821851] [-3.2240314874052038:3.7006316463016193] [-3.0107868314937201:5.5036072309208528] [-2.7554529958926564:5.0622567270790064] [-2.8627245369341248:5.9895516457584925] [-2.1035592156724578:5.4440007390364666] [-2.439311592218945:6.4961290953426314] [-0.091844095574195123:19.335774290239243] [-0.096846540421042751:15.908454454662612] [-3.5701620149651059:2.8602233026090316] [-3.6582572113326766:5.8456517743051313] [-3.1910959187662264:6.0568323661026087] [-3.1626975811144029:3.0399524218211993] [-6.8314086237491161:2.0463326886982789] [-6.6116783572813711:2.7162279261549238] [-3.1612055651960338:3.2402944662779714] [-6.9540744460281667:1.3814547608352965] [-6.2137805548762:2.8767669400880846] [-4.1835623931379313:3.1775259843700216] [-17.341399251298675:8.7230571606464284] [-11.709000218721146:6.5520309276518844] [-4.3162531396685555:2.9576648069356257] [-19.461655168101299:6.9650054420946521] [-10.718021113794704:7.7223520161350336] [-4.3378097615384519:3.1710033283402765] [-29.848785705962118:7.5821664698792421] [-10.406289572985967:12.642911721275581] [-0.1016213817339663:11.41435712073152] [-0.10177466855901741:10.494669039957287] [-0.1017900994900776:10.242705311387812] [-0.10161047228073418:10.922990842372261] [-0.10180551999248409:10.336855814478364] [-0.10178991261402853:10.154142265703605] [-9.0480637097973435:0.11052088403369582] [-5.7744860869573627:0.76494676201893819] [-4.6508233305113427:3.9042955077865451] [-4.7187908457011858:0.58445258260482058] [-4.5049497963332179:0.66126577227518302] [-0.68295662091716136:6.1710874199026033] [-2.4476711803183493:0.69054277751308146] [-0.10226932654337859:10.673634049358457] [-0.10216402654250893:18.69761171503168] [-0.66607975216140092:1.5013217212429022] [-4.0781784118824929:3.6061979176883869] [-3.9693243678267822:3.4626004382807323] [-2.0818381492726425:0.48034473782190129] [-7.6178972538425223:2.1577589554334802] [-2.4314036821788423:3.9795245683031988] [-5.0799128330172385:4.2623087736864296] [-0.79884044617905581:3.2953396446333167] [-7.2333437878441611:3.2455778806281272] [-3.1443604326545813:4.186891853879235] [-5.6858364107702997:4.0040289328103356] [-0.52016408218964638:3.1503935886340004] [-9.3151707018632308:2.8811095507757751] [-3.6014162835634682:3.5611037512296666] [-6.2700827141289066:3.6917394237179226] [-0.28279635261732206:5.0972937392178164] [-8.662362389925887:3.1355698069058526] [-7.0880826653985336:4.6484953859834564] [-10.477474413751544:2.9385839724424128] [-0.1295643374413655:9.2881449767319229] [-8.8230069605063903:2.8030087600518909] [-6.8332561014637863:5.3802740450360851] [-10.65410818826966:2.2354103763218478] [-0.075024267435498629:19.257015617697089] [-7.1244608462586214:2.930651519198654] [-5.3272732129221492:5.8312901258638039] [-10.261640801786969:1.3153093004371346] [-0.075024267435498629:19.257015617697089] [-5.6516418655572265:4.1563989679254281] [-1.9036436205506075:1.0427013873784325] [-3.4966098933334102:0.97215110836560514] [-2.0818381492726425:0.48034473782190129] [-4.4723525701470432:2.9523377832601034] [-0.62875459976834014:5.8228498777125743] [-0.16951214721918931:6.0371464129997943] [-11.856344899081309:6.6787881845114683] [-0.16945877538357945:6.0144872774481071] [-0.15006849221302435:6.6651328233416161] [-1.277606152242625:6.1881106234629408] [-1.2758958495365469:7.8673105106881929] [-1.3357207380538252:5.8379017845715788] [-1.3792785476561273:6.6801335697118978] [-1.4511708470498714:5.3979418025579866] [-1.4525090356808039:5.4091177628599914] [-1.4410713443777885:5.4020961443245028] [-0.8373282301468622:3.7245243237877301] [-0.8373282301468622:3.7245243237877301] [-0.93279238885690607:1.7589154291316091] [-16.327026513774559:0.94427001154107626] [-0.8042438349988047:1.2434039982432521] [-0.92162719139468396:1.6457895505757636] [-1.0718306989114765:0.95328427024766316] [-0.8042438349988047:1.2434039982432521] [-0.94685030923256519:2.4118717549905777] [-21.781871932197234:1.0046942543638322] [-0.61104769915145141:1.6365334512979559] [-0.94685030923256519:2.4118717549905777] [-1.0704957256166425:1.0182197390296877] [-0.61104769915145141:1.6365334512979559] [-0.8170823857920857:3.0356351910121377] [-19.021694532829837:0.93004684957823858] [-3.9413568349338162:0.25371973203151788] [-0.88451506301203331:3.1626939528956446] [-1.0747066465714266:0.94849389299503661] [-3.9413568349338162:0.25371973203151788] [-0.94384898942080653:2.3626394079119444] [-29.626062135405803:0.73527183385737171] [-3.1627520551874007:0.61032159777108652] [-0.94384898942080653:2.3626394079119444] [-2.2615726671784357:0.75413548551546672] [-4.4830422748853014:0.2230628083973589] [-0.87127802699619505:2.696461672366659] [-33.556890642632979:1.0123715899824175] [-4.4830422748853014:0.2230628083973589] [-0.87127802699619505:2.696461672366659] [-1.0712079117805187:1.0469549635197524] [-4.4830422748853014:0.2230628083973589] [-1.8067506342172019:2.9912316478976062] [-1.9118430295931415:1.8992717618580164] [-1.8067506342172019:2.9912316478976062] [-1.9205572492784737:1.8960090261444531] [-1.5111333309842157:1.5128766690856248] [-3.1318933078269287:1.6234214318393119] [-1.5111333309842157:1.5128766690856248] [-3.117944663610039:1.6326387941388369] [-1.4263918730068408:2.6008266363258801] [-1.9634392084837797:2.3503021311798178] [-0.55130499253235632:1.8138780049979495] [-1.4263918730068408:2.6008266363258801] [-1.973829982526998:2.3713772283229022] [-0.55130499253235632:1.8138780049979495] [-1.4206617637659598:3.4520643913297331] [-3.6268878175510171:1.4481930158361789] [-0.052203318478102716:19.155870338385903] [-1.4206617637659598:3.4520643913297331] [-3.6315023685943375:1.4455669049730073] [-0.052203318478102716:19.155870338385903] [-1.7001181143570678:2.0747777976310671] [-2.5048237092435142:2.0846293737008259] [-1.685450570010546:2.1188564888800894] [-2.5145815918112366:2.0898058150751075] [-1.6620257282860385:1.9462816711653821] [-1.6670233199762163:2.2071965809054905] [-1.6677228885423441:1.9637530306291706] [-1.6651015054116645:2.2116006933887133] [-1.5628762971615442:2.1819499782743712] [-3.0232416076494895:1.4588366781695392] [-1.5579458717633909:2.1670976801159565] [-3.0371214218938904:1.4538673738333805] [-2.6977306589971497:2.7883127390654354] [-4.451685978868829:3.120319059708637] [-1.1031320467218639:5.4024255546286559] [-4.409381140663835:2.6601794711714413] [-1.7956448156806879:51.190860473488605] [-2.1079276286554558:50.15716884149856] [-2.4953916867778356:15.812807846954497] [-2.228401813873357:17.576124232994928] [-1.0737600373616221:5.1358375650016965] [-0.46435160352861143:4.7889951691261397] [-1.6972706491371117:6.9942424195055581] [-0.67171715002408616:4.6300379799311004] [-0.92959384112349952:6.7551729440657029] [-0.71386664222565832:20.745630488746553] [-0.53695219878104072:22.113736355758888] [-0.59177749361012211:6.4999052723587676] [-0.58929704455688647:12.008879098942929] [-0.15848450683974269:7.3097602550332539] [-0.25647954680256857:14.484234674557596] [-0.30829475767904813:12.146661425244011] [-0.82193212855328657:5.4280375127585563] [-0.36507621616375635:5.7559500627768525] [-0.27742281544591552:26.555487015009795] [-0.2990558137639201:6.2192219769898927] [-0.69873316768804572:9.1962289767549272] [-0.19590748780300213:11.432281551668028] [-0.35808856240688597:43.216260174803971] [-0.76161798725428875:4.7785097222573532] [-0.70870172322394753:5.4425308574131899] [-0.25536515823175648:7.2615098783922845] [-1.54177440430132:3.2799154464095306] [-1.7634471474289564:1.7420339054090779] [-1.6061361689360858:1.7554333774064332] [-1.6284609488246546:1.6311977216973568] [-1.7051918991390833:1.7045974427029313] [-1.6477049919006694:1.5757784320517594] [-1.000898191564308:5.0469826506922084] [-0.96150021110547323:3.5159026134687834] [-1.1571805501597223:4.8462156238828333]
tree_sizes=2505 2504 2529 2513 2514 2521 2519 2538 2537 2534

Tree=0
num_leaves=31
num_cat=0
split_feature=0 19 192 2 48 193 32 22 193 37 214 137 22 192 154 192 92 43 166 156 54 110 37 220 169 15 106 160 110 174
split_gain=12601 2872.43 2384.66 1262.3 1105.86 463.561 532.936 334.736 311.971 291.46 266.415 226.449 195.176 162.977 155.184 150.988 140.124 140.017 138.708 131.852 131.482 125.372 122.264 110.954 110.204 110.212 112.477 108.152 105.936 104.719
threshold=1.0000000180025095e-35 -0.68645552219839645 1.7794473382532678 1.0000000180025095e-35 0.9343935057959063 0.59342176155057946 -0.77820143445217227 0.22658931524633466 0.49363722310157004 -0.2842008588734915 1.0000000180025095e-35 0.92115752623905367 0.22658931524633466 0.72750947041109626 -0.9830829057222048 -0.41415250968820189 -0.10374692779594293 -0.73526559751831122 -0.24395003567841914 -2.8477132923181721 0.52146782417650284 -0.16939484774585431 -0.52854591872823764 1.0000000180025095e-35 0.31267087545118194 -0.82017273902038434 -0.45493648884964361 -0.23866889169909691 -0.16933026814120228 -0.029115213152787738
decision_type=2 2 2 2 2 2 2 2 2 2 2 2 2 2 2 2 2 2 2 2 2 2 2 2 2 2 2 2 2 2
left_child=-1 -2 3 5 9 7 18 -3 12 14 17 22 16 -12 -4 -8 -5 -10 23 -11 -17 29 -6 -7 25 26 -14 -16 -13 -9
right_child=1 2 4 8 11 6 15 21 10 19 13 28 24 -15 27 20 -18 -19 -20 -21 -22 -23 -24 -25 -26 -27 -28 -29 -30 -31
leaf_value=-2.3523461489024911 -2.3508100657071243 -2.2708296793803759 -2.1587173761150518 -2.1015284335261151 -1.9021309438715794 -1.9326788744348844 -2.3045365753747284 -2.1005064221258141 -2.0494246910305858 -1.7499455224526792 -1.9358603905249359 -1.8347054095913464 -2.1562157123839478 -2.2578519329887952 -1.8928073310969036 -2.133838101371611 -2.2091297187474481 -2.2253827881709167 -2.1822024605159029 -2.2021982450125983 -2.3159595338820327 -2.2528473021639228 -2.1647131668935335 -2.1007552990322758 -2.0218863766785944 -2.1615235902134202 -1.9412963096779137 -2.1821024936014575 -1.9800760988492367 -2.1963340907513009
leaf_count=38370 2353 3961 140 550 95 389 378 598 350 20 661 995 129 51 253 601 1081 223 131 666 149 557 122 170 525 644 170 46 178 807
internal_value=0 2.48984 3.06196 2.42395 6.13786 1.58113 3.11429 1.11055 3.91215 3.57946 5.35008 8.20851 3.31591 6.76791 5.78797 1.64445 2.4895 3.58831 5.51715 2.16613 2.546 2.28299 4.95124 6.27053 4.23408 3.52448 5.26598 7.20011 8.81109 2.83544
internal_count=55363 16993 14640 12125 2515 7741 1818 5923 4384 1125 1285 1390 3099 712 439 1128 1631 573 690 686 750 1962 217 559 1468 943 299 299 1173 1405
shrinkage=1


Tree=1
num_leaves=31
num_cat=0
split_feature=0 19 192 2 45 4 4 193 68 37 193 32 2 110 29 191 156 90 13 134 88 37 27 11 176 54 99 109 191 22
split_gain=10655.3 2142.57 1282.76 896.315 410.591 370.477 324.654 153.97 149.725 131.137 124.621 166.517 124.453 122.134 117.228 149.713 112.109 107.112 98.9954 94.4966 85.9555 83.5659 81.464 80.6024 78.0917 85.7168 76.464 72.5675 73.6894 69.6792
threshold=1.0000000180025095e-35 -0.68645552219839645 1.7794473382532678 -0.50302042471760466 1.0479707763988306 -0.090746668192894744 0.26525886845223018 0.50638228876016622 0.46392432287059332 -0.57883813548558238 0.59342176155057946 -0.77820143445217227 0.80103311955548828 -0.16939598533423703 1.0000000180025095e-35 0.70187696298359181 0.65484568899948437 -1.454046339758831 0.1900226446895128 0.91838627233071291 -0.80544128342840959 -0.66140660364867931 0.52580644472962457 0.52703017938862151 1.6917829976509935 1.5546088768384865 -0.22087754183569039 -0.15606155511485012 1.3228367232199236 0.53274477123067798
decision_type=2 2 2 2 2 2 2 2 2 2 2 2 2 2 2 2 2 2 2 2 2 2 2 2 2 2 2 2 2 2
left_child=-1 -2 3 6 9 12 10 17 22 -4 29 -12 14 18 20 -16 21 -7 -8 -19 -5 -6 24 -11 25 -9 -21 28 -20 -3
right_child=1 2 4 5 16 7 13 8 -10 23 11 -13 -14 -15 15 -17 -18 19 27 26 -22 -23 -24 -25 -26 -27 -28 -29 -30 -31
leaf_value=-0.054757283367913627 -0.053159494659873532 0.0052567277826509225 0.24236695569971289 0.12440757314934719 0.32146420123159108 0.29243921781313087 0.038870454525995621 0.23415967691751455 0.027562895989414301 0.084006263316467877 0.17175708573702364 0.025899787335816434 0.16803899630678967 0.0419167530036757 0.070300044683495919 0.21346871119139774 0.3146725139574687 0.12889338876810746 0.13071192280496141 0.25788422445237158 0.024165075082029659 0.20049340114426217 0.32126659455379453 0.19708746438250335 0.03245831828900006 -0.014228534743610563 0.13212510607246805 0.2944465531132815 0.28414648268006765 0.11686778790608721
leaf_count=38370 2353 3018 263 296 169 133 152 839 111 598 305 584 471 350 528 299 737 2293 447 302 1083 519 201 229 59 40 219 137 95 163
internal_value=0 2.11426 2.54457 2.07206 4.51166 2.83066 1.01028 3.42293 4.33689 2.97961 0.551714 1.62393 1.86694 2.53698 1.52973 2.49477 5.51428 3.00387 3.20823 2.86727 0.92707 4.62374 4.64984 2.31557 4.25677 4.48327 4.1088 3.73867 3.20318 0.225796
internal_count=55363 16993 14640 12125 2515 6874 5251 4197 1250 1090 4070 889 2677 1181 2206 827 1425 2947 831 2814 1379 688 1139 827 938 879 521 679 542 3181
shrinkage=0.05


Tree=2
num_leaves=31
num_cat=0
split_feature=0 10 50 4 110 214 191 96 191 29 35 194 100 109 37 213 36 30 203 22 50 203 1 166 185 152 176 80 11 204
split_gain=9227.34 1681.34 869.182 615.535 320.428 192.239 302.092 190.192 167.855 164.5 154.522 128.242 101.377 92.1909 91.584 105.309 89.4032 80.5855 74.3187 73.3881 69.2621 67.8458 67.8093 65.0908 63.1292 62.0511 60.4937 60.2552 59.1322 57.8362
threshold=1.0000000180025095e-35 -0.79571443360598526 -1.4069235158000455 -0.090746668192894744 -0.16943508725190212 0.64657107639719225 0.98584203240296098 -0.20396112772467676 0.7087194947768295 1.0000000180025095e-35 -1.865886908029897 3.887121153493077 -1.0533415561325727 -0.15605741675832602 -0.59075465175262309 0.25090515557835558 0.41214278042337565 1.8398672539524188 4.1868169376023072 0.22658931524633466 -2.1728161614412413 -0.36283509387162988 0.66268058069267222 -0.95811080828311457 -0.43973637026835682 0.58316070887721649 1.0000000180025095e-35 0.82752942284118058 -0.26201899393532496 -0.12767991307111715
decision_type=2 2 2 2 2 2 2 2 2 2 2 2 2 2 2 2 2 2 2 2 2 2 2 2 2 2 2 2 2 2
left_child=-1 -2 4 5 10 11 17 29 13 -10 -3 12 27 25 -6 -16 -17 -7 28 20 -12 -15 -11 -21 -8 -9 -13 -4 -14 -5
right_child=1 2 3 7 14 6 24 8 9 22 19 26 18 21 15 16 -18 -19 -20 23 -22 -23 -24 -25 -26 -27 -28 -29 -30 -31
leaf_value=-0.054503792102142817 -0.052609027332555972 0.2655251683318316 0.063191920351683986 0.16491218813829156 0.25757120109270182 0.040660735422337724 0.22959218016293464 0.052968684170569352 0.082148233697582299 0.21186002410187732 0.15542730111849501 0.057173304765077697 -0.024849381457944946 0.047222124836630429 0.20820427025887561 0.031325046633812449 0.29181097238373338 0.18335390047346856 0.17339378773914788 0.049180962795006299 0.028593910836133375 0.20084295132295629 0.11216212666983993 0.18516995929254301 0.11177451789499691 0.10728564535634218 0.2193169905350307 0.24074636948857933 0.023860673150386702 0.023597408389244005
leaf_count=38370 2350 125 451 1874 596 1460 291 1760 636 607 128 112 1418 104 909 170 37 115 62 123 483 241 200 256 157 733 109 55 1355 76
internal_value=0 1.84231 2.18392 1.77784 3.59125 0.972822 1.74478 2.42564 2.04968 2.88967 2.25639 0.499657 0.326977 1.59564 4.29607 3.81569 1.69793 1.01847 0.0770224 1.82648 1.13917 3.12103 3.74412 2.86147 3.82439 1.3841 2.77565 1.66426 -0.00875076 3.19911
internal_count=55363 16993 14643 11816 2827 5585 2023 6231 4281 1443 1115 3562 3341 2838 1712 1116 207 1575 2835 990 611 345 807 379 448 2493 221 506 2773 1950
shrinkage=0.05


Tree=3
num_leaves=31
num_cat=0
split_feature=0 19 50 4 169 11 27 49 211 43 11 203 35 110 99 49 106 192 38 193 75 3 122 94 16 45 83 193 110 203
split_gain=8110.63 1362.09 608.206 456.232 213.486 160.239 147.153 128.236 105.135 116.615 96.2417 94.3653 91.5708 90.9009 86.6539 75.2982 74.9276 68.0754 66.4204 65.0934 58.4807 57.0336 55.8005 55.3536 55.1071 52.1104 49.7839 47.0634 46.1139 44.9813
threshold=1.0000000180025095e-35 -0.68645552219839645 -1.4069235158000455 -0.090746668192894744 -0.28601035304264116 -0.26201899393532496 0.59941287364917495 1.0003131095770286 1.2746128104676755 -1.1081354035189577 -0.41982882860011467 -0.17149244041435563 -1.865886908029897 -0.16942739243236984 0.94909653571831043 0.8732264468641201 1.7703905554678745 2.9272971881634025 0.74815915354026341 0.47529676276359012 0.20198529406623744 1.3038184647195452 0.93739226493109895 0.36123039055794354 -0.42011748054463766 -0.39581414292652445 -1.1647236639744116 0.10848755600399247 -0.16939823904707077 4.4295463735382823
decision_type=2 2 2 2 2 2 2 2 2 2 2 2 2 2 2 2 2 2 2 2 2 2 2 2 2 2 2 2 2 2
left_child=-1 -2 4 5 12 15 7 10 9 22 16 13 -3 19 21 -4 28 26 -19 23 -9 25 -6 -7 -17 -12 -14 -16 -5 -13
right_child=1 2 3 6 8 11 -8 20 -10 -11 14 29 17 -15 27 24 -18 18 -20 -21 -22 -23 -24 -25 -26 -27 -28 -29 -30 -31
leaf_value=-0.054264885446233126 -0.052546655915779117 0.206643664140372 0.0049853668634054918 0.060900341113913473 0.078454409008525794 0.10667933911561722 0.19142963918563383 0.19994492286838239 0.18903951663403107 0.0058154765470138162 0.13727428898505667 0.0083482898890823616 0.12983689505496385 0.043758253692837097 0.090203238592854881 0.24728927977392848 0.21534118997255183 0.21182548699617654 0.058140137306689911 0.14677308907491229 0.045580761962313476 0.21458398256464448 0.20695104093941874 0.017329664540889255 0.059788988577764962 0.081593575831000936 0.020368178090441585 0.16202149581746572 -0.013774908357925962 0.16447348015402385
leaf_count=38370 2353 105 2394 649 98 550 374 314 1468 177 404 723 122 870 290 47 56 106 120 518 59 75 159 254 186 3104 467 614 294 43
internal_value=0 1.63172 1.91113 1.5761 3.01417 0.888158 2.10146 1.98242 3.47546 2.23422 1.85974 1.37351 1.80714 1.68683 2.03831 0.284149 0.991612 1.43576 2.73004 2.17288 3.54346 1.82375 3.23958 1.58059 1.96054 1.76659 0.860417 2.82267 0.778222 0.379755
internal_count=55363 16993 14640 11818 2822 5585 6233 5859 1902 434 5486 2958 920 2192 4487 2627 999 815 226 1322 373 3583 257 804 233 3508 589 904 943 766
shrinkage=0.05


Tree=4
num_leaves=31
num_cat=0
split_feature=0 10 2 56 192 2 22 19 193 29 152 96 30 37 110 156 107 23 191 70 45 8 34 78 2 11 19 15 191 214
split_gain=7208.98 1128.81 597.29 214.898 208.709 152.065 145.337 129.362 109.203 131.527 93.5481 75.3669 72.9329 69.9409 69.7295 69.0732 64.7264 63.8026 66.2993 58.4758 71.1262 53.5596 52.3271 52.2147 49.3993 45.6893 44.3616 46.979 44.0336 63.2544
threshold=1.0000000180025095e-35 -0.79571443360598526 -0.31672706125001976 -1.4152262955293049 1.8119336547601586 0.80103311955548828 0.37966704323850625 0.73742521805365269 0.59342176155057946 1.0000000180025095e-35 -0.38055898838686725 -0.30135657522009779 1.7280168569310195 -0.60151340222120708 -0.16940057324964855 0.65484568899948437 1.4918888454053314 -0.31257882359712791 1.0474248185421016 -0.37140916451626316 0.034249450064007432 0.9331958234519635 -1.7149865977981269 -0.47708588222294168 1.7324999368934113 -0.41982882860011467 0.66228639271053658 0.58862517865151476 1.524691411120439 1.0847562080019466
decision_type=2 2 2 2 2 2 2 2 2 2 2 2 2 2 2 2 2 2 2 2 2 2 2 2 2 2 2 2 2 2
left_child=-1 -2 3 13 5 7 8 11 12 19 -6 -4 25 -3 -8 -15 22 -11 -19 20 -10 -18 -13 -14 26 -5 -7 -28 -24 -30
right_child=1 2 4 6 10 24 14 -9 9 17 -12 16 23 15 -16 -17 21 18 -20 -21 -22 -23 28 -25 -26 -27 27 -29 29 -31
leaf_value=-0.054039620336260433 -0.052003921708113049 0.15115422620216498 0.12904305063100671 -0.012557015236517678 0.086134510621826574 0.15892379009023205 0.10893508156800585 0.038519452823475554 0.27375813143157129 0.030897804010252428 0.16721414628904863 0.23873027211204359 0.16443489793982985 0.048594503874743324 0.026800519566995792 0.13607027402106583 0.15371832647345002 0.059247646703913241 0.19996358298787054 -0.016626976808867006 0.045567835948694874 -0.01274493604354233 0.062045460866051838 0.024098829988262599 0.21168232756338801 0.024360503341741294 0.085508475763492908 0.15430840390812947 0.048148374764243849 0.18721526319231255
leaf_count=38370 2350 357 996 1822 332 512 761 1012 31 99 1143 37 118 500 346 223 361 105 185 417 241 44 1926 141 135 1674 594 291 128 112
internal_value=0 1.46316 1.69806 1.03577 2.21194 1.95669 0.773131 1.68698 0.523622 1.32861 3.03933 1.94136 0.245047 2.10289 1.71977 1.601 1.66998 2.52385 3.15485 0.449653 1.4859 2.71222 1.46629 1.84082 2.70322 0.118715 2.54218 2.15775 1.40428 2.48091
internal_count=55363 16993 14643 7020 7623 6148 5940 4616 4833 1078 1475 3604 3755 1080 1107 723 2608 389 290 689 272 405 2203 259 1532 3496 1397 885 2166 240
shrinkage=0.05


Tree=5
num_leaves=31
num_cat=0
split_feature=0 19 50 4 11 166 27 203 152 193 35 96 49 211 43 193 78 156 78 38 185 22 169 220 185 99 100 156 107 92
split_gain=6497.57 954.398 405.831 305.583 147.352 110.222 103.021 99.8819 77.09 82.2056 75.3623 71.8262 68.1587 64.562 82.225 61.1942 56.3981 55.227 49.2759 46.672 45.8844 44.2726 44.249 54.5908 44.6744 42.3786 41.1986 40.655 50.9254 43.7529
threshold=1.0000000180025095e-35 -0.85176093795325236 -1.4069235158000455 1.0000000180025095e-35 -0.26201899393532496 -0.27496142227988074 0.59941287364917495 -0.2658686531130417 0.17652023112907769 0.47529676276359012 -2.3696045508773245 -0.27444467525425859 0.8732264468641201 1.3682748382665098 -1.4299012259560646 0.3509546587772861 1.0045370119954509 1.1667994787534293 -0.61455604766588567 0.81079367399141711 2.2566460566071878 0.68582249922284955 -0.43793473105650738 1.0000000180025095e-35 0.50185749308500793 1.2119541478559934 0.08105183828519863 -0.87940407336911186 -0.17303651501569559 -0.0027498203594575831
decision_type=2 2 2 2 2 2 2 2 2 2 2 2 2 2 2 2 2 2 2 2 2 2 2 2 2 2 2 2 2 2
left_child=-1 -2 5 4 12 10 11 8 9 27 -3 -5 25 14 -7 17 -12 -13 26 -18 -20 -9 23 24 -17 -4 -10 28 -6 -29
right_child=1 2 3 6 7 13 -8 21 18 -11 16 15 -14 -15 -16 22 19 -19 20 -21 -22 -23 -24 -25 -26 -27 -28 29 -30 -31
leaf_value=-0.053827113113277758 -0.052279002721995121 0.19287564411663274 -0.0030906177022592702 0.10570053720633446 0.15105344556655387 0.16278906296017914 0.15251021283599636 0.01044586482974713 0.10690880600981248 0.12800809112447131 0.025834326958802563 0.044761333768962797 0.081020958307196411 0.1432370980980448 0.046243606645282001 0.13979605569481898 0.13919000501500153 0.13551501052287632 0.011994991613228787 0.049974526565081993 0.16159520465331098 0.21409510978444893 0.067490595132752101 0.010141661061778386 -0.011688276120698846 0.058402994356010034 -0.023189342444738963 0.080668082032554544 0.026084166096365241 0.0052160235458658909
leaf_count=38330 2341 73 2411 1432 196 138 372 959 289 607 429 1737 275 1467 316 500 207 142 752 227 48 21 811 84 40 307 66 326 110 350
internal_value=0 1.32843 1.52748 1.2617 0.812037 2.34693 1.74469 1.1796 1.44485 1.83616 1.53964 1.62837 0.261846 2.64611 1.75924 1.39092 1.27615 1.04062 0.855088 1.94637 0.424145 0.317568 1.80849 2.31397 2.59878 0.0899286 1.71329 1.27071 2.1494 0.860344
internal_count=55363 17033 14692 11835 6717 2857 5118 3724 2744 1589 936 4746 2993 1921 454 3314 863 1879 1155 434 800 980 1435 624 540 2718 355 982 306 676
shrinkage=0.05


Tree=6
num_leaves=31
num_cat=0
split_feature=0 19 2 2 50 78 19 22 74 198 27 43 90 43 27 16 5 137 27 37 137 215 20 11 49 15 110 5 92 2
split_gain=5860.58 815.165 388.252 171.679 144.831 126.926 116.809 93.865 74.0942 118.965 64.2199 63.8856 60.0047 57.4732 54.7379 47.6552 56.1762 46.695 49.4558 43.9777 42.3848 41.9547 41.2641 40.0867 38.0856 45.8895 37.7492 46.758 36.9493 36.2684
threshold=1.0000000180025095e-35 -0.85176093795325236 -0.68931378818518962 0.80103311955548828 -1.7068700657313569 1.1114582517844094 0.58714756736742058 0.53274477123067798 1.0000000180025095e-35 1.4714952914559911 -1.1786207212589568 -2.0412562885865664 -1.2886547669060489 2.6981650018988135 0.6147014616935389 0.36145219623600006 -0.54788964727652101 0.92400582277521293 0.094256626511192584 -0.61294986925474149 0.94308849956858709 -0.42958682771620399 0.33880900889505722 -0.41982882860011467 0.77694867208161333 -0.64173193182028132 -0.16940349771034946 1.4853704629558366 -0.95808311529144807 1.0000000180025095e-35
decision_type=2 2 2 2 2 2 2 2 2 2 2 2 2 2 2 2 2 2 2 2 2 2 2 2 2 2 2 2 2 2
left_child=-1 -2 4 5 19 6 12 8 11 10 -10 -6 -4 -11 15 16 -14 24 20 -3 -19 29 -17 -9 25 -5 27 -24 -13 -8
right_child=1 2 3 17 7 -7 21 23 9 13 -12 28 14 -15 -16 22 -18 18 -20 -21 -22 -23 26 -25 -26 -27 -28 -29 -30 -31
leaf_value=-0.053626560104778398 -0.052007927885266571 0.1305880446467664 0.14153323260618875 0.1261421312401789 0.1370053632628277 0.11306389450299992 0.023664129669401471 0.032133383691079584 0.22621498577084209 0.15020687742168307 0.014770264373550175 0.038800103327555457 0.063695544756200248 -0.037560215950529559 0.16072071172291044 0.015204534182805714 0.10568897534101884 0.11662360655103038 0.15543856562609537 0.064184274444574974 -0.024769850212201558 0.028634680749013337 0.071926526098803553 0.11757889969921653 0.15207437525285233 0.070400552738865627 0.02471822639052617 0.18627266153109262 -0.012419769668729111 0.080109411618348794
leaf_count=38330 2341 219 250 362 56 1023 318 186 34 188 1172 381 1233 38 116 480 1140 130 589 456 55 1507 343 260 176 685 237 83 2241 734
internal_value=0 1.21127 1.38369 1.68131 0.714899 1.483 1.32482 0.484905 0.325978 0.852807 0.41505 0.00263877 1.62395 2.49558 1.52783 1.4601 1.67414 2.32263 2.78631 1.76319 1.5991 0.869106 0.976766 1.68382 2.00676 1.81267 1.41064 1.88998 -0.0839442 1.28593
internal_count=55363 17033 14692 9461 5231 7464 6441 4556 4110 1432 1206 2678 3882 226 3632 3516 2373 1997 774 675 185 2559 1143 446 1223 1047 663 426 2622 1052
shrinkage=0.05


Tree=7
num_leaves=31
num_cat=0
split_feature=0 19 2 50 4 50 211 166 166 88 16 185 37 182 92 2 19 6 108 4 104 166 169 50 14 8 27 15 185 16
split_gain=5311.41 703.101 316.574 183.355 121.706 102.202 78.9747 77.3011 66.8367 61.1023 57.0966 53.1431 52.6177 52.2742 49.3676 47.2435 58.7492 42.1014 45.519 41.7259 40.735 58.5816 40.7263 43.0813 40.1083 49.3727 41.0581 67.2661 39.9577 38.196
threshold=1.0000000180025095e-35 -0.85176093795325236 -1.0619005151203593 -1.3348242071959751 -0.090746668192894744 -1.7068700657313569 -0.16909031081534795 -0.27496142227988074 -0.25698380685874084 -0.7061037984206161 -0.39753640003531926 -0.225737764960774 -1.3385019284143223 -0.37192835573886912 0.75555633055709526 0.98732648302307335 0.58714756736742058 -0.60079269179230643 -0.16947461125029023 0.26525886845223018 1.0000000180025095e-35 0.88998805700984207 -0.039865811809482753 1.0000000180025095e-35 -0.099870278014614761 -1.5684140901667998 -0.86564724369373003 1.3802142141465754 1.2722524721923063 -0.63035977511597119
decision_type=2 2 2 2 2 2 2 2 2 2 2 2 2 2 2 2 2 2 2 2 2 2 2 2 2 2 2 2 2 2
left_child=-1 -2 5 7 6 29 8 12 14 13 17 -10 -4 -6 24 16 20 -7 -19 -12 22 -22 -11 -24 25 -5 27 -26 -15 -3
right_child=1 2 3 4 9 10 -8 -9 11 15 19 -13 -14 28 -16 -17 -18 18 -20 -21 21 -23 23 -25 26 -27 -28 -29 -30 -31
leaf_value=-0.053437200919399533 -0.051744273818213449 0.13335591610234668 0.14928466243315122 0.21525600312603899 0.13129404235915348 0.0093914261368878774 -0.0016869487420603337 0.11433367728597173 -0.0029154853852712257 0.10805232126015983 -0.010370195027785184 0.053508535033742782 0.05186012772649843 0.093588363963296881 -0.010231097427194306 0.099928416896822803 0.034940508184303852 0.10519566047363937 0.017730966135331549 0.042137740615169138 0.030239086365493661 0.13005637192212341 0.027097849293410969 0.1099763420087469 -0.012791552603719659 0.031432834405615812 0.11799773415213476 0.18209556316622388 0.03411984623776574 0.055068970367252959
leaf_count=38330 2341 122 93 29 435 444 808 1596 664 653 1927 848 663 799 127 508 1140 317 243 365 632 132 329 183 127 328 568 41 236 335
internal_value=0 1.10993 1.26078 1.46561 1.26255 0.499511 0.834255 2.03002 1.04872 1.50407 0.273495 0.61356 1.31847 1.92294 1.50021 1.31017 1.17672 0.858042 1.41131 -0.0022473 1.46211 0.95884 1.76224 1.15776 1.67364 0.927855 2.02852 0.8221 1.61056 1.55003
internal_count=55363 17033 14692 10939 8587 3753 3540 2352 2732 5047 3296 1512 756 1470 1220 3577 3069 1004 560 2292 1929 764 1165 512 1093 357 736 168 1035 457
shrinkage=0.05


Tree=8
num_leaves=31
num_cat=0
split_feature=0 1 2 50 50 13 110 18 2 19 4 110 27 28 107 92 215 163 19 135 111 38 192 203 14 5 21 71 16 27
split_gain=4836.65 613.882 266.245 125.235 115.202 98.2484 95.4335 85.5868 78.4281 78.7031 63.8629 60.0861 53.2503 51.8728 46.5313 45.9428 49.4013 42.9666 40.4108 40.0862 39.3948 38.0278 37.6062 36.1792 36.0672 35.4214 33.8544 32.7019 32.6266 32.0117
threshold=1.0000000180025095e-35 -1.0325633218603665 -0.50302042471760466 -1.3348242071959751 -2.0739591263471682 0.1900226446895128 -0.16939372625542037 0.17023083098778596 0.98732648302307335 0.58714756736742058 0.26525886845223018 -0.16943839806337452 -0.069823021000878449 -0.56494544017595205 -0.62875205775975085 0.57839746997178731 -0.42958682771620399 0.13273924477714089 0.28659226599495624 1.0000000180025095e-35 -0.15002186131409326 0.17066887498062658 1.7917457295023052 2.845705470652097 1.5647322956453074 -1.0971213572242364 1.1362823897631176 1.0000000180025095e-35 0.5641721618433756 -0.26836525126662053
decision_type=2 2 2 2 2 2 2 2 2 2 2 2 2 2 2 2 2 2 2 2 2 2 2 2 2 2 2 2 2 2
left_child=-1 -2 4 11 -3 12 7 25 9 13 -9 17 14 18 29 16 20 21 -5 -20 -11 -4 -16 -8 28 -7 27 -15 -12 -6
right_child=1 2 3 8 5 6 23 10 -10 15 24 -13 -14 26 22 -17 -18 -19 19 -21 -22 -23 -24 -25 -26 -27 -28 -29 -30 -31
leaf_value=-0.053258350229015955 -0.052295082757640304 0.098329369195660085 0.12172192507168358 0.1221730473589111 0.048553722200116799 0.024194914845263236 -0.0073737584872637946 0.0078174701274354632 0.092722699052859847 0.094812153385843645 0.084727866173780683 0.10921026711818263 -0.018864203916368179 0.0059753276968216003 0.004929113621087583 0.0069469740971362303 0.032455636549940582 -0.013565221675297112 -0.030965069590155131 0.080434673139537671 0.025592658499218587 0.054490706325482099 0.059208252577816381 0.11476330691255715 0.23930868340172184 0.11743033543753781 0.14543315537767762 0.058217707209631299 0.002956891969476445 0.15722649832772939
leaf_count=38330 2300 345 180 399 244 88 646 621 1001 480 353 1225 991 279 1857 687 1256 113 64 843 204 400 244 38 22 512 59 1405 111 66
internal_value=0 1.02267 1.15533 1.42037 0.677461 0.558302 0.970518 1.29995 1.23519 1.10686 0.832743 1.92053 0.211119 1.39094 0.453975 0.767943 0.963895 1.29681 1.77116 1.46847 1.51609 1.54921 0.283003 0.0474991 1.48174 2.09194 1.08415 1.00876 1.33473 1.48575
internal_count=55363 17033 14733 8595 6138 5793 2391 1707 6677 5676 1107 1918 3402 3049 2411 2627 1940 693 1306 907 684 580 2101 684 486 600 1743 1684 464 310
shrinkage=0.05


Tree=9
num_leaves=31
num_cat=0
split_feature=0 1 2 50 193 16 68 27 193 192 185 185 2 19 30 112 94 12 5 83 88 2 2 38 107 154 215 6 190 209
split_gain=4420.5 538.919 230.629 117.887 127.214 96.8501 96.7026 89.4566 79.5594 78.6417 68.4514 49.1118 42.9482 43.9689 40.9947 43.1378 40.5417 37.4379 35.7029 33.9033 32.2268 31.6291 29.1962 27.992 27.6525 27.0516 30.6986 26.5938 26.5238 26.4554
threshold=1.0000000180025095e-35 -1.0325633218603665 1.0000000180025095e-35 -2.0739591263471682 0.55611913035468818 -0.64544464364732013 0.46392432287059332 0.58102365556485658 2.0451158255906825 1.8119336547601586 -0.054538880714707721 1.4006516353768561 1.3599132099582414 0.73742521805365269 1.7108784896454825 0.93398460494412627 0.89684629096306734 -0.085888440431881763 -0.45223544288927969 0.32770801806158312 -0.73201792494438822 -2.0585700096719362 -1.0619005151203593 0.37485741165138781 1.7635134879727028 -0.42096360863610788 -0.31753450950478662 0.45852578993808873 0.30420462760403921 0.74881868556439368
decision_type=2 2 2 2 2 2 2 2 2 2 2 2 2 2 2 2 2 2 2 2 2 2 2 2 2 2 2 2 2 2
left_child=-1 -2 3 23 5 18 8 9 16 12 17 14 13 20 22 -16 29 -7 24 -10 27 -20 -12 -3 -5 -11 -27 -4 -23 -6
right_child=1 2 7 4 6 10 -8 -9 19 25 11 -13 -14 -15 15 -17 -18 -19 21 -21 -22 28 -24 -25 -26 26 -28 -29 -30 -31
leaf_value=-0.053089355311495737 -0.052070778087103226 0.11658028823139704 0.071933961839826935 0.035143159022056045 0.084978016874114604 -0.015006414421988268 -0.029213358387515254 0.1176769272872743 -0.022994454060792022 0.053014897447082876 0.0090388289513371224 -0.0096551885840334972 0.097354230902804706 0.034430278796147663 0.069384396246137375 0.23050879171440597 0.042357910690690184 0.019999089164287887 0.0072651920944249411 0.064612156222588632 0.054112220350591267 0.091905751471672237 0.047879824290214201 0.065944359931835936 0.13120708712895707 0.12067968159176308 0.078091398395676526 0.12740137711928776 0.19673659454426995 0.14095155553555719
leaf_count=38330 2300 234 501 818 925 1944 270 481 251 208 662 516 344 1291 186 35 349 976 84 123 1811 263 921 342 55 425 372 163 53 130
internal_value=0 0.946003 1.06421 0.774715 0.675537 0.462473 1.21806 1.43213 1.39095 1.33031 0.280377 0.627798 1.16053 1.07693 0.829485 1.91584 1.62733 -0.0364162 1.13554 0.202345 1.26873 1.83922 0.671015 1.75558 0.834004 1.86981 2.03241 1.70606 2.20915 1.84733
internal_count=55363 17033 14733 9137 8561 6513 2048 5596 1778 5115 5240 2320 4110 3766 1804 221 1404 2920 1273 374 2475 400 1583 576 873 1005 797 664 316 1055
shrinkage=0.05


end of trees

feature importances:
Column_2=17
Column_19=13
Column_50=11
Column_193=11
Column_0=10
Column_27=10
Column_110=10
Column_4=8
Column_37=8
Column_192=8
Column_11=7
Column_22=7
Column_185=7
Column_16=6
Column_166=6
Column_191=6
Column_203=6
Column_43=5
Column_92=5
Column_156=5
Column_5=4
Column_15=4
Column_38=4
Column_49=4
Column_78=4
Column_107=4
Column_169=4
Column_1=3
Column_29=3
Column_30=3
Column_35=3
Column_45=3
Column_88=3
Column_96=3
Column_99=3
Column_137=3
Column_152=3
Column_211=3
Column_214=3
Column_215=3
Column_6=2
Column_8=2
Column_10=2
Column_13=2
Column_14=2
Column_32=2
Column_54=2
Column_68=2
Column_83=2
Column_90=2
Column_94=2
Column_100=2
Column_106=2
Column_109=2
Column_154=2
Column_176=2
Column_220=2
Column_3=1
Column_12=1
Column_18=1
Column_20=1
Column_21=1
Column_23=1
Column_28=1
Column_34=1
Column_36=1
Column_48=1
Column_56=1
Column_70=1
Column_71=1
Column_74=1
Column_75=1
Column_80=1
Column_104=1
Column_108=1
Column_111=1
Column_112=1
Column_122=1
Column_134=1
Column_135=1
Column_160=1
Column_163=1
Column_174=1
Column_182=1
Column_190=1
Column_194=1
Column_198=1
Column_204=1
Column_209=1
Column_213=1

parameters:
[boosting: gbdt]
[objective: binary]
[metric: auc]
[tree_learner: serial]
[device_type: cpu]
[data: ]
[valid: ]
[num_iterations: 100]
[learning_rate: 0.05]
[num_leaves: 31]
[num_threads: 0]
[max_depth: -1]
[min_data_in_leaf: 20]
[min_sum_hessian_in_leaf: 0.001]
[bagging_fraction: 0.8]
[bagging_freq: 5]
[bagging_seed: 3]
[feature_fraction: 0.9]
[feature_fraction_seed: 2]
[early_stopping_round: 0]
[max_delta_step: 0]
[lambda_l1: 0]
[lambda_l2: 0]
[min_gain_to_split: 0]
[drop_rate: 0.1]
[max_drop: 50]
[skip_drop: 0.5]
[xgboost_dart_mode: 0]
[uniform_drop: 0]
[drop_seed: 4]
[top_rate: 0.2]
[other_rate: 0.1]
[min_data_per_group: 100]
[max_cat_threshold: 32]
[cat_l2: 10]
[cat_smooth: 10]
[max_cat_to_onehot: 4]
[top_k: 20]
[monotone_constraints: ]
[feature_contri: ]
[forcedsplits_filename: ]
[refit_decay_rate: 0.9]
[verbosity: 0]
[max_bin: 255]
[min_data_in_bin: 3]
[bin_construct_sample_cnt: 200000]
[histogram_pool_size: -1]
[data_random_seed: 1]
[output_model: LightGBM_model.txt]
[snapshot_freq: -1]
[input_model: ]
[output_result: LightGBM_predict_result.txt]
[initscore_filename: ]
[valid_data_initscores: ]
[pre_partition: 0]
[enable_bundle: 1]
[max_conflict_rate: 0]
[is_enable_sparse: 1]
[sparse_threshold: 0.8]
[use_missing: 1]
[zero_as_missing: 0]
[two_round: 0]
[save_binary: 0]
[enable_load_from_binary_file: 1]
[header: 0]
[label_column: ]
[weight_column: ]
[group_column: ]
[ignore_column: ]
[categorical_feature: ]
[predict_raw_score: 0]
[predict_leaf_index: 0]
[predict_contrib: 0]
[num_iteration_predict: -1]
[pred_early_stop: 0]
[pred_early_stop_freq: 10]
[pred_early_stop_margin: 10]
[convert_model_language: ]
[convert_model: gbdt_prediction.cpp]
[num_class: 1]
[is_unbalance: 0]
[scale_pos_weight: 1]
[sigmoid: 1]
[boost_from_average: 1]
[reg_sqrt: 0]
[alpha: 0.9]
[fair_c: 1]
[poisson_max_delta_step: 0.7]
[tweedie_variance_power: 1.5]
[max_position: 20]
[label_gain: ]
[metric_freq: 1]
[is_provide_training_metric: 0]
[eval_at: ]
[num_machines: 1]
[local_listen_port: 12400]
[time_out: 120]
[machine_list_filename: ]
[machines: ]
[gpu_platform_id: -1]
[gpu_device_id: -1]
[gpu_use_dp: 0]

end of parameters

pandas_categorical:null
